<?xml version="1.0"?>
<MethodSetup Method="BDT::BDT">
  <GeneralInfo>
    <Info name="TMVA Release" value="4.2.1 [262657]"/>
    <Info name="ROOT Release" value="6.12/06 [396294]"/>
    <Info name="Creator" value="xqian"/>
    <Info name="Date" value="Fri Jul 24 21:12:56 2020"/>
    <Info name="Host" value="Linux xqian 4.15.0-46-generic #49-Ubuntu SMP Wed Feb 6 09:33:07 UTC 2019 x86_64 x86_64 x86_64 GNU/Linux"/>
    <Info name="Dir" value="/home/xqian/wire-cell/wcp_dev/test_files/bdt_training/gap_tagger"/>
    <Info name="Training events" value="22400"/>
    <Info name="TrainingTime" value="3.91249013e+00"/>
    <Info name="AnalysisType" value="Classification"/>
  </GeneralInfo>
  <Options>
    <Option name="V" modified="Yes">False</Option>
    <Option name="VerbosityLevel" modified="No">Default</Option>
    <Option name="VarTransform" modified="Yes">D,P,U,G,D,N</Option>
    <Option name="H" modified="Yes">False</Option>
    <Option name="CreateMVAPdfs" modified="No">False</Option>
    <Option name="IgnoreNegWeightsInTraining" modified="No">False</Option>
    <Option name="NTrees" modified="Yes">850</Option>
    <Option name="MaxDepth" modified="Yes">3</Option>
    <Option name="MinNodeSize" modified="Yes">2.5%</Option>
    <Option name="nCuts" modified="Yes">20</Option>
    <Option name="BoostType" modified="Yes">AdaBoost</Option>
    <Option name="AdaBoostR2Loss" modified="No">quadratic</Option>
    <Option name="UseBaggedBoost" modified="Yes">True</Option>
    <Option name="Shrinkage" modified="No">1.000000e+00</Option>
    <Option name="AdaBoostBeta" modified="Yes">5.000000e-01</Option>
    <Option name="UseRandomisedTrees" modified="No">False</Option>
    <Option name="UseNvars" modified="No">3</Option>
    <Option name="UsePoissonNvars" modified="No">True</Option>
    <Option name="BaggedSampleFraction" modified="Yes">5.000000e-01</Option>
    <Option name="UseYesNoLeaf" modified="No">True</Option>
    <Option name="NegWeightTreatment" modified="No">inverseboostnegweights</Option>
    <Option name="Css" modified="No">1.000000e+00</Option>
    <Option name="Cts_sb" modified="No">1.000000e+00</Option>
    <Option name="Ctb_ss" modified="No">1.000000e+00</Option>
    <Option name="Cbb" modified="No">1.000000e+00</Option>
    <Option name="NodePurityLimit" modified="No">5.000000e-01</Option>
    <Option name="SeparationType" modified="Yes">giniindex</Option>
    <Option name="RegressionLossFunctionBDTG" modified="No">huber</Option>
    <Option name="HuberQuantile" modified="No">7.000000e-01</Option>
    <Option name="DoBoostMonitor" modified="No">False</Option>
    <Option name="UseFisherCuts" modified="No">False</Option>
    <Option name="MinLinCorrForFisher" modified="No">8.000000e-01</Option>
    <Option name="UseExclusiveVars" modified="No">False</Option>
    <Option name="DoPreselection" modified="No">False</Option>
    <Option name="SigToBkgFraction" modified="No">1.000000e+00</Option>
    <Option name="PruneMethod" modified="No">nopruning</Option>
    <Option name="PruneStrength" modified="No">0.000000e+00</Option>
    <Option name="PruningValFraction" modified="No">5.000000e-01</Option>
    <Option name="SkipNormalization" modified="No">False</Option>
    <Option name="nEventsMin" modified="No">0</Option>
    <Option name="UseBaggedGrad" modified="No">False</Option>
    <Option name="GradBaggingFraction" modified="No">5.000000e-01</Option>
    <Option name="UseNTrainEvents" modified="No">0</Option>
    <Option name="NNodesMax" modified="No">0</Option>
  </Options>
  <Variables NVar="9">
    <Variable VarIndex="0" Expression="gap_flag_prolong_u" Label="gap_flag_prolong_u" Title="gap_flag_prolong_u" Unit="" Internal="gap_flag_prolong_u" Type="F" Min="0.00000000e+00" Max="1.00000000e+00"/>
    <Variable VarIndex="1" Expression="gap_flag_prolong_v" Label="gap_flag_prolong_v" Title="gap_flag_prolong_v" Unit="" Internal="gap_flag_prolong_v" Type="F" Min="0.00000000e+00" Max="1.00000000e+00"/>
    <Variable VarIndex="2" Expression="gap_flag_prolong_w" Label="gap_flag_prolong_w" Title="gap_flag_prolong_w" Unit="" Internal="gap_flag_prolong_w" Type="F" Min="0.00000000e+00" Max="1.00000000e+00"/>
    <Variable VarIndex="3" Expression="gap_flag_parallel" Label="gap_flag_parallel" Title="gap_flag_parallel" Unit="" Internal="gap_flag_parallel" Type="F" Min="0.00000000e+00" Max="1.00000000e+00"/>
    <Variable VarIndex="4" Expression="gap_n_points" Label="gap_n_points" Title="gap_n_points" Unit="" Internal="gap_n_points" Type="F" Min="3.00000000e+00" Max="3.60000000e+01"/>
    <Variable VarIndex="5" Expression="gap_n_bad" Label="gap_n_bad" Title="gap_n_bad" Unit="" Internal="gap_n_bad" Type="F" Min="0.00000000e+00" Max="2.10000000e+01"/>
    <Variable VarIndex="6" Expression="gap_energy" Label="gap_energy" Title="gap_energy" Unit="" Internal="gap_energy" Type="F" Min="6.03021812e+01" Max="5.93514355e+03"/>
    <Variable VarIndex="7" Expression="gap_num_valid_tracks" Label="gap_num_valid_tracks" Title="gap_num_valid_tracks" Unit="" Internal="gap_num_valid_tracks" Type="F" Min="0.00000000e+00" Max="7.00000000e+00"/>
    <Variable VarIndex="8" Expression="gap_flag_single_shower" Label="gap_flag_single_shower" Title="gap_flag_single_shower" Unit="" Internal="gap_flag_single_shower" Type="F" Min="0.00000000e+00" Max="1.00000000e+00"/>
  </Variables>
  <Spectators NSpec="0"/>
  <Classes NClass="2">
    <Class Name="Signal" Index="0"/>
    <Class Name="Background" Index="1"/>
  </Classes>
  <Transformations NTransformations="6">
    <Transform Name="Decorrelation">
      <Selection>
        <Input NInputs="9">
          <Input Type="Variable" Label="gap_flag_prolong_u" Expression="gap_flag_prolong_u"/>
          <Input Type="Variable" Label="gap_flag_prolong_v" Expression="gap_flag_prolong_v"/>
          <Input Type="Variable" Label="gap_flag_prolong_w" Expression="gap_flag_prolong_w"/>
          <Input Type="Variable" Label="gap_flag_parallel" Expression="gap_flag_parallel"/>
          <Input Type="Variable" Label="gap_n_points" Expression="gap_n_points"/>
          <Input Type="Variable" Label="gap_n_bad" Expression="gap_n_bad"/>
          <Input Type="Variable" Label="gap_energy" Expression="gap_energy"/>
          <Input Type="Variable" Label="gap_num_valid_tracks" Expression="gap_num_valid_tracks"/>
          <Input Type="Variable" Label="gap_flag_single_shower" Expression="gap_flag_single_shower"/>
        </Input>
        <Output NOutputs="9">
          <Output Type="Variable" Label="gap_flag_prolong_u" Expression="gap_flag_prolong_u"/>
          <Output Type="Variable" Label="gap_flag_prolong_v" Expression="gap_flag_prolong_v"/>
          <Output Type="Variable" Label="gap_flag_prolong_w" Expression="gap_flag_prolong_w"/>
          <Output Type="Variable" Label="gap_flag_parallel" Expression="gap_flag_parallel"/>
          <Output Type="Variable" Label="gap_n_points" Expression="gap_n_points"/>
          <Output Type="Variable" Label="gap_n_bad" Expression="gap_n_bad"/>
          <Output Type="Variable" Label="gap_energy" Expression="gap_energy"/>
          <Output Type="Variable" Label="gap_num_valid_tracks" Expression="gap_num_valid_tracks"/>
          <Output Type="Variable" Label="gap_flag_single_shower" Expression="gap_flag_single_shower"/>
        </Output>
      </Selection>
      <Matrix Rows="9" Columns="9">
        3.369142874354701e+00 3.443387045241650e-02 -6.969125093950167e-02 1.246501171474612e-01 1.828048061655986e-02 -3.034535958934734e-03 2.333919877923976e-04 -1.872774800866280e-02 -4.612356968182842e-02 3.443387045241633e-02 3.464378904355784e+00 -9.390091845526774e-02 1.350276179737083e-01 1.062060779291754e-02 3.203518777971488e-02 1.814897204272417e-04 -1.092033587400445e-02 1.073958846741654e-02 -6.969125093950169e-02 -9.390091845526773e-02 4.322263180926919e+00 9.894484514652276e-02 -3.706210228016241e-03 -3.474076889552428e-02 2.695585802564255e-04 -8.892121107082875e-03 1.701900322061625e-02 1.246501171474611e-01 1.350276179737083e-01 9.894484514652276e-02 2.620157254416456e+00 -1.476392775896483e-02 1.849295816658404e-02 -4.890466223302545e-04 4.406076904677204e-02 -1.019137176817060e-01 1.828048061655985e-02 1.062060779291754e-02 -3.706210228016241e-03 -1.476392775896483e-02 6.040382736444324e-01 -1.959543542357157e-02 1.373404006916585e-04 -3.425795361971154e-02 6.042482235442554e-03 -3.034535958934733e-03 3.203518777971488e-02 -3.474076889552428e-02 1.849295816658403e-02 -1.959543542357157e-02 1.479792040510171e+00 6.230351747316624e-05 -1.194301730159594e-02 2.582774930539520e-02 2.333919877923975e-04 1.814897204272417e-04 2.695585802564255e-04 -4.890466223302544e-04 1.373404006916585e-04 6.230351747316622e-05 1.612923741536631e-03 3.948683953105280e-05 1.040476885735859e-04 -1.872774800866280e-02 -1.092033587400443e-02 -8.892121107082870e-03 4.406076904677204e-02 -3.425795361971155e-02 -1.194301730159593e-02 3.948683953105280e-05 1.396106171293550e+00 5.225013145691314e-01 -4.612356968182841e-02 1.073958846741655e-02 1.701900322061626e-02 -1.019137176817059e-01 6.042482235442549e-03 2.582774930539521e-02 1.040476885735859e-04 5.225013145691313e-01 2.935298215540623e+00 
      </Matrix>
      <Matrix Rows="9" Columns="9">
        3.219422572038562e+00 1.474122510497880e-02 1.710508130572235e-02 2.210813952027366e-01 1.013607930314029e-02 -1.346243811791552e-02 -6.345878435104805e-05 -2.221895458378820e-02 8.813919878925628e-03 1.474122510497879e-02 3.578406211783407e+00 -5.287576707480094e-03 1.430634614195639e-01 3.463322218989885e-02 -6.220577730619743e-03 8.446308504370947e-05 -3.810917883128041e-02 4.197222238162287e-02 1.710508130572220e-02 -5.287576707480089e-03 3.082934184721541e+00 2.221657882266017e-01 1.678627075368801e-03 -2.438153468544874e-02 3.392870378972509e-04 2.579759202667626e-02 -4.416919195824930e-02 2.210813952027364e-01 1.430634614195639e-01 2.221657882266017e-01 2.468632070764573e+00 -6.935563701486123e-03 4.269396719155867e-03 -2.161043878598770e-04 6.764969897498477e-02 -1.540115929482843e-01 1.013607930314029e-02 3.463322218989886e-02 1.678627075368801e-03 -6.935563701486124e-03 5.121068980890379e-01 -3.275640127691756e-02 3.164712005386322e-04 -2.676712742776092e-02 3.448328859293403e-03 -1.346243811791552e-02 -6.220577730619743e-03 -2.438153468544874e-02 4.269396719155866e-03 -3.275640127691756e-02 3.319458231922618e-01 -3.774013259851690e-04 5.520081284490761e-03 2.889263019100885e-02 -6.345878435104803e-05 8.446308504370945e-05 3.392870378972508e-04 -2.161043878598770e-04 3.164712005386322e-04 -3.774013259851690e-04 3.793071790803870e-03 1.278568052297082e-04 1.170082905345774e-06 -2.221895458378820e-02 -3.810917883128039e-02 2.579759202667628e-02 6.764969897498468e-02 -2.676712742776092e-02 5.520081284490760e-03 1.278568052297082e-04 1.383600373168283e+00 4.942917272831948e-01 8.813919878925595e-03 4.197222238162293e-02 -4.416919195824923e-02 -1.540115929482844e-01 3.448328859293401e-03 2.889263019100885e-02 1.170082905345794e-06 4.942917272831948e-01 3.397934913945031e+00 
      </Matrix>
      <Matrix Rows="9" Columns="9">
        3.348711295627088e+00 3.065370112450369e-02 -5.468650645579157e-02 1.394575144062999e-01 1.691444251796336e-02 1.749201131727719e-03 2.169926095899569e-04 -1.853895990672120e-02 -4.125613212677608e-02 3.065370112450353e-02 3.473505808241077e+00 -7.827477367563875e-02 1.365614383100785e-01 1.372043355521656e-02 1.436540459066604e-02 1.754994969022042e-04 -1.327886013103783e-02 1.284748000021395e-02 -5.468650645579159e-02 -7.827477367563879e-02 4.109167280855798e+00 1.196578044008652e-01 -3.082832066666445e-03 -2.899287907532421e-02 2.581270339807472e-04 -3.725416110803970e-03 9.931076031169278e-03 1.394575144062999e-01 1.365614383100785e-01 1.196578044008652e-01 2.594420760034102e+00 -1.283189027652674e-02 -2.430347237775772e-02 -4.588072153566672e-04 4.535332923460239e-02 -1.057460914461558e-01 1.691444251796335e-02 1.372043355521656e-02 -3.082832066666446e-03 -1.283189027652674e-02 5.912631741206609e-01 -1.952425295258686e-02 1.402754803055423e-04 -3.298292447490786e-02 5.764650784701779e-03 1.749201131727719e-03 1.436540459066604e-02 -2.899287907532421e-02 -2.430347237775772e-02 -1.952425295258686e-02 5.191138478142682e-01 3.143882244504354e-04 -1.071374767445779e-02 2.613834339624450e-02 2.169926095899569e-04 1.754994969022042e-04 2.581270339807471e-04 -4.588072153566672e-04 1.402754803055423e-04 3.143882244504354e-04 1.644409547589892e-03 4.998569735382275e-05 1.003217902179339e-04 -1.853895990672117e-02 -1.327886013103784e-02 -3.725416110803972e-03 4.535332923460239e-02 -3.298292447490785e-02 -1.071374767445779e-02 4.998569735382276e-05 1.393976338896604e+00 5.196778961639399e-01 -4.125613212677594e-02 1.284748000021399e-02 9.931076031169293e-03 -1.057460914461558e-01 5.764650784701789e-03 2.613834339624450e-02 1.003217902179339e-04 5.196778961639399e-01 2.973818198052567e+00 
      </Matrix>
    </Transform>
    <Transform Name="PCA">
      <Selection>
        <Input NInputs="9">
          <Input Type="Variable" Label="gap_flag_prolong_u" Expression="gap_flag_prolong_u"/>
          <Input Type="Variable" Label="gap_flag_prolong_v" Expression="gap_flag_prolong_v"/>
          <Input Type="Variable" Label="gap_flag_prolong_w" Expression="gap_flag_prolong_w"/>
          <Input Type="Variable" Label="gap_flag_parallel" Expression="gap_flag_parallel"/>
          <Input Type="Variable" Label="gap_n_points" Expression="gap_n_points"/>
          <Input Type="Variable" Label="gap_n_bad" Expression="gap_n_bad"/>
          <Input Type="Variable" Label="gap_energy" Expression="gap_energy"/>
          <Input Type="Variable" Label="gap_num_valid_tracks" Expression="gap_num_valid_tracks"/>
          <Input Type="Variable" Label="gap_flag_single_shower" Expression="gap_flag_single_shower"/>
        </Input>
        <Output NOutputs="9">
          <Output Type="Variable" Label="gap_flag_prolong_u" Expression="gap_flag_prolong_u"/>
          <Output Type="Variable" Label="gap_flag_prolong_v" Expression="gap_flag_prolong_v"/>
          <Output Type="Variable" Label="gap_flag_prolong_w" Expression="gap_flag_prolong_w"/>
          <Output Type="Variable" Label="gap_flag_parallel" Expression="gap_flag_parallel"/>
          <Output Type="Variable" Label="gap_n_points" Expression="gap_n_points"/>
          <Output Type="Variable" Label="gap_n_bad" Expression="gap_n_bad"/>
          <Output Type="Variable" Label="gap_energy" Expression="gap_energy"/>
          <Output Type="Variable" Label="gap_num_valid_tracks" Expression="gap_num_valid_tracks"/>
          <Output Type="Variable" Label="gap_flag_single_shower" Expression="gap_flag_single_shower"/>
        </Output>
      </Selection>
      <Statistics Class="Signal" ClassIndex="0" NRows="9">
        7.38340230e-01 6.77788831e-01 3.89717600e-01 5.73173531e-02 8.36568216e+00 4.19995506e-02 1.38929268e+00 9.32794701e-01 1.04513383e+00 
      </Statistics>
      <Statistics Class="Background" ClassIndex="1" NRows="9">
        6.92238334e-01 6.38798558e-01 4.05455515e-01 2.13899579e-01 8.37433416e+00 2.49339746e+00 4.89724867e-01 9.00522794e-01 1.10186744e+00 
      </Statistics>
      <Statistics Class="Combined" ClassIndex="2" NRows="9">
        7.33400741e-01 6.73611302e-01 3.91403805e-01 7.40940201e-02 8.36660916e+00 3.04649327e-01 1.29291041e+00 9.29336996e-01 1.05121243e+00 
      </Statistics>
      <Eigenvectors Class="Signal" ClassIndex="0" NRows="9" NCols="9">
        -8.65938796e-03 1.70574080e-02 -1.42359602e-01 1.99695620e-01 -1.82603361e-01 9.35746681e-01 1.74494237e-01 8.07988565e-03 -3.17823837e-03 -9.61636784e-03 -2.90360007e-03 -4.09735731e-01 -8.03833561e-01 3.77585558e-01 1.88978944e-01 -2.89925669e-02 -8.20829354e-02 2.29332991e-03 1.54282410e-02 8.96911123e-02 -7.44070645e-02 -1.83837018e-02 -2.76385945e-02 8.39654318e-02 -5.64435254e-01 8.12058326e-01 1.77081186e-03 1.16716964e-01 7.09032555e-01 -6.05293849e-01 2.82470912e-01 2.14859213e-02 -1.66929376e-01 4.13285840e-02 -8.29308018e-02 2.38095590e-02 -9.94600644e-03 4.44492084e-02 -1.23095308e-01 -3.84532204e-01 -9.05205059e-01 -1.13542577e-01 -1.06074761e-03 -4.45654441e-02 2.51506378e-02 1.57391957e-01 2.80731263e-02 8.56407163e-02 -1.96389821e-02 2.10687435e-02 3.43624371e-02 -4.53228190e-02 -3.51654063e-02 9.80716176e-01 7.82972408e-01 2.43841635e-01 3.45776383e-01 -1.22196406e-01 -2.57891214e-03 1.36669082e-01 -2.91514386e-01 -2.29314573e-01 -1.91706279e-01 -5.79333880e-01 5.49431167e-01 4.39871594e-01 -1.40524677e-01 2.70265165e-02 1.41247825e-01 -2.81499938e-01 -2.21921396e-01 9.52589694e-03 1.11476336e-01 3.53315398e-01 3.23107112e-01 -2.25644936e-01 4.77749756e-02 -3.23638255e-02 6.94361468e-01 4.70981848e-01 -1.16531976e-02 
      </Eigenvectors>
      <Eigenvectors Class="Background" ClassIndex="1" NRows="9" NCols="9">
        -7.80715075e-02 6.08527875e-02 8.88632633e-03 -6.32899139e-01 6.10479684e-01 -4.55503413e-01 6.54987527e-02 6.46884898e-02 3.02985223e-02 -5.85027359e-02 6.04383916e-02 -1.46684231e-01 -7.19126319e-02 -1.23654582e-01 -1.74987121e-01 -9.55409828e-01 8.59619676e-02 1.13398729e-02 -1.79399744e-02 -9.83414846e-01 2.41352507e-03 5.38958804e-02 5.00105372e-02 -1.50392899e-01 -4.86142924e-02 -4.40644110e-02 -1.54501666e-02 1.27945327e-01 1.46416917e-01 -8.11754153e-04 7.15332159e-01 3.17330418e-01 -5.84304725e-01 5.42167151e-03 -8.85536121e-02 -2.25738894e-02 -1.15171296e-01 1.68884764e-02 9.81738199e-01 -1.12095592e-03 -5.24034970e-02 -4.99637189e-02 -1.28324391e-01 -1.58642764e-02 -2.60361275e-02 -9.77284727e-01 2.88008673e-02 -1.08792432e-01 1.34407187e-01 -3.67993652e-02 -5.75202266e-02 8.08359318e-02 -3.56136254e-02 4.14540693e-02 -4.39835949e-02 1.40095047e-02 -3.07223963e-02 -2.71175649e-02 1.33328615e-02 2.04052722e-03 -9.57399149e-04 2.93951902e-02 -9.97568557e-01 5.91973878e-02 4.48472706e-02 -3.99309793e-02 -2.40140899e-01 -6.83099481e-01 -5.97573913e-01 1.96886725e-01 -2.69401276e-01 -1.27021362e-02 1.29161928e-03 -2.79143676e-02 1.46373659e-02 5.65051159e-02 -1.94734348e-01 -1.86982397e-01 1.36902642e-01 9.50621583e-01 2.24594793e-02 
      </Eigenvectors>
      <Eigenvectors Class="Combined" ClassIndex="2" NRows="9" NCols="9">
        1.48615172e-02 -1.64142808e-02 -1.59757652e-02 7.89998820e-02 9.11159492e-02 -2.68670708e-01 9.37192439e-01 -1.35999085e-01 1.25307686e-01 1.25359350e-02 3.10069844e-02 -1.16433474e-01 1.27207313e-01 5.37827760e-01 8.04940750e-01 1.64956864e-01 -5.07837311e-02 -4.65284717e-02 1.36059178e-02 6.50112390e-02 -3.66460909e-02 5.60092704e-02 2.16288553e-03 2.25456995e-02 1.30937789e-01 9.81583807e-01 9.97195207e-02 6.04798587e-02 8.07357026e-01 -5.34997056e-01 -3.34693566e-02 1.24602904e-01 -1.81428471e-01 -5.92382897e-02 -5.59289742e-02 -4.57752399e-02 3.76088708e-04 1.03547520e-02 -3.37892569e-02 9.84235045e-01 -1.19540479e-01 -6.66109879e-02 -9.21548422e-02 -4.05545317e-02 -3.41784309e-02 4.08051505e-02 -2.89089625e-01 -6.46899118e-01 -6.56126643e-02 -5.76095958e-01 2.65578835e-01 1.54975692e-01 -1.32154290e-03 -2.56009289e-01 6.82186491e-01 2.97619260e-01 4.17354488e-01 -1.16658448e-02 -2.82208579e-01 1.79997502e-01 1.32539024e-01 4.18255453e-03 -3.76959729e-01 -7.26973420e-01 3.36788475e-01 3.09809817e-01 -1.21269296e-02 -2.84812733e-01 1.84477162e-01 1.52945808e-01 1.16863715e-02 -3.51105222e-01 1.56552701e-02 2.38817037e-01 9.40008594e-02 -3.64446680e-03 -4.24231267e-01 3.24132343e-01 1.83491926e-02 -1.02420508e-01 7.98756092e-01 
      </Eigenvectors>
    </Transform>
    <Transform Name="Gauss" FlatOrGauss="Flat">
      <Selection>
        <Input NInputs="9">
          <Input Type="Variable" Label="gap_flag_prolong_u" Expression="gap_flag_prolong_u"/>
          <Input Type="Variable" Label="gap_flag_prolong_v" Expression="gap_flag_prolong_v"/>
          <Input Type="Variable" Label="gap_flag_prolong_w" Expression="gap_flag_prolong_w"/>
          <Input Type="Variable" Label="gap_flag_parallel" Expression="gap_flag_parallel"/>
          <Input Type="Variable" Label="gap_n_points" Expression="gap_n_points"/>
          <Input Type="Variable" Label="gap_n_bad" Expression="gap_n_bad"/>
          <Input Type="Variable" Label="gap_energy" Expression="gap_energy"/>
          <Input Type="Variable" Label="gap_num_valid_tracks" Expression="gap_num_valid_tracks"/>
          <Input Type="Variable" Label="gap_flag_single_shower" Expression="gap_flag_single_shower"/>
        </Input>
        <Output NOutputs="9">
          <Output Type="Variable" Label="gap_flag_prolong_u" Expression="gap_flag_prolong_u"/>
          <Output Type="Variable" Label="gap_flag_prolong_v" Expression="gap_flag_prolong_v"/>
          <Output Type="Variable" Label="gap_flag_prolong_w" Expression="gap_flag_prolong_w"/>
          <Output Type="Variable" Label="gap_flag_parallel" Expression="gap_flag_parallel"/>
          <Output Type="Variable" Label="gap_n_points" Expression="gap_n_points"/>
          <Output Type="Variable" Label="gap_n_bad" Expression="gap_n_bad"/>
          <Output Type="Variable" Label="gap_energy" Expression="gap_energy"/>
          <Output Type="Variable" Label="gap_num_valid_tracks" Expression="gap_num_valid_tracks"/>
          <Output Type="Variable" Label="gap_flag_single_shower" Expression="gap_flag_single_shower"/>
        </Output>
      </Selection>
      <Variable VarIndex="0">
        <CumulativePDF_cls0>
          <PDF Name="GaussTransform var0 cls0" MinNSmooth="0" MaxNSmooth="0" InterpolMethod="1" KDE_type="0" KDE_iter="1" KDE_border="1" KDE_finefactor="0.0000000000000000e+00">
            <Histogram Name="Cumulative_Var0_cls0_original" NBins="1837" XMin="-6.7257738113403320e+00" XMax="6.2167840003967285e+00" HasEquidistantBins="0">
              4.04788152e-04 8.86157854e-04 1.40860351e-03 1.93656946e-03 2.46175006e-03 2.98688072e-03 3.51201138e-03 4.03714180e-03 4.56311600e-03 5.09350374e-03 5.63018722e-03 6.16959715e-03 6.70900661e-03 7.24841654e-03 7.78510002e-03 8.31631478e-03 8.84399284e-03 9.37015098e-03 9.89563204e-03 1.04211634e-02 1.09466948e-02 1.14722261e-02 1.19977575e-02 1.25231892e-02 1.30484197e-02 1.35735506e-02 1.40986815e-02 1.46238115e-02 1.51489424e-02 1.56740732e-02 1.61992032e-02 1.67243332e-02 1.72494650e-02 1.77745949e-02 1.82997249e-02 1.88248567e-02 1.93499867e-02 1.98751185e-02 2.04002485e-02 2.09253784e-02 2.14505102e-02 2.19756402e-02 2.25007702e-02 2.30272915e-02 2.35597678e-02 2.41023507e-02 2.46543661e-02 2.52116863e-02 2.57685930e-02 2.63230614e-02 2.68780310e-02 2.74341125e-02 2.79879142e-02 2.85371542e-02 2.90837046e-02 2.96294317e-02 3.01763434e-02 3.07269022e-02 3.12792584e-02 3.18288244e-02 3.23736668e-02 3.29163708e-02 3.34609374e-02 3.40088010e-02 3.45581323e-02 3.51074673e-02 3.56565416e-02 3.62050980e-02 3.67533937e-02 3.73016931e-02 3.78500633e-02 3.83985899e-02 3.89471874e-02 3.94957848e-02 4.00443822e-02 4.05911952e-02 4.11344357e-02 4.16758880e-02 4.22158912e-02 4.27529924e-02 4.32886481e-02 4.38243039e-02 4.43625823e-02 4.49084491e-02 4.54623997e-02 4.60195057e-02 4.65735756e-02 4.71222848e-02 4.76677939e-02 4.82107773e-02 4.87513952e-02 4.92913127e-02 4.98318113e-02 5.03733605e-02 5.09135090e-02 5.14493100e-02 5.19829951e-02 5.25203869e-02 5.30637130e-02 5.36094867e-02 5.41546158e-02 5.46988100e-02 5.52425981e-02 5.57863824e-02 5.63301705e-02 5.68739548e-02 5.74174933e-02 5.79597317e-02 5.85001372e-02 5.90397455e-02 5.95793575e-02 6.01195730e-02 6.06610067e-02 6.12021089e-02 6.17409870e-02 6.22762330e-02 6.28070906e-02 6.33358434e-02 6.38645515e-02 6.43932521e-02 6.49212673e-02 6.54476881e-02 6.59732223e-02 6.64993897e-02 6.70269504e-02 6.75555766e-02 6.80842474e-02 6.86117858e-02 6.91378862e-02 6.96635246e-02 7.01893568e-02 7.07159787e-02 7.12439939e-02 7.17726946e-02 7.23014027e-02 7.28301108e-02 7.33588114e-02 7.38874674e-02 7.44160265e-02 7.49445260e-02 7.54730329e-02 7.60015398e-02 7.65301958e-02 7.70591497e-02 7.75874108e-02 7.81139880e-02 7.86397234e-02 7.91654512e-02 7.96911865e-02 8.02168772e-02 8.07423964e-02 8.12676474e-02 8.17927271e-02 8.23178738e-02 8.28431994e-02 8.33685994e-02 8.38939101e-02 8.44190866e-02 8.49442184e-02 8.54693502e-02 8.59944820e-02 8.65196064e-02 8.70447382e-02 8.75698701e-02 8.80950019e-02 8.86202604e-02 8.91457647e-02 8.96713957e-02 9.01970267e-02 9.07226577e-02 9.12482664e-02 9.17737707e-02 9.22991037e-02 9.28242803e-02 9.33494121e-02 9.38745439e-02 9.43996757e-02 9.49248075e-02 9.54499394e-02 9.59750637e-02 9.65001956e-02 9.70253274e-02 9.75504592e-02 9.80755910e-02 9.86007228e-02 9.91258472e-02 9.96509790e-02 1.00176111e-01 1.00701243e-01 1.01226375e-01 1.01751506e-01 1.02276631e-01 1.02801763e-01 1.03326894e-01 1.03852026e-01 1.04377158e-01 1.04902290e-01 1.05427422e-01 1.05952546e-01 1.06477678e-01 1.07002810e-01 1.07527941e-01 1.08053073e-01 1.08578205e-01 1.09103329e-01 1.09628461e-01 1.10153593e-01 1.10678725e-01 1.11203857e-01 1.11728989e-01 1.12254113e-01 1.12779245e-01 1.13304377e-01 1.13829508e-01 1.14354640e-01 1.14879772e-01 1.15404896e-01 1.15930028e-01 1.16455160e-01 1.16980292e-01 1.17505424e-01 1.18030556e-01 1.18555680e-01 1.19080812e-01 1.19605944e-01 1.20131075e-01 1.20656207e-01 1.21181339e-01 1.21706463e-01 1.22231595e-01 1.22756727e-01 1.23281859e-01 1.23806991e-01 1.24332123e-01 1.24857247e-01 1.25382379e-01 1.25907511e-01 1.26432642e-01 1.26957774e-01 1.27482906e-01 1.28008038e-01 1.28533170e-01 1.29060909e-01 1.29595041e-01 1.30133733e-01 1.30669922e-01 1.31199554e-01 1.31727085e-01 1.32259771e-01 1.32800430e-01 1.33346215e-01 1.33889824e-01 1.34426713e-01 1.34962916e-01 1.35507733e-01 1.36061683e-01 1.36618763e-01 1.37175068e-01 1.37729794e-01 1.38283744e-01 1.38859227e-01 1.39477819e-01 1.40117958e-01 1.40758082e-01 1.41398221e-01 1.42020792e-01 1.42608255e-01 1.43174991e-01 1.43731296e-01 1.44275680e-01 1.44817740e-01 1.45371497e-01 1.45937234e-01 1.46501079e-01 1.47062197e-01 1.47608712e-01 1.48112997e-01 1.48589179e-01 1.49084464e-01 1.49617672e-01 1.50169477e-01 1.50725320e-01 1.51293695e-01 1.51883096e-01 1.52482986e-01 1.53082892e-01 1.53680593e-01 1.54263228e-01 1.54822260e-01 1.55370608e-01 1.55918956e-01 1.56467304e-01 1.57015651e-01 1.57564566e-01 1.58114567e-01 1.58665150e-01 1.59215719e-01 1.59766287e-01 1.60316855e-01 1.60868257e-01 1.61421344e-01 1.61975250e-01 1.62529156e-01 1.63082972e-01 1.63636610e-01 1.64219975e-01 1.64873585e-01 1.65569380e-01 1.66230142e-01 1.66826040e-01 1.67393655e-01 1.67960808e-01 1.68527082e-01 1.69092044e-01 1.69655979e-01 1.70219213e-01 1.70780987e-01 1.71339929e-01 1.71896487e-01 1.72452390e-01 1.73008293e-01 1.73562050e-01 1.74111545e-01 1.74658909e-01 1.75206274e-01 1.75753638e-01 1.76300496e-01 1.76846176e-01 1.77391112e-01 1.77936599e-01 1.78483650e-01 1.79032251e-01 1.79581404e-01 1.80129811e-01 1.80678129e-01 1.81228936e-01 1.81781590e-01 1.82331249e-01 1.82874039e-01 1.83411255e-01 1.83947578e-01 1.84488818e-01 1.85038164e-01 1.85591236e-01 1.86140314e-01 1.86681792e-01 1.87219232e-01 1.87759906e-01 1.88306108e-01 1.88853830e-01 1.89400986e-01 1.89948156e-01 1.90499753e-01 1.91061020e-01 1.91627637e-01 1.92191854e-01 1.92751631e-01 1.93309501e-01 1.93866387e-01 1.94421306e-01 1.94972351e-01 1.95517614e-01 1.96059287e-01 1.96599558e-01 1.97136119e-01 1.97665319e-01 1.98189348e-01 1.98715150e-01 1.99249610e-01 1.99796587e-01 2.00352132e-01 2.00905293e-01 2.01449275e-01 2.01987773e-01 2.02527061e-01 2.03072041e-01 2.03623906e-01 2.04182252e-01 2.04749256e-01 2.05321208e-01 2.05888599e-01 2.06444293e-01 2.06989214e-01 2.07530469e-01 2.08071738e-01 2.08615884e-01 2.09165946e-01 2.09720343e-01 2.10280597e-01 2.10849524e-01 2.11421385e-01 2.11985692e-01 2.12538972e-01 2.13087603e-01 2.13636175e-01 2.14184746e-01 2.14733303e-01 2.15280831e-01 2.15825185e-01 2.16365293e-01 2.16903284e-01 2.17442319e-01 2.17982382e-01 2.18523309e-01 2.19065905e-01 2.19609365e-01 2.20153570e-01 2.20702872e-01 2.21260011e-01 2.21820205e-01 2.22379640e-01 2.22938746e-01 2.23497868e-01 2.24048659e-01 2.24582702e-01 2.25108176e-01 2.25633517e-01 2.26158872e-01 2.26689368e-01 2.27230191e-01 2.27775931e-01 2.28320643e-01 2.28864044e-01 2.29410827e-01 2.29966313e-01 2.30525807e-01 2.31077731e-01 2.31617659e-01 2.32152387e-01 2.32684344e-01 2.33210742e-01 2.33733818e-01 2.34255776e-01 2.34775230e-01 2.35291183e-01 2.35808715e-01 2.36337185e-01 2.36878544e-01 2.37426236e-01 2.37976119e-01 2.38527119e-01 2.39079624e-01 2.39634275e-01 2.40189746e-01 2.40745232e-01 2.41293296e-01 2.41825446e-01 2.42348135e-01 2.42873982e-01 2.43415877e-01 2.43980631e-01 2.44557008e-01 2.45124653e-01 2.45675579e-01 2.46219218e-01 2.46762872e-01 2.47306526e-01 2.47850031e-01 2.48393252e-01 2.48935804e-01 2.49477297e-01 2.50011981e-01 2.50533164e-01 2.51048684e-01 2.51575470e-01 2.52124012e-01 2.52687126e-01 2.53244817e-01 2.53789693e-01 2.54331976e-01 2.54876882e-01 2.55421907e-01 2.55966514e-01 2.56511152e-01 2.57055789e-01 2.57598341e-01 2.58136749e-01 2.58673072e-01 2.59205043e-01 2.59728372e-01 2.60247320e-01 2.60766298e-01 2.61286259e-01 2.61810154e-01 2.62340337e-01 2.62875289e-01 2.63411611e-01 2.63947904e-01 2.64483392e-01 2.65017182e-01 2.65550137e-01 2.66079426e-01 2.66600311e-01 2.67117202e-01 2.67645419e-01 2.68194228e-01 2.68752664e-01 2.69307762e-01 2.69856185e-01 2.70399034e-01 2.70943344e-01 2.71494955e-01 2.72050977e-01 2.72606611e-01 2.73160636e-01 2.73711950e-01 2.74259299e-01 2.74804682e-01 2.75350064e-01 2.75898755e-01 2.76455551e-01 2.77017921e-01 2.77577996e-01 2.78129458e-01 2.78672367e-01 2.79213578e-01 2.79761463e-01 2.80317843e-01 2.80876607e-01 2.81434029e-01 2.81991124e-01 2.82546669e-01 2.83098251e-01 2.83648044e-01 2.84195215e-01 2.84734875e-01 2.85268605e-01 2.85803109e-01 2.86341548e-01 2.86882311e-01 2.87422895e-01 2.87961781e-01 2.88499624e-01 2.89037466e-01 2.89575011e-01 2.90111780e-01 2.90649623e-01 2.91191339e-01 2.91735917e-01 2.92279184e-01 2.92817414e-01 2.93350488e-01 2.93880790e-01 2.94409752e-01 2.94939995e-01 2.95476198e-01 2.96020895e-01 2.96572983e-01 2.97129065e-01 2.97684044e-01 2.98233569e-01 2.98777014e-01 2.99315929e-01 2.99853116e-01 3.00391614e-01 3.00934911e-01 3.01484913e-01 3.02038163e-01 3.02588224e-01 3.03130150e-01 3.03661466e-01 3.04182738e-01 3.04699004e-01 3.05218935e-01 3.05750638e-01 3.06293607e-01 3.06840420e-01 3.07386249e-01 3.07929546e-01 3.08470160e-01 3.09009224e-01 3.09549183e-01 3.10092658e-01 3.10637534e-01 3.11177790e-01 3.11710060e-01 3.12237501e-01 3.12766343e-01 3.13299030e-01 3.13832998e-01 3.14366221e-01 3.14899117e-01 3.15435350e-01 3.15979213e-01 3.16527724e-01 3.17072898e-01 3.17610741e-01 3.18145454e-01 3.18684846e-01 3.19232076e-01 3.19782734e-01 3.20329040e-01 3.20868015e-01 3.21403861e-01 3.21939349e-01 3.22474092e-01 3.23008746e-01 3.23542923e-01 3.24074835e-01 3.24603349e-01 3.25129479e-01 3.25656295e-01 3.26186895e-01 3.26721251e-01 3.27256918e-01 3.27792555e-01 3.28328848e-01 3.28866392e-01 3.29402477e-01 3.29934329e-01 3.30464661e-01 3.30996156e-01 3.31528246e-01 3.32060337e-01 3.32592458e-01 3.33124697e-01 3.33656967e-01 3.34192723e-01 3.34736109e-01 3.35284173e-01 3.35830331e-01 3.36372018e-01 3.36912513e-01 3.37454796e-01 3.37997973e-01 3.38538557e-01 3.39073777e-01 3.39606285e-01 3.40137780e-01 3.40666920e-01 3.41194272e-01 3.41721863e-01 3.42250615e-01 3.42780083e-01 3.43309820e-01 3.43839616e-01 3.44368994e-01 3.44897717e-01 3.45426083e-01 3.45954746e-01 3.46484542e-01 3.47015679e-01 3.47546905e-01 3.48076165e-01 3.48602891e-01 3.49128634e-01 3.49654377e-01 3.50180894e-01 3.50708991e-01 3.51237923e-01 3.51766825e-01 3.52295727e-01 3.52824628e-01 3.53353530e-01 3.53882432e-01 3.54411334e-01 3.54941040e-01 3.55472326e-01 3.56004417e-01 3.56536478e-01 3.57067734e-01 3.57597262e-01 3.58125985e-01 3.58654678e-01 3.59183401e-01 3.59712094e-01 3.60240787e-01 3.60769570e-01 3.61299634e-01 3.61832857e-01 3.62367988e-01 3.62900794e-01 3.63428950e-01 3.63954484e-01 3.64481270e-01 3.65010709e-01 3.65540534e-01 3.66068840e-01 3.66595507e-01 3.67121339e-01 3.67647260e-01 3.68173391e-01 3.68699431e-01 3.69225264e-01 3.69750977e-01 3.70276719e-01 3.70802462e-01 3.71328145e-01 3.71853709e-01 3.72379243e-01 3.72904778e-01 3.73430312e-01 3.73955846e-01 3.74481320e-01 3.75006706e-01 3.75532031e-01 3.76057357e-01 3.76582712e-01 3.77108812e-01 3.77636522e-01 3.78165036e-01 3.78693551e-01 3.79222035e-01 3.79749805e-01 3.80276084e-01 3.80801618e-01 3.81327003e-01 3.81852329e-01 3.82377714e-01 3.82903248e-01 3.83428931e-01 3.83954644e-01 3.84480387e-01 3.85005981e-01 3.85531336e-01 3.86056572e-01 3.86581808e-01 3.87107015e-01 3.87632221e-01 3.88157547e-01 3.88683140e-01 3.89208734e-01 3.89734030e-01 3.90259326e-01 3.90784740e-01 3.91310275e-01 3.91835809e-01 3.92361343e-01 3.92886817e-01 3.93412203e-01 3.93937528e-01 3.94462883e-01 3.94988209e-01 3.95513535e-01 3.96038860e-01 3.96564186e-01 3.97089541e-01 3.97614926e-01 3.98140252e-01 3.98665428e-01 3.99190515e-01 3.99715811e-01 4.00241345e-01 4.00767058e-01 4.01292920e-01 4.01818901e-01 4.02344733e-01 4.02870327e-01 4.03395861e-01 4.03921396e-01 4.04446900e-01 4.04972315e-01 4.05497730e-01 4.06023055e-01 4.06548262e-01 4.07073379e-01 4.07598585e-01 4.08123910e-01 4.08649266e-01 4.09174621e-01 4.09699947e-01 4.10225153e-01 4.10750270e-01 4.11275476e-01 4.11800802e-01 4.12326217e-01 4.12851542e-01 4.13376719e-01 4.13901865e-01 4.14427072e-01 4.14952427e-01 4.15477902e-01 4.16003436e-01 4.16528821e-01 4.17054057e-01 4.17579174e-01 4.18104321e-01 4.18629438e-01 4.19154584e-01 4.19679701e-01 4.20204818e-01 4.20729965e-01 4.21255082e-01 4.21780229e-01 4.22305405e-01 4.22830671e-01 4.23356026e-01 4.23881352e-01 4.24406677e-01 4.24932003e-01 4.25457299e-01 4.25982475e-01 4.26507592e-01 4.27032739e-01 4.27557856e-01 4.28083003e-01 4.28608119e-01 4.29133266e-01 4.29658383e-01 4.30183530e-01 4.30708647e-01 4.31233764e-01 4.31758910e-01 4.32284027e-01 4.32809174e-01 4.33334291e-01 4.33861732e-01 4.34393734e-01 4.34927732e-01 4.35463250e-01 4.36000943e-01 4.36537087e-01 4.37069088e-01 4.37596500e-01 4.38121647e-01 4.38646764e-01 4.39174771e-01 4.39708501e-01 4.40245092e-01 4.40781683e-01 4.41315413e-01 4.41843420e-01 4.42368537e-01 4.42893684e-01 4.43418801e-01 4.43943948e-01 4.44469064e-01 4.44994181e-01 4.45519328e-01 4.46044445e-01 4.46569592e-01 4.47094709e-01 4.47619855e-01 4.48144972e-01 4.48670119e-01 4.49195236e-01 4.49720472e-01 4.50283259e-01 4.51096654e-01 4.52298939e-01 4.53677028e-01 4.55055118e-01 4.56222296e-01 4.56967711e-01 4.57499862e-01 4.58027333e-01 4.58552480e-01 4.59077597e-01 4.59602743e-01 4.60127860e-01 4.60653007e-01 4.61178124e-01 4.61703241e-01 4.62228388e-01 4.62757528e-01 4.63407695e-01 4.64287341e-01 4.65282887e-01 4.66285408e-01 4.67318445e-01 4.68461961e-01 4.69588548e-01 4.70382780e-01 4.70873535e-01 4.71381843e-01 4.72063899e-01 4.72963780e-01 4.74130064e-01 4.75273222e-01 4.76103753e-01 4.76777971e-01 4.77443576e-01 4.78091866e-01 4.78702873e-01 4.79256630e-01 4.79781747e-01 4.80306894e-01 4.80832011e-01 4.81357157e-01 4.81882274e-01 4.82420444e-01 4.82984722e-01 4.83569175e-01 4.84168917e-01 4.84772444e-01 4.85353321e-01 4.85902846e-01 4.86439347e-01 4.86975849e-01 4.87512320e-01 4.88049239e-01 4.88586962e-01 4.89123583e-01 4.89657193e-01 4.90190834e-01 4.90727454e-01 4.91261810e-01 4.91788656e-01 4.92494464e-01 4.93565798e-01 4.94640440e-01 4.95356351e-01 4.95892823e-01 4.96429324e-01 4.96965826e-01 4.97502297e-01 4.98038799e-01 4.98575300e-01 4.99111772e-01 4.99648273e-01 5.00165761e-01 5.00644386e-01 5.01113594e-01 5.01639783e-01 5.02305329e-01 5.03170848e-01 5.04199088e-01 5.05253196e-01 5.06161749e-01 5.06875336e-01 5.07509708e-01 5.08144081e-01 5.08778453e-01 5.09392619e-01 5.09966373e-01 5.10521591e-01 5.11080146e-01 5.11634469e-01 5.12176931e-01 5.12713432e-01 5.13249874e-01 5.13786376e-01 5.14322877e-01 5.14859378e-01 5.15394270e-01 5.15935063e-01 5.16484559e-01 5.17027855e-01 5.17564356e-01 5.18101335e-01 5.18638134e-01 5.19174933e-01 5.19708693e-01 5.20236015e-01 5.20761013e-01 5.21292925e-01 5.21834791e-01 5.22372365e-01 5.22947550e-01 5.23568749e-01 5.24190009e-01 5.24811208e-01 5.25432408e-01 5.26058614e-01 5.26689768e-01 5.27321458e-01 5.27908742e-01 5.28451264e-01 5.28989732e-01 5.29524028e-01 5.30058324e-01 5.30590355e-01 5.31117737e-01 5.31642854e-01 5.32168031e-01 5.32697141e-01 5.33236265e-01 5.33782780e-01 5.34328401e-01 5.34869969e-01 5.35409868e-01 5.35949707e-01 5.36491692e-01 5.37037969e-01 5.37586331e-01 5.38135529e-01 5.38686395e-01 5.39237142e-01 5.39784133e-01 5.40325344e-01 5.40863216e-01 5.41402280e-01 5.41945457e-01 5.42490900e-01 5.43035269e-01 5.43577611e-01 5.44119000e-01 5.44658601e-01 5.45194328e-01 5.45729160e-01 5.46269417e-01 5.46817064e-01 5.47367632e-01 5.47918200e-01 5.48467338e-01 5.49013555e-01 5.49558282e-01 5.50102830e-01 5.50645053e-01 5.51183343e-01 5.51719844e-01 5.52256346e-01 5.52792847e-01 5.53329349e-01 5.53865254e-01 5.54400146e-01 5.54934442e-01 5.55468738e-01 5.56003034e-01 5.56543946e-01 5.57098210e-01 5.57659030e-01 5.58219910e-01 5.58775544e-01 5.59320629e-01 5.59860528e-01 5.60400367e-01 5.60938656e-01 5.61473310e-01 5.62004626e-01 5.62535644e-01 5.63084364e-01 5.63674688e-01 5.64301074e-01 5.64930797e-01 5.65524220e-01 5.66070378e-01 5.66597700e-01 5.67125022e-01 5.67652345e-01 5.68180263e-01 5.68711758e-01 5.69248617e-01 5.69787800e-01 5.70327044e-01 5.70866227e-01 5.71405411e-01 5.71944654e-01 5.72483838e-01 5.73020816e-01 5.73552608e-01 5.74081957e-01 5.74618340e-01 5.75166464e-01 5.75719714e-01 5.76273024e-01 5.76826334e-01 5.77373922e-01 5.77910304e-01 5.78440964e-01 5.78971684e-01 5.79504371e-01 5.80041051e-01 5.80579758e-01 5.81120253e-01 5.81665158e-01 5.82213998e-01 5.82763374e-01 5.83304465e-01 5.83831728e-01 5.84358573e-01 5.84909260e-01 5.85490108e-01 5.86082995e-01 5.86675942e-01 5.87261736e-01 5.87833285e-01 5.88389754e-01 5.88932216e-01 5.89470267e-01 5.90010166e-01 5.90557754e-01 5.91123283e-01 5.91700733e-01 5.92275560e-01 5.92841029e-01 5.93399942e-01 5.93956232e-01 5.94510078e-01 5.95058203e-01 5.95597506e-01 5.96132338e-01 5.96667230e-01 5.97202063e-01 5.97739160e-01 5.98283947e-01 5.98834157e-01 5.99470854e-01 6.00310504e-01 6.01265252e-01 6.02102220e-01 6.02735102e-01 6.03279829e-01 6.03823483e-01 6.04365468e-01 6.04898930e-01 6.05414271e-01 6.05919182e-01 6.06434584e-01 6.06968284e-01 6.07509732e-01 6.08051181e-01 6.08594894e-01 6.09143198e-01 6.09693766e-01 6.10244334e-01 6.10794902e-01 6.11339152e-01 6.11870646e-01 6.12404287e-01 6.12954736e-01 6.13513589e-01 6.14072442e-01 6.14631236e-01 6.15190089e-01 6.15748942e-01 6.16306841e-01 6.16862714e-01 6.17414832e-01 6.17961407e-01 6.18504345e-01 6.19045377e-01 6.19585514e-01 6.20125651e-01 6.20665729e-01 6.21203542e-01 6.21741772e-01 6.22285962e-01 6.22832596e-01 6.23380065e-01 6.23929143e-01 6.24478996e-01 6.25028908e-01 6.25578642e-01 6.26128376e-01 6.26677752e-01 6.27226472e-01 6.27774894e-01 6.28323257e-01 6.28871620e-01 6.29420400e-01 6.29967690e-01 6.30509377e-01 6.31045401e-01 6.31581366e-01 6.32120252e-01 6.32660389e-01 6.33200586e-01 6.33741260e-01 6.34285271e-01 6.34836733e-01 6.35393500e-01 6.35947645e-01 6.36494815e-01 6.37039006e-01 6.37587309e-01 6.38143241e-01 6.38704479e-01 6.39267087e-01 6.39829755e-01 6.40394390e-01 6.40962839e-01 6.41530335e-01 6.42087638e-01 6.42629981e-01 6.43163741e-01 6.43702805e-01 6.44252717e-01 6.44805789e-01 6.45356119e-01 6.45905733e-01 6.46468580e-01 6.47058904e-01 6.47661686e-01 6.48242354e-01 6.48782313e-01 6.49295568e-01 6.49812341e-01 6.50346875e-01 6.50889874e-01 6.51432872e-01 6.51975870e-01 6.52518809e-01 6.53061807e-01 6.53604269e-01 6.54146492e-01 6.54689968e-01 6.55234396e-01 6.55778825e-01 6.56323254e-01 6.56867683e-01 6.57413006e-01 6.57981575e-01 6.58596098e-01 6.59236670e-01 6.59878910e-01 6.60520792e-01 6.61159337e-01 6.61774635e-01 6.62353456e-01 6.62915707e-01 6.63479030e-01 6.64045036e-01 6.64611638e-01 6.65174603e-01 6.65729821e-01 6.66275620e-01 6.66815698e-01 6.67354405e-01 6.67893708e-01 6.68434739e-01 6.68976545e-01 6.69518530e-01 6.70060873e-01 6.70602441e-01 6.71141863e-01 6.71680450e-01 6.72222316e-01 6.72770202e-01 6.73321962e-01 6.73873246e-01 6.74421251e-01 6.74966037e-01 6.75509810e-01 6.76053643e-01 6.76597416e-01 6.77141190e-01 6.77685261e-01 6.78230107e-01 6.78775609e-01 6.79321229e-01 6.79866850e-01 6.80412471e-01 6.80957377e-01 6.81500673e-01 6.82043314e-01 6.82585895e-01 6.83128476e-01 6.83670342e-01 6.84210896e-01 6.84750795e-01 6.85290635e-01 6.85830474e-01 6.86370373e-01 6.86909318e-01 6.87446296e-01 6.87982440e-01 6.88520372e-01 6.89061046e-01 6.89602852e-01 6.90146208e-01 6.90692782e-01 6.91240907e-01 6.91789091e-01 6.92337215e-01 6.92885876e-01 6.93435669e-01 6.93985939e-01 6.94535196e-01 6.95082963e-01 6.95630133e-01 6.96177304e-01 6.96724474e-01 6.97268248e-01 6.97801888e-01 6.98324502e-01 6.98843241e-01 6.99367523e-01 6.99903607e-01 7.00448573e-01 7.00993657e-01 7.01534748e-01 7.02073455e-01 7.02610612e-01 7.03147113e-01 7.03683019e-01 7.04218328e-01 7.04754233e-01 7.05293238e-01 7.05837846e-01 7.06386089e-01 7.06932485e-01 7.07474649e-01 7.08014548e-01 7.08554149e-01 7.09093750e-01 7.09633410e-01 7.10170090e-01 7.10700929e-01 7.11228848e-01 7.11756766e-01 7.12286830e-01 7.12827206e-01 7.13383913e-01 7.13949859e-01 7.14510739e-01 7.15057731e-01 7.15591431e-01 7.16117322e-01 7.16643453e-01 7.17173815e-01 7.17706084e-01 7.18238354e-01 7.18774319e-01 7.19319463e-01 7.19872057e-01 7.20427632e-01 7.20985353e-01 7.21544445e-01 7.22102761e-01 7.22658575e-01 7.23211765e-01 7.23763049e-01 7.24308372e-01 7.24844515e-01 7.25376606e-01 7.25908697e-01 7.26440787e-01 7.26978064e-01 7.27525771e-01 7.28078663e-01 7.28631556e-01 7.29184508e-01 7.29734838e-01 7.30280161e-01 7.30822980e-01 7.31366277e-01 7.31910706e-01 7.32455671e-01 7.32998431e-01 7.33535469e-01 7.34067559e-01 7.34598279e-01 7.35128403e-01 7.35655785e-01 7.36178756e-01 7.36700177e-01 7.37225056e-01 7.37755179e-01 7.38287449e-01 7.38821447e-01 7.39358962e-01 7.39898145e-01 7.40437329e-01 7.40976572e-01 7.41515756e-01 7.42054999e-01 7.42591560e-01 7.43122399e-01 7.43650436e-01 7.44182765e-01 7.44721413e-01 7.45264471e-01 7.45810986e-01 7.46358335e-01 7.46904135e-01 7.47449100e-01 7.47994065e-01 7.48538196e-01 7.49080300e-01 7.49620855e-01 7.50158846e-01 7.50691354e-01 7.51220226e-01 7.51752079e-01 7.52289653e-01 7.52829313e-01 7.53367841e-01 7.53905237e-01 7.54442930e-01 7.54981816e-01 7.55521178e-01 7.56060600e-01 7.56596982e-01 7.57125795e-01 7.57649302e-01 7.58175015e-01 7.58708060e-01 7.59246767e-01 7.59786785e-01 7.60326564e-01 7.60865271e-01 7.61400700e-01 7.61932969e-01 7.62465060e-01 7.63001263e-01 7.63544500e-01 7.64091849e-01 7.64636099e-01 7.65172362e-01 7.65702844e-01 7.66231656e-01 7.66760349e-01 7.67289102e-01 7.67817795e-01 7.68346429e-01 7.68875003e-01 7.69403517e-01 7.69931972e-01 7.70460486e-01 7.70989001e-01 7.71517515e-01 7.72046030e-01 7.72574544e-01 7.73102224e-01 7.73628354e-01 7.74153709e-01 7.74679005e-01 7.75204360e-01 7.75729716e-01 7.76255190e-01 7.76780725e-01 7.77306259e-01 7.77831793e-01 7.78357327e-01 7.78882861e-01 7.79409349e-01 7.79937923e-01 7.80467927e-01 7.80996799e-01 7.81523764e-01 7.82049656e-01 7.82575250e-01 7.83100545e-01 7.83625782e-01 7.84151018e-01 7.84676969e-01 7.85204649e-01 7.85733283e-01 7.86260903e-01 7.86786735e-01 7.87311912e-01 7.87837088e-01 7.88362443e-01 7.88887978e-01 7.89413691e-01 7.89939404e-01 7.90464878e-01 7.90990353e-01 7.91515827e-01 7.92041421e-01 7.92566895e-01 7.93092191e-01 7.93617308e-01 7.94142485e-01 7.94667780e-01 7.95193076e-01 7.95718431e-01 7.96243727e-01 7.96769083e-01 7.97294438e-01 7.97819734e-01 7.98345089e-01 7.98870385e-01 7.99395740e-01 7.99921095e-01 8.00446391e-01 8.00971746e-01 8.01497042e-01 8.02022398e-01 8.02547693e-01 8.03073049e-01 8.03598404e-01 8.04123700e-01 8.04648876e-01 8.05174053e-01 8.05699229e-01 8.06224525e-01 8.06749940e-01 8.07275236e-01 8.07800412e-01 8.08325529e-01 8.08850646e-01 8.09375763e-01 8.09900939e-01 8.10426056e-01 8.10951173e-01 8.11476290e-01 8.12001467e-01 8.12526584e-01 8.13051701e-01 8.13576877e-01 8.14102173e-01 8.14627469e-01 8.15152824e-01 8.15678120e-01 8.16203296e-01 8.16728413e-01 8.17253590e-01 8.17778945e-01 8.18304300e-01 8.18829715e-01 8.19355011e-01 8.19880188e-01 8.20405364e-01 8.20930481e-01 8.21455598e-01 8.21980715e-01 8.22505832e-01 8.23031008e-01 8.23556125e-01 8.24081242e-01 8.24606359e-01 8.25131536e-01 8.25656652e-01 8.26181769e-01 8.26706886e-01 8.27232063e-01 8.27757180e-01 8.28282297e-01 8.28807414e-01 8.29332530e-01 8.29857707e-01 8.30382824e-01 8.30907941e-01 8.31433058e-01 8.31958234e-01 8.32483351e-01 8.33008468e-01 8.33533585e-01 8.34058702e-01 8.34583879e-01 8.35108995e-01 8.35634112e-01 8.36159229e-01 8.36684406e-01 8.37209523e-01 8.37734640e-01 8.38259757e-01 8.38784933e-01 8.39310050e-01 8.39835167e-01 8.40360284e-01 8.40885401e-01 8.41410577e-01 8.41935694e-01 8.42460811e-01 8.42985928e-01 8.43511105e-01 8.44036222e-01 8.44561338e-01 8.45086455e-01 8.45611632e-01 8.46136749e-01 8.46661866e-01 8.47186983e-01 8.47712100e-01 8.48237276e-01 8.48762393e-01 8.49287510e-01 8.49812627e-01 8.50337803e-01 8.50862920e-01 8.51388037e-01 8.51913154e-01 8.52438331e-01 8.52963448e-01 8.53488564e-01 8.54013681e-01 8.54538798e-01 8.55063975e-01 8.55589092e-01 8.56114209e-01 8.56639326e-01 8.57164502e-01 8.57689619e-01 8.58214736e-01 8.58739853e-01 8.59265029e-01 8.59790146e-01 8.60315263e-01 8.60840380e-01 8.61365497e-01 8.61890674e-01 8.62415791e-01 8.62940907e-01 8.63466024e-01 8.63991201e-01 8.64516318e-01 8.65041435e-01 8.65566552e-01 8.66091669e-01 8.66616845e-01 8.67141962e-01 8.67667079e-01 8.68192196e-01 8.68717372e-01 8.69242489e-01 8.69767606e-01 8.70292723e-01 8.70817900e-01 8.71343017e-01 8.71868134e-01 8.72393250e-01 8.72918367e-01 8.73443544e-01 8.73968661e-01 8.74493778e-01 8.75018895e-01 8.75544071e-01 8.76069188e-01 8.76594305e-01 8.77119422e-01 8.77644598e-01 8.78169715e-01 8.78694832e-01 8.79219949e-01 8.79745066e-01 8.80270243e-01 8.80795360e-01 8.81320477e-01 8.81845593e-01 8.82370770e-01 8.82895887e-01 8.83421004e-01 8.83946121e-01 8.84471297e-01 8.84996414e-01 8.85521531e-01 8.86046648e-01 8.86571765e-01 8.87096941e-01 8.87622058e-01 8.88147175e-01 8.88672292e-01 8.89197469e-01 8.89722586e-01 8.90247703e-01 8.90772820e-01 8.91297996e-01 8.91823113e-01 8.92348230e-01 8.92873347e-01 8.93398464e-01 8.93923640e-01 8.94448757e-01 8.94973874e-01 8.95498991e-01 8.96024168e-01 8.96549284e-01 8.97074401e-01 8.97599518e-01 8.98124635e-01 8.98649812e-01 8.99174929e-01 8.99700046e-01 9.00225163e-01 9.00750339e-01 9.01275456e-01 9.01800573e-01 9.02325690e-01 9.02850866e-01 9.03375983e-01 9.03901100e-01 9.04426217e-01 9.04951334e-01 9.05476511e-01 9.06001627e-01 9.06526744e-01 9.07051861e-01 9.07577038e-01 9.08102155e-01 9.08627272e-01 9.09152389e-01 9.09677565e-01 9.10202682e-01 9.10727799e-01 9.11252916e-01 9.11778033e-01 9.12303209e-01 9.12828326e-01 9.13353443e-01 9.13878560e-01 9.14403737e-01 9.14928854e-01 9.15453970e-01 9.15979087e-01 9.16504264e-01 9.17029381e-01 9.17554498e-01 9.18079615e-01 9.18604732e-01 9.19129908e-01 9.19655025e-01 9.20180142e-01 9.20705259e-01 9.21230435e-01 9.21755552e-01 9.22280669e-01 9.22805786e-01 9.23330963e-01 9.23856080e-01 9.24381196e-01 9.24906313e-01 9.25431430e-01 9.25956607e-01 9.26481724e-01 9.27006841e-01 9.27531958e-01 9.28057134e-01 9.28582251e-01 9.29107368e-01 9.29632485e-01 9.30157602e-01 9.30682778e-01 9.31207895e-01 9.31733012e-01 9.32258129e-01 9.32783306e-01 9.33308423e-01 9.33833539e-01 9.34358656e-01 9.34883833e-01 9.35408950e-01 9.35934067e-01 9.36459184e-01 9.36984301e-01 9.37509477e-01 9.38034594e-01 9.38559711e-01 9.39084828e-01 9.39610004e-01 9.40135121e-01 9.40660238e-01 9.41185355e-01 9.41710532e-01 9.42235649e-01 9.42760766e-01 9.43285882e-01 9.43810999e-01 9.44336176e-01 9.44861293e-01 9.45386410e-01 9.45911527e-01 9.46436703e-01 9.46961820e-01 9.47486937e-01 9.48012054e-01 9.48537230e-01 9.49062347e-01 9.49587464e-01 9.50112581e-01 9.50637698e-01 9.51162875e-01 9.51687992e-01 9.52213109e-01 9.52738225e-01 9.53263402e-01 9.53788519e-01 9.54313636e-01 9.54838753e-01 9.55363870e-01 9.55889046e-01 9.56414163e-01 9.56939280e-01 9.57464397e-01 9.57989573e-01 9.58514690e-01 9.59039807e-01 9.59564924e-01 9.60090101e-01 9.60615218e-01 9.61140335e-01 9.61665452e-01 9.62190568e-01 9.62715745e-01 9.63240862e-01 9.63765979e-01 9.64291096e-01 9.64816272e-01 9.65341389e-01 9.65866506e-01 9.66391623e-01 9.66916800e-01 9.67441916e-01 9.67967033e-01 9.68492150e-01 9.69017267e-01 9.69542444e-01 9.70067561e-01 9.70592678e-01 9.71117795e-01 9.71642971e-01 9.72168088e-01 9.72693205e-01 9.73218322e-01 9.73743498e-01 9.74268615e-01 9.74793732e-01 9.75318849e-01 9.75843966e-01 9.76369143e-01 9.76894259e-01 9.77419376e-01 9.77944493e-01 9.78469670e-01 9.78994787e-01 9.79519904e-01 9.80045021e-01 9.80570197e-01 9.81095314e-01 9.81620431e-01 9.82145548e-01 9.82670665e-01 9.83195841e-01 9.83720958e-01 9.84246075e-01 9.84771192e-01 9.85296369e-01 9.85821486e-01 9.86346602e-01 9.86871719e-01 9.87396836e-01 9.87922013e-01 9.88447130e-01 9.88972247e-01 9.89497364e-01 9.90022540e-01 9.90547657e-01 9.91072774e-01 9.91597891e-01 9.92123067e-01 9.92648184e-01 9.93173301e-01 9.93698418e-01 9.94223535e-01 9.94748712e-01 9.95273829e-01 9.95798945e-01 9.96324062e-01 9.96849239e-01 9.97374356e-01 9.97899473e-01 9.98424590e-01 9.98949766e-01 9.99474883e-01 1.00000000e+00 
            </Histogram>
            <HistogramBinning NBins="1837">
              -6.72577381e+00 -6.72567368e+00 -4.41077232e+00 -3.67185760e+00 -3.57977676e+00 -3.44742489e+00 -3.37432718e+00 -3.23549628e+00 -3.07987022e+00 -2.86738133e+00 -2.81105542e+00 -2.78241515e+00 -2.76140356e+00 -2.74551415e+00 -2.72937608e+00 -2.70956898e+00 -2.68654084e+00 -2.66293907e+00 -2.64318085e+00 -2.62795019e+00 -2.60032701e+00 -2.58338118e+00 -2.56549788e+00 -2.53730917e+00 -2.52292371e+00 -2.49803758e+00 -2.47758222e+00 -2.44800425e+00 -2.43187284e+00 -2.40882230e+00 -2.38734221e+00 -2.37201428e+00 -2.35209584e+00 -2.32129145e+00 -2.27727723e+00 -2.25146270e+00 -2.22604251e+00 -2.19801235e+00 -2.17250824e+00 -2.14959717e+00 -2.11453962e+00 -2.06816840e+00 -1.99634218e+00 -1.94709229e+00 -1.90872383e+00 -1.88287818e+00 -1.85698223e+00 -1.84217668e+00 -1.83763087e+00 -1.83184290e+00 -1.82715237e+00 -1.81766999e+00 -1.81167197e+00 -1.80618680e+00 -1.80255115e+00 -1.79204762e+00 -1.79000247e+00 -1.78472733e+00 -1.78022277e+00 -1.77718925e+00 -1.77301812e+00 -1.76950133e+00 -1.76581728e+00 -1.76419950e+00 -1.76110923e+00 -1.75673378e+00 -1.75233054e+00 -1.74652922e+00 -1.74288762e+00 -1.73838794e+00 -1.73433709e+00 -1.72983408e+00 -1.72259569e+00 -1.71924543e+00 -1.71325219e+00 -1.71038175e+00 -1.70786226e+00 -1.70192111e+00 -1.69958436e+00 -1.69573569e+00 -1.69181907e+00 -1.68735445e+00 -1.68521190e+00 -1.68129659e+00 -1.67781627e+00 -1.67305207e+00 -1.66969609e+00 -1.66650605e+00 -1.66466820e+00 -1.66016114e+00 -1.65476978e+00 -1.65123439e+00 -1.64772189e+00 -1.64601541e+00 -1.64273024e+00 -1.64012253e+00 -1.63467515e+00 -1.63152814e+00 -1.62762809e+00 -1.62491775e+00 -1.62050235e+00 -1.61644614e+00 -1.61309838e+00 -1.61026049e+00 -1.60882485e+00 -1.60458434e+00 -1.60239506e+00 -1.59847188e+00 -1.59382737e+00 -1.59146321e+00 -1.58744073e+00 -1.58342099e+00 -1.58119285e+00 -1.57751310e+00 -1.57383978e+00 -1.56990921e+00 -1.56319761e+00 -1.55926836e+00 -1.55584693e+00 -1.55206060e+00 -1.54936314e+00 -1.54668689e+00 -1.54511476e+00 -1.54117930e+00 -1.53814805e+00 -1.53461921e+00 -1.53058040e+00 -1.52784896e+00 -1.52534223e+00 -1.52021217e+00 -1.51295900e+00 -1.50941420e+00 -1.50693917e+00 -1.50352037e+00 -1.50001919e+00 -1.49562371e+00 -1.49322283e+00 -1.48898137e+00 -1.48456216e+00 -1.48076606e+00 -1.47637641e+00 -1.47283709e+00 -1.46680379e+00 -1.46256554e+00 -1.45805001e+00 -1.45537102e+00 -1.45242822e+00 -1.44822752e+00 -1.44425511e+00 -1.43997920e+00 -1.43635750e+00 -1.42956543e+00 -1.42701244e+00 -1.42451036e+00 -1.42180502e+00 -1.41878378e+00 -1.41343880e+00 -1.40821731e+00 -1.40208530e+00 -1.39836884e+00 -1.39507997e+00 -1.39026868e+00 -1.38609886e+00 -1.38303101e+00 -1.37703812e+00 -1.37386978e+00 -1.36712265e+00 -1.36316776e+00 -1.35918164e+00 -1.35355222e+00 -1.34881318e+00 -1.34401762e+00 -1.33771276e+00 -1.33644032e+00 -1.33364344e+00 -1.33072734e+00 -1.32680190e+00 -1.32211149e+00 -1.31871748e+00 -1.31208003e+00 -1.30863786e+00 -1.30232120e+00 -1.29588318e+00 -1.29070687e+00 -1.28472018e+00 -1.27851832e+00 -1.27131104e+00 -1.26628768e+00 -1.26013148e+00 -1.25727773e+00 -1.24955308e+00 -1.24631047e+00 -1.24080598e+00 -1.23577535e+00 -1.22877634e+00 -1.22465694e+00 -1.21999192e+00 -1.21237874e+00 -1.20877421e+00 -1.20129406e+00 -1.19833589e+00 -1.19134593e+00 -1.18397999e+00 -1.17885935e+00 -1.16924429e+00 -1.16382885e+00 -1.16068137e+00 -1.15571821e+00 -1.14927483e+00 -1.14419770e+00 -1.13666511e+00 -1.13176882e+00 -1.12447488e+00 -1.11632776e+00 -1.11270678e+00 -1.10826886e+00 -1.09780562e+00 -1.08872318e+00 -1.07980418e+00 -1.07221878e+00 -1.06092024e+00 -1.05527163e+00 -1.04885423e+00 -1.03979552e+00 -1.03276372e+00 -1.02841854e+00 -1.02035832e+00 -1.01583886e+00 -1.00934732e+00 -1.00388539e+00 -9.95779157e-01 -9.90333676e-01 -9.84312356e-01 -9.76480305e-01 -9.70506668e-01 -9.61455882e-01 -9.53503549e-01 -9.47129548e-01 -9.41720307e-01 -9.34719920e-01 -9.27433074e-01 -9.16842580e-01 -9.09606636e-01 -9.06165481e-01 -9.02423441e-01 -8.96642625e-01 -8.90384495e-01 -8.86827648e-01 -8.80099654e-01 -8.76113236e-01 -8.71056259e-01 -8.62531006e-01 -8.58604610e-01 -8.53635013e-01 -8.48616660e-01 -8.44914615e-01 -8.42072785e-01 -8.40436339e-01 -8.38109732e-01 -8.36711824e-01 -8.35324705e-01 -8.34464967e-01 -8.32820892e-01 -8.31520379e-01 -8.29846978e-01 -8.28011334e-01 -8.26314569e-01 -8.24881852e-01 -8.23119521e-01 -8.22516441e-01 -8.20959806e-01 -8.19668949e-01 -8.18691730e-01 -8.18353117e-01 -8.15838218e-01 -8.13665986e-01 -8.12931597e-01 -8.10900629e-01 -8.08302283e-01 -8.07078063e-01 -8.04857016e-01 -8.02942812e-01 -8.01687717e-01 -8.00301075e-01 -7.98882723e-01 -7.96490252e-01 -7.94891238e-01 -7.93518543e-01 -7.90140569e-01 -7.87763059e-01 -7.86572635e-01 -7.84134924e-01 -7.81563580e-01 -7.80319929e-01 -7.78331041e-01 -7.76502728e-01 -7.75066555e-01 -7.74529815e-01 -7.72504210e-01 -7.70429969e-01 -7.69092321e-01 -7.68077493e-01 -7.66995847e-01 -7.65778899e-01 -7.64623106e-01 -7.63466060e-01 -7.62131751e-01 -7.60142684e-01 -7.58967280e-01 -7.57783294e-01 -7.55733132e-01 -7.54719734e-01 -7.53987610e-01 -7.53333986e-01 -7.52829373e-01 -7.50969410e-01 -7.48401403e-01 -7.47429192e-01 -7.46350050e-01 -7.45332897e-01 -7.43672311e-01 -7.41358161e-01 -7.40217030e-01 -7.38987505e-01 -7.38000512e-01 -7.36754596e-01 -7.35191047e-01 -7.34708130e-01 -7.33800471e-01 -7.32441843e-01 -7.31797874e-01 -7.30443299e-01 -7.29138851e-01 -7.27961183e-01 -7.27292240e-01 -7.25624979e-01 -7.24637806e-01 -7.23967731e-01 -7.21646726e-01 -7.20041692e-01 -7.18724310e-01 -7.17445731e-01 -7.16843545e-01 -7.15730369e-01 -7.13665187e-01 -7.13038743e-01 -7.12292731e-01 -7.10989773e-01 -7.09473193e-01 -7.07830608e-01 -7.05817223e-01 -7.04368770e-01 -7.03206897e-01 -7.02460170e-01 -7.01809168e-01 -7.00422704e-01 -6.99449360e-01 -6.98302805e-01 -6.97117269e-01 -6.95759058e-01 -6.94803894e-01 -6.93661273e-01 -6.92213237e-01 -6.91051424e-01 -6.89967513e-01 -6.89119995e-01 -6.88125730e-01 -6.87704742e-01 -6.86624706e-01 -6.85331643e-01 -6.83665514e-01 -6.82356298e-01 -6.81583405e-01 -6.80480659e-01 -6.79040968e-01 -6.78313017e-01 -6.77261949e-01 -6.76136017e-01 -6.74599588e-01 -6.73363268e-01 -6.71762764e-01 -6.71555698e-01 -6.70178711e-01 -6.68273509e-01 -6.66796207e-01 -6.65768147e-01 -6.65064096e-01 -6.63675308e-01 -6.63101852e-01 -6.61711812e-01 -6.60585642e-01 -6.59689844e-01 -6.58241153e-01 -6.56979322e-01 -6.55881226e-01 -6.54843509e-01 -6.53818011e-01 -6.52500629e-01 -6.51162922e-01 -6.50623143e-01 -6.49433792e-01 -6.48437679e-01 -6.47135735e-01 -6.45914376e-01 -6.44656420e-01 -6.44043326e-01 -6.42728448e-01 -6.41397417e-01 -6.40689850e-01 -6.39329731e-01 -6.37828767e-01 -6.37087405e-01 -6.36010468e-01 -6.35167122e-01 -6.34565473e-01 -6.33398056e-01 -6.32850766e-01 -6.31662667e-01 -6.31309748e-01 -6.30581558e-01 -6.29495382e-01 -6.28637791e-01 -6.27260745e-01 -6.26466453e-01 -6.25612438e-01 -6.24510109e-01 -6.23586416e-01 -6.22484446e-01 -6.21416271e-01 -6.20642543e-01 -6.18936181e-01 -6.17041528e-01 -6.16160095e-01 -6.15326941e-01 -6.14609063e-01 -6.14020169e-01 -6.13297343e-01 -6.12355471e-01 -6.11246109e-01 -6.09901667e-01 -6.09193861e-01 -6.08081102e-01 -6.07572198e-01 -6.06520653e-01 -6.05601609e-01 -6.04278564e-01 -6.03691280e-01 -6.03053510e-01 -6.02043152e-01 -6.01361275e-01 -6.00318968e-01 -5.99318802e-01 -5.98556936e-01 -5.97866416e-01 -5.96640706e-01 -5.96071303e-01 -5.94795406e-01 -5.94433725e-01 -5.93470514e-01 -5.92842281e-01 -5.91705561e-01 -5.90367854e-01 -5.89354515e-01 -5.88270903e-01 -5.87481081e-01 -5.86216629e-01 -5.84989548e-01 -5.84236622e-01 -5.83000839e-01 -5.82284153e-01 -5.81172347e-01 -5.80547214e-01 -5.79384625e-01 -5.78099310e-01 -5.77466726e-01 -5.76239645e-01 -5.75537443e-01 -5.73902786e-01 -5.72158635e-01 -5.71400166e-01 -5.70472896e-01 -5.69411576e-01 -5.68270802e-01 -5.67205548e-01 -5.66587210e-01 -5.64822137e-01 -5.64067006e-01 -5.62745512e-01 -5.61311126e-01 -5.59568882e-01 -5.58484852e-01 -5.57515204e-01 -5.56432009e-01 -5.55566311e-01 -5.54484487e-01 -5.53686678e-01 -5.52133560e-01 -5.50395012e-01 -5.49079418e-01 -5.47919452e-01 -5.46696723e-01 -5.45672119e-01 -5.44675648e-01 -5.43627024e-01 -5.42372346e-01 -5.41629195e-01 -5.40993929e-01 -5.39497375e-01 -5.38607299e-01 -5.37909210e-01 -5.37139833e-01 -5.36207139e-01 -5.35326004e-01 -5.34613431e-01 -5.34023821e-01 -5.32640934e-01 -5.31877160e-01 -5.30398905e-01 -5.29449284e-01 -5.28567135e-01 -5.27038395e-01 -5.25871038e-01 -5.24535537e-01 -5.23495615e-01 -5.22708356e-01 -5.20738780e-01 -5.19725680e-01 -5.18433809e-01 -5.17237961e-01 -5.15903056e-01 -5.14935791e-01 -5.14075041e-01 -5.12827337e-01 -5.11855304e-01 -5.11108160e-01 -5.09526014e-01 -5.08604646e-01 -5.07747591e-01 -5.06446898e-01 -5.05855501e-01 -5.04712701e-01 -5.03985167e-01 -5.02939641e-01 -5.01490951e-01 -5.00931144e-01 -4.99922276e-01 -4.99111325e-01 -4.97871310e-01 -4.96834397e-01 -4.95206833e-01 -4.93409812e-01 -4.92718190e-01 -4.91611838e-01 -4.90129024e-01 -4.88902926e-01 -4.87940311e-01 -4.87279594e-01 -4.86285448e-01 -4.85376507e-01 -4.84043151e-01 -4.82761741e-01 -4.82229054e-01 -4.81139421e-01 -4.80091810e-01 -4.79557842e-01 -4.78188396e-01 -4.76833582e-01 -4.75808501e-01 -4.74287570e-01 -4.73496348e-01 -4.72007453e-01 -4.71003115e-01 -4.69748855e-01 -4.68167692e-01 -4.66980994e-01 -4.65279102e-01 -4.64298666e-01 -4.63738143e-01 -4.62895274e-01 -4.61732388e-01 -4.60963458e-01 -4.59929526e-01 -4.58743006e-01 -4.57563162e-01 -4.55831140e-01 -4.54329759e-01 -4.53556687e-01 -4.52060848e-01 -4.50361580e-01 -4.49530691e-01 -4.48300958e-01 -4.47632790e-01 -4.46028322e-01 -4.45349932e-01 -4.44142371e-01 -4.42335457e-01 -4.41129357e-01 -4.40368533e-01 -4.39165235e-01 -4.38458025e-01 -4.37851459e-01 -4.36307758e-01 -4.35599476e-01 -4.34278101e-01 -4.33008105e-01 -4.32048410e-01 -4.31024492e-01 -4.29481268e-01 -4.28976238e-01 -4.27817851e-01 -4.26979780e-01 -4.26385552e-01 -4.24695641e-01 -4.23583955e-01 -4.22671765e-01 -4.21784014e-01 -4.21151698e-01 -4.19968069e-01 -4.18918699e-01 -4.17945385e-01 -4.16360795e-01 -4.15129602e-01 -4.14388925e-01 -4.13547099e-01 -4.11107868e-01 -4.09460485e-01 -4.08347100e-01 -4.07458782e-01 -4.06481326e-01 -4.05807436e-01 -4.04737115e-01 -4.03586000e-01 -4.01740581e-01 -4.00478423e-01 -3.99336785e-01 -3.98261368e-01 -3.96995008e-01 -3.95823538e-01 -3.94568563e-01 -3.93257946e-01 -3.92122447e-01 -3.91002744e-01 -3.89570326e-01 -3.88846934e-01 -3.88276458e-01 -3.87573302e-01 -3.86154473e-01 -3.84930849e-01 -3.83616954e-01 -3.82940531e-01 -3.81770968e-01 -3.80725622e-01 -3.79219055e-01 -3.78024817e-01 -3.75643343e-01 -3.74476701e-01 -3.72758120e-01 -3.71143997e-01 -3.70093793e-01 -3.68905872e-01 -3.67394894e-01 -3.66362363e-01 -3.65346879e-01 -3.64564270e-01 -3.62843543e-01 -3.60816091e-01 -3.60039949e-01 -3.58069509e-01 -3.56747061e-01 -3.55419934e-01 -3.53688002e-01 -3.52026939e-01 -3.50327164e-01 -3.49170357e-01 -3.47236603e-01 -3.46137464e-01 -3.44884723e-01 -3.43614966e-01 -3.42467725e-01 -3.41490000e-01 -3.40539992e-01 -3.38972569e-01 -3.36902946e-01 -3.35241258e-01 -3.33844811e-01 -3.32527608e-01 -3.31468821e-01 -3.30535442e-01 -3.29459637e-01 -3.27535212e-01 -3.24887544e-01 -3.24001521e-01 -3.21485519e-01 -3.20323706e-01 -3.19337666e-01 -3.17727059e-01 -3.16169620e-01 -3.15188855e-01 -3.13654184e-01 -3.12455475e-01 -3.11361194e-01 -3.10021490e-01 -3.09135616e-01 -3.07836711e-01 -3.06868315e-01 -3.05129379e-01 -3.03941965e-01 -3.02029818e-01 -2.99940675e-01 -2.98874557e-01 -2.97947317e-01 -2.96664566e-01 -2.95934141e-01 -2.94515282e-01 -2.93292940e-01 -2.92165101e-01 -2.90990323e-01 -2.89071977e-01 -2.87728995e-01 -2.86701977e-01 -2.85084516e-01 -2.83864975e-01 -2.82880127e-01 -2.81733871e-01 -2.79507339e-01 -2.77743876e-01 -2.76689291e-01 -2.75482178e-01 -2.73700655e-01 -2.72880405e-01 -2.71527022e-01 -2.69891471e-01 -2.67480195e-01 -2.65887618e-01 -2.64271706e-01 -2.62837261e-01 -2.61146456e-01 -2.60213226e-01 -2.58994162e-01 -2.57536441e-01 -2.55734622e-01 -2.54742771e-01 -2.53499627e-01 -2.52140760e-01 -2.50987083e-01 -2.50022620e-01 -2.48912424e-01 -2.47903153e-01 -2.46263951e-01 -2.44387791e-01 -2.43018791e-01 -2.41724685e-01 -2.40718842e-01 -2.39591032e-01 -2.38375917e-01 -2.37087175e-01 -2.35948041e-01 -2.34260127e-01 -2.33007818e-01 -2.31815144e-01 -2.30496421e-01 -2.28974640e-01 -2.26221204e-01 -2.24567100e-01 -2.24565938e-01 -2.23304823e-01 -2.21624017e-01 -2.19783604e-01 -2.18415082e-01 -2.17564106e-01 -2.16374248e-01 -2.15021700e-01 -2.14011565e-01 -2.12706253e-01 -2.11723611e-01 -2.10021853e-01 -2.08823279e-01 -2.08145916e-01 -2.06963554e-01 -2.06281185e-01 -2.04696313e-01 -2.02789187e-01 -2.00597972e-01 -1.99054658e-01 -1.98031038e-01 -1.97972700e-01 -1.96375355e-01 -1.95161015e-01 -1.94306582e-01 -1.93232954e-01 -1.92208901e-01 -1.90042511e-01 -1.88792154e-01 -1.87199086e-01 -1.86032876e-01 -1.83267370e-01 -1.81116536e-01 -1.79438710e-01 -1.78216681e-01 -1.77337378e-01 -1.75995380e-01 -1.74946010e-01 -1.74583197e-01 -1.73054546e-01 -1.71690956e-01 -1.70203984e-01 -1.68775827e-01 -1.67358115e-01 -1.66722268e-01 -1.65245801e-01 -1.64512634e-01 -1.62689283e-01 -1.61000565e-01 -1.58786714e-01 -1.58564106e-01 -1.56750247e-01 -1.55733332e-01 -1.54552206e-01 -1.53237805e-01 -1.53036341e-01 -1.51255682e-01 -1.49610072e-01 -1.47719830e-01 -1.45406827e-01 -1.43561527e-01 -1.42418876e-01 -1.41730756e-01 -1.40302628e-01 -1.38414398e-01 -1.37510940e-01 -1.36722237e-01 -1.35483637e-01 -1.34037927e-01 -1.32720038e-01 -1.30222365e-01 -1.28737226e-01 -1.27280816e-01 -1.25141069e-01 -1.24061771e-01 -1.22707464e-01 -1.21391349e-01 -1.20515235e-01 -1.19513869e-01 -1.18157059e-01 -1.16507515e-01 -1.15690649e-01 -1.13863252e-01 -1.12190723e-01 -1.10461012e-01 -1.08151563e-01 -1.06480435e-01 -1.04617998e-01 -1.03370361e-01 -1.01429470e-01 -9.94526222e-02 -9.81893912e-02 -9.68869105e-02 -9.64706317e-02 -9.50967520e-02 -9.42835063e-02 -9.39586014e-02 -9.23999920e-02 -9.16690826e-02 -8.93522874e-02 -8.86939541e-02 -8.78770128e-02 -8.70701894e-02 -8.57901573e-02 -8.48610178e-02 -8.40833113e-02 -8.34596455e-02 -8.18361938e-02 -8.09435248e-02 -8.01177099e-02 -7.90685043e-02 -7.88305625e-02 -7.71525800e-02 -7.55700544e-02 -7.47690871e-02 -7.32525066e-02 -7.16857165e-02 -7.03155696e-02 -6.91998601e-02 -6.84607029e-02 -6.74074590e-02 -6.58003837e-02 -6.48997426e-02 -6.32875860e-02 -6.25701025e-02 -6.21947199e-02 -6.10594712e-02 -6.04666397e-02 -5.95694110e-02 -5.93265370e-02 -5.82201779e-02 -5.76987490e-02 -5.64021543e-02 -5.48922941e-02 -5.46940714e-02 -5.30506000e-02 -5.23794815e-02 -5.20113707e-02 -5.16342223e-02 -5.07476069e-02 -4.99987118e-02 -4.84038182e-02 -4.69241105e-02 -4.60022539e-02 -4.55319211e-02 -4.34108526e-02 -4.23825420e-02 -4.07175496e-02 -3.89189944e-02 -3.75918560e-02 -3.66067812e-02 -3.48150171e-02 -3.45036052e-02 -3.42805721e-02 -3.38523127e-02 -3.23751532e-02 -3.18402089e-02 -3.08303684e-02 -2.99315341e-02 -2.85767987e-02 -2.68565025e-02 -2.58551948e-02 -2.45285798e-02 -2.29027085e-02 -2.10057944e-02 -1.94911417e-02 -1.73488781e-02 -1.66308675e-02 -1.61854979e-02 -1.58858206e-02 -1.46830976e-02 -1.37041863e-02 -1.26972459e-02 -1.14332810e-02 -1.02668693e-02 -8.35637748e-03 -7.32902158e-03 -5.93281584e-03 -4.60535800e-03 -2.50408263e-03 -8.05393793e-04 -2.73097336e-04 1.51689048e-03 2.35438230e-03 3.55798914e-03 5.40131610e-03 6.77157287e-03 9.19230748e-03 1.10200159e-02 1.19056553e-02 1.33315474e-02 1.58795174e-02 1.76290125e-02 1.76752228e-02 1.83964521e-02 1.96745358e-02 2.05329005e-02 2.17347518e-02 2.33802460e-02 2.40051784e-02 2.57396996e-02 2.71870643e-02 2.84160133e-02 3.06317937e-02 3.18465382e-02 3.33884098e-02 3.44550833e-02 3.60605083e-02 3.73862684e-02 3.82712707e-02 3.96988802e-02 4.10891324e-02 4.28787358e-02 4.42666709e-02 4.55130786e-02 4.67919409e-02 4.79220189e-02 4.86817956e-02 4.99407500e-02 5.06600738e-02 5.21460585e-02 5.31170219e-02 5.38566932e-02 5.63353747e-02 5.79642095e-02 5.91306277e-02 6.03067167e-02 6.23413175e-02 6.42663240e-02 6.60979375e-02 6.71738610e-02 6.78821802e-02 7.06047490e-02 7.20555261e-02 7.32529759e-02 7.48493597e-02 7.53094330e-02 7.64296949e-02 7.76661932e-02 7.81193823e-02 7.99455866e-02 8.24699774e-02 8.38678479e-02 8.59575942e-02 8.67887810e-02 8.81655589e-02 8.90289620e-02 9.10447389e-02 9.17359665e-02 9.26436335e-02 9.41019803e-02 9.54017490e-02 9.73691344e-02 9.89124253e-02 1.00568496e-01 1.01817772e-01 1.03728093e-01 1.05032519e-01 1.05912618e-01 1.07521720e-01 1.09003671e-01 1.09750874e-01 1.10782899e-01 1.12681188e-01 1.14832304e-01 1.16067827e-01 1.18086793e-01 1.19251810e-01 1.20315231e-01 1.21460803e-01 1.22847930e-01 1.24811336e-01 1.26350939e-01 1.27640575e-01 1.28984615e-01 1.30387738e-01 1.32321283e-01 1.33272290e-01 1.35615051e-01 1.37659967e-01 1.39015779e-01 1.40325204e-01 1.41057640e-01 1.42612770e-01 1.44035444e-01 1.44940883e-01 1.46455035e-01 1.47799268e-01 1.49055451e-01 1.50833577e-01 1.51920870e-01 1.54843494e-01 1.56225726e-01 1.57982886e-01 1.59797013e-01 1.61731273e-01 1.63240194e-01 1.64832294e-01 1.66265324e-01 1.67869508e-01 1.69651434e-01 1.70124620e-01 1.71788156e-01 1.73228323e-01 1.75163016e-01 1.76560402e-01 1.77416787e-01 1.78893179e-01 1.79278821e-01 1.80059806e-01 1.81517750e-01 1.82832599e-01 1.84630513e-01 1.86297208e-01 1.86302617e-01 1.87820703e-01 1.89297780e-01 1.90004468e-01 1.90893933e-01 1.93295762e-01 1.94731012e-01 1.95774376e-01 1.97461471e-01 2.00039268e-01 2.00821832e-01 2.00913504e-01 2.01179817e-01 2.03107476e-01 2.04574212e-01 2.06169784e-01 2.06608191e-01 2.08267674e-01 2.09706947e-01 2.11208239e-01 2.12182537e-01 2.13558406e-01 2.15322569e-01 2.17241660e-01 2.18820825e-01 2.19971702e-01 2.21437499e-01 2.22674251e-01 2.23670021e-01 2.24435940e-01 2.25231662e-01 2.26380616e-01 2.27346942e-01 2.28469789e-01 2.29718477e-01 2.31464207e-01 2.33591676e-01 2.34557882e-01 2.35654801e-01 2.37090990e-01 2.37728596e-01 2.38132194e-01 2.40043536e-01 2.41494998e-01 2.42601424e-01 2.43155360e-01 2.44062632e-01 2.45504856e-01 2.47159883e-01 2.48763293e-01 2.50016332e-01 2.51017392e-01 2.53040314e-01 2.53979206e-01 2.54557908e-01 2.55712390e-01 2.56557435e-01 2.57978380e-01 2.58946091e-01 2.60431796e-01 2.61357248e-01 2.62963980e-01 2.64773101e-01 2.66007125e-01 2.66913176e-01 2.68092990e-01 2.69812405e-01 2.70411491e-01 2.71072567e-01 2.72377014e-01 2.74309695e-01 2.75503010e-01 2.76974559e-01 2.78227001e-01 2.79587328e-01 2.80423105e-01 2.81539649e-01 2.82581657e-01 2.83826262e-01 2.85483867e-01 2.86767185e-01 2.87216097e-01 2.88512170e-01 2.89670467e-01 2.91986555e-01 2.93778390e-01 2.95046002e-01 2.96653748e-01 2.97961086e-01 2.99323350e-01 3.01055014e-01 3.02253574e-01 3.02863330e-01 3.04617375e-01 3.05314928e-01 3.05674762e-01 3.06941390e-01 3.08815062e-01 3.09495300e-01 3.10616046e-01 3.11762780e-01 3.14621150e-01 3.16232055e-01 3.17560971e-01 3.18570316e-01 3.19339007e-01 3.20413023e-01 3.21274400e-01 3.22501719e-01 3.23421001e-01 3.24454963e-01 3.25641960e-01 3.28455329e-01 3.30118924e-01 3.30918670e-01 3.32199275e-01 3.33236903e-01 3.34318787e-01 3.34913582e-01 3.37169528e-01 3.38471800e-01 3.39277744e-01 3.40046257e-01 3.42183650e-01 3.43729407e-01 3.45207393e-01 3.46738160e-01 3.48568141e-01 3.49714905e-01 3.51808459e-01 3.54231924e-01 3.56099397e-01 3.57698262e-01 3.58574659e-01 3.60832036e-01 3.62565339e-01 3.63933116e-01 3.65396410e-01 3.66882503e-01 3.69906306e-01 3.71440768e-01 3.73173356e-01 3.74003232e-01 3.75246137e-01 3.77503961e-01 3.79068017e-01 3.80352944e-01 3.82336676e-01 3.84284586e-01 3.86146635e-01 3.87006551e-01 3.87902647e-01 3.89082640e-01 3.91318321e-01 3.92666101e-01 3.93829048e-01 3.95068526e-01 3.96436542e-01 3.97617966e-01 3.99181634e-01 4.00125235e-01 4.02518868e-01 4.03663844e-01 4.05369043e-01 4.06403661e-01 4.08031255e-01 4.09916222e-01 4.11909193e-01 4.12791580e-01 4.14417952e-01 4.15980160e-01 4.17762130e-01 4.19313937e-01 4.20544863e-01 4.21539545e-01 4.22953457e-01 4.24420655e-01 4.24979180e-01 4.25936133e-01 4.26945478e-01 4.28262174e-01 4.30606544e-01 4.31922555e-01 4.33666706e-01 4.34823722e-01 4.36268181e-01 4.37606156e-01 4.38918054e-01 4.40194190e-01 4.41203475e-01 4.42305297e-01 4.43341345e-01 4.44585830e-01 4.46606219e-01 4.47866619e-01 4.49156553e-01 4.51127648e-01 4.52527076e-01 4.53880042e-01 4.55518126e-01 4.56557453e-01 4.58056003e-01 4.58919376e-01 4.60008711e-01 4.61986333e-01 4.63452697e-01 4.64511961e-01 4.66174811e-01 4.67271656e-01 4.68620867e-01 4.70501542e-01 4.72147852e-01 4.72916722e-01 4.74178493e-01 4.76874113e-01 4.78102624e-01 4.79216397e-01 4.80624437e-01 4.82326090e-01 4.83548701e-01 4.85763341e-01 4.87071455e-01 4.88730639e-01 4.90639448e-01 4.92647946e-01 4.94235814e-01 4.95863229e-01 4.98120815e-01 4.99217421e-01 5.01075149e-01 5.03111362e-01 5.04281104e-01 5.05779743e-01 5.08043289e-01 5.08754313e-01 5.10217845e-01 5.11799216e-01 5.12619853e-01 5.14227390e-01 5.16559958e-01 5.18217683e-01 5.20110011e-01 5.21281123e-01 5.22637486e-01 5.25050759e-01 5.26778579e-01 5.28512955e-01 5.29725373e-01 5.31030536e-01 5.32901585e-01 5.34006000e-01 5.35314083e-01 5.36363065e-01 5.37397146e-01 5.39027154e-01 5.41003048e-01 5.42044282e-01 5.44221640e-01 5.45425117e-01 5.46997309e-01 5.47804892e-01 5.49377501e-01 5.51236212e-01 5.53253472e-01 5.54193497e-01 5.55845439e-01 5.58368266e-01 5.60051978e-01 5.61544240e-01 5.62206745e-01 5.63318670e-01 5.64497590e-01 5.67009091e-01 5.67912757e-01 5.69452941e-01 5.71133137e-01 5.72967291e-01 5.74123025e-01 5.76950133e-01 5.79059720e-01 5.80649495e-01 5.82061052e-01 5.84489584e-01 5.86053431e-01 5.88068306e-01 5.90163589e-01 5.92132151e-01 5.93790770e-01 5.95986128e-01 5.97676039e-01 6.00187778e-01 6.02234364e-01 6.03831351e-01 6.05826616e-01 6.07635021e-01 6.09753549e-01 6.12286687e-01 6.13659561e-01 6.15409851e-01 6.17340922e-01 6.18813157e-01 6.20831370e-01 6.22481108e-01 6.24741077e-01 6.26335859e-01 6.28806710e-01 6.31300032e-01 6.33188963e-01 6.34636879e-01 6.35687232e-01 6.37824178e-01 6.40225947e-01 6.41744316e-01 6.42715216e-01 6.44200027e-01 6.47069991e-01 6.48942053e-01 6.50678217e-01 6.53019547e-01 6.54664218e-01 6.56650960e-01 6.59788191e-01 6.61281824e-01 6.62968993e-01 6.64409220e-01 6.66296899e-01 6.68008685e-01 6.69992268e-01 6.72565043e-01 6.74816430e-01 6.76782072e-01 6.78883612e-01 6.80645704e-01 6.82891726e-01 6.85561001e-01 6.87722623e-01 6.90939903e-01 6.93901002e-01 6.95376396e-01 6.97240233e-01 6.99626863e-01 7.01365232e-01 7.02509105e-01 7.04294086e-01 7.07312584e-01 7.08556950e-01 7.10687816e-01 7.12066293e-01 7.13866591e-01 7.16204464e-01 7.18302846e-01 7.19711602e-01 7.22479761e-01 7.24780738e-01 7.26947844e-01 7.29279935e-01 7.31075943e-01 7.32724786e-01 7.34613240e-01 7.36362815e-01 7.38716483e-01 7.40624607e-01 7.43124127e-01 7.44607925e-01 7.46128023e-01 7.47693002e-01 7.51971364e-01 7.53119230e-01 7.54919708e-01 7.57071495e-01 7.58328021e-01 7.59926200e-01 7.62713075e-01 7.65239775e-01 7.66416788e-01 7.69073248e-01 7.71524847e-01 7.73946524e-01 7.77879775e-01 7.80342221e-01 7.83194721e-01 7.85750985e-01 7.88675487e-01 7.90854216e-01 7.93370724e-01 7.95360208e-01 7.97719002e-01 7.99458563e-01 8.01175773e-01 8.05344820e-01 8.06653142e-01 8.08260679e-01 8.10986042e-01 8.13376665e-01 8.16077292e-01 8.17711353e-01 8.19606245e-01 8.21507812e-01 8.23141575e-01 8.24674666e-01 8.26645136e-01 8.28897595e-01 8.30925405e-01 8.33119929e-01 8.34636569e-01 8.36112797e-01 8.38384032e-01 8.40836346e-01 8.42657030e-01 8.45529854e-01 8.48761380e-01 8.50863695e-01 8.54165018e-01 8.56093466e-01 8.57971787e-01 8.60314965e-01 8.62733006e-01 8.65654588e-01 8.67216706e-01 8.68770421e-01 8.72405410e-01 8.75555098e-01 8.77227604e-01 8.79443645e-01 8.81225646e-01 8.83218825e-01 8.84617805e-01 8.86486173e-01 8.88135254e-01 8.90287757e-01 8.92851710e-01 8.94020915e-01 8.97115231e-01 8.99216235e-01 9.01424944e-01 9.03903723e-01 9.06706810e-01 9.09170628e-01 9.11392629e-01 9.15176690e-01 9.18228447e-01 9.22087371e-01 9.24993277e-01 9.27888572e-01 9.29406822e-01 9.31043088e-01 9.33868825e-01 9.36053395e-01 9.38214302e-01 9.40157652e-01 9.42383528e-01 9.44523215e-01 9.47324395e-01 9.49498057e-01 9.52380598e-01 9.55519021e-01 9.57552016e-01 9.60309803e-01 9.62544441e-01 9.64649260e-01 9.68311191e-01 9.70958292e-01 9.73527908e-01 9.75402117e-01 9.78582084e-01 9.81676877e-01 9.83941555e-01 9.86513793e-01 9.88701582e-01 9.90670145e-01 9.93085921e-01 9.95389819e-01 9.98328745e-01 1.00079083e+00 1.00345564e+00 1.00615788e+00 1.00920546e+00 1.01200402e+00 1.01502311e+00 1.01765490e+00 1.02169061e+00 1.02412224e+00 1.02656674e+00 1.02972233e+00 1.03306627e+00 1.03669012e+00 1.03941166e+00 1.04235446e+00 1.04561734e+00 1.04819393e+00 1.05216372e+00 1.05567396e+00 1.05756736e+00 1.06072950e+00 1.06304252e+00 1.06623471e+00 1.06941068e+00 1.07198179e+00 1.07816124e+00 1.08123565e+00 1.08632600e+00 1.08970582e+00 1.09298575e+00 1.09455705e+00 1.09791529e+00 1.10029733e+00 1.10222244e+00 1.10459483e+00 1.10746288e+00 1.10924327e+00 1.11422360e+00 1.11831224e+00 1.12197661e+00 1.12522686e+00 1.12794149e+00 1.13047206e+00 1.13255847e+00 1.13642049e+00 1.13963461e+00 1.14151275e+00 1.14532924e+00 1.14951169e+00 1.15424681e+00 1.15612745e+00 1.15912020e+00 1.16143715e+00 1.16367173e+00 1.16626251e+00 1.16883492e+00 1.17169058e+00 1.17411995e+00 1.17777443e+00 1.18070960e+00 1.18704069e+00 1.19032681e+00 1.19590342e+00 1.19954252e+00 1.20097864e+00 1.20351243e+00 1.20548379e+00 1.20931327e+00 1.21214592e+00 1.21597159e+00 1.21902823e+00 1.22338605e+00 1.22715819e+00 1.22938049e+00 1.23416269e+00 1.23853743e+00 1.24262893e+00 1.24693954e+00 1.24944830e+00 1.25448847e+00 1.25696874e+00 1.25959992e+00 1.26285005e+00 1.26462495e+00 1.26643240e+00 1.27099144e+00 1.27370977e+00 1.27534437e+00 1.27799380e+00 1.28187454e+00 1.28523374e+00 1.28884041e+00 1.29184127e+00 1.29404759e+00 1.29723310e+00 1.30036879e+00 1.30588210e+00 1.31000125e+00 1.31199121e+00 1.31405771e+00 1.31614828e+00 1.31824768e+00 1.32357395e+00 1.32736230e+00 1.33169460e+00 1.33493173e+00 1.34003520e+00 1.34284234e+00 1.34596145e+00 1.34943950e+00 1.35370219e+00 1.35978580e+00 1.36378741e+00 1.36787128e+00 1.37136722e+00 1.37767673e+00 1.38096833e+00 1.38514376e+00 1.38935220e+00 1.39406478e+00 1.39836109e+00 1.40203786e+00 1.40435100e+00 1.40825653e+00 1.41241586e+00 1.41498244e+00 1.41804254e+00 1.42204392e+00 1.42741406e+00 1.43311739e+00 1.43629014e+00 1.43889034e+00 1.44322288e+00 1.44713056e+00 1.45053220e+00 1.45551801e+00 1.46043575e+00 1.46511352e+00 1.47003567e+00 1.47502828e+00 1.48089933e+00 1.48519397e+00 1.48979950e+00 1.49475896e+00 1.49869978e+00 1.50481975e+00 1.50934577e+00 1.51273394e+00 1.51665080e+00 1.52012575e+00 1.52463067e+00 1.52819431e+00 1.53299761e+00 1.53691733e+00 1.54024625e+00 1.54477358e+00 1.54894710e+00 1.55524981e+00 1.56044829e+00 1.56647456e+00 1.57367086e+00 1.57813311e+00 1.58177507e+00 1.58751702e+00 1.59136629e+00 1.59457159e+00 1.59935999e+00 1.60460091e+00 1.60754085e+00 1.61255634e+00 1.62139440e+00 1.62811136e+00 1.63511860e+00 1.64245284e+00 1.64708471e+00 1.65122437e+00 1.65922618e+00 1.66569519e+00 1.67092717e+00 1.67676187e+00 1.68665373e+00 1.69222188e+00 1.70119774e+00 1.70848238e+00 1.71310091e+00 1.72159433e+00 1.73003280e+00 1.73598409e+00 1.74255526e+00 1.74695146e+00 1.75416911e+00 1.75886381e+00 1.76791680e+00 1.77532029e+00 1.78040016e+00 1.78718567e+00 1.79188633e+00 1.79836011e+00 1.80281472e+00 1.81325221e+00 1.81989479e+00 1.83030200e+00 1.83775759e+00 1.84937811e+00 1.85466814e+00 1.86480796e+00 1.87050545e+00 1.87589359e+00 1.88404047e+00 1.89621425e+00 1.90359628e+00 1.91146421e+00 1.91968679e+00 1.93186164e+00 1.94054878e+00 1.95075333e+00 1.96212065e+00 1.97120607e+00 1.98107898e+00 1.99049425e+00 2.00198483e+00 2.01219344e+00 2.02021408e+00 2.03349853e+00 2.04164791e+00 2.05174088e+00 2.05757809e+00 2.06747150e+00 2.07940650e+00 2.08807659e+00 2.09751201e+00 2.11108565e+00 2.12174249e+00 2.13118815e+00 2.14294004e+00 2.15770817e+00 2.17193723e+00 2.18479252e+00 2.20316720e+00 2.21629763e+00 2.22927427e+00 2.24937153e+00 2.26041436e+00 2.27637506e+00 2.29140162e+00 2.30300999e+00 2.31678057e+00 2.33183289e+00 2.34720588e+00 2.36326766e+00 2.38047600e+00 2.39228606e+00 2.40491486e+00 2.43457317e+00 2.45625949e+00 2.48068404e+00 2.50967455e+00 2.53363395e+00 2.54976368e+00 2.56077456e+00 2.58392882e+00 2.60720730e+00 2.63279915e+00 2.65540671e+00 2.68875837e+00 2.70780587e+00 2.72200918e+00 2.79247785e+00 2.82000351e+00 2.84672332e+00 2.88072562e+00 2.92068982e+00 2.95510602e+00 2.99412012e+00 3.02354741e+00 3.05450320e+00 3.11966443e+00 3.18347788e+00 3.23613906e+00 3.29792690e+00 3.38250637e+00 3.48674440e+00 3.66624284e+00 3.83756256e+00 4.08411551e+00 4.54502344e+00 6.21678400e+00 
            </HistogramBinning>
          </PDF>
        </CumulativePDF_cls0>
        <CumulativePDF_cls1>
          <PDF Name="GaussTransform var0 cls1" MinNSmooth="0" MaxNSmooth="0" InterpolMethod="1" KDE_type="0" KDE_iter="1" KDE_border="1" KDE_finefactor="0.0000000000000000e+00">
            <Histogram Name="Cumulative_Var0_cls1_original" NBins="241" XMin="-3.7678601741790771e+00" XMax="3.1765823364257812e+00" HasEquidistantBins="0">
              3.01298709e-03 6.75324677e-03 1.08831171e-02 1.50649352e-02 1.92207787e-02 2.33766232e-02 2.75324676e-02 3.16883102e-02 3.58441547e-02 3.99999991e-02 4.41558436e-02 4.83116880e-02 5.24675325e-02 5.66233769e-02 6.07792214e-02 6.49350658e-02 6.90909103e-02 7.32467547e-02 7.74025992e-02 8.15584436e-02 8.57142881e-02 8.98701325e-02 9.40259770e-02 9.81818214e-02 1.02337666e-01 1.06493503e-01 1.10649347e-01 1.14805192e-01 1.18961036e-01 1.23116881e-01 1.27272725e-01 1.31428570e-01 1.35584414e-01 1.39740258e-01 1.43896103e-01 1.48051947e-01 1.52207792e-01 1.56363636e-01 1.60519481e-01 1.64675325e-01 1.68831170e-01 1.72987014e-01 1.77142859e-01 1.81298703e-01 1.85454547e-01 1.89610392e-01 1.93766236e-01 1.97922081e-01 2.02077925e-01 2.06233770e-01 2.10389614e-01 2.14545459e-01 2.18701303e-01 2.22857147e-01 2.27012992e-01 2.31168836e-01 2.35324681e-01 2.39480525e-01 2.43636370e-01 2.47792214e-01 2.51948059e-01 2.56103903e-01 2.60259748e-01 2.64415592e-01 2.68571436e-01 2.72727281e-01 2.76883125e-01 2.81038970e-01 2.85194814e-01 2.89350659e-01 2.93506503e-01 2.97662348e-01 3.01818192e-01 3.05974036e-01 3.10129881e-01 3.14285725e-01 3.18441570e-01 3.22597414e-01 3.26753259e-01 3.30909103e-01 3.35064948e-01 3.39220792e-01 3.43376637e-01 3.47532481e-01 3.51688325e-01 3.55844170e-01 3.60000014e-01 3.64155859e-01 3.68311703e-01 3.72467518e-01 3.76623362e-01 3.80779207e-01 3.84935051e-01 3.89090896e-01 3.93246740e-01 3.97402585e-01 4.01558429e-01 4.05714273e-01 4.09870118e-01 4.14025962e-01 4.18181807e-01 4.22337651e-01 4.26493496e-01 4.30649340e-01 4.34805185e-01 4.38961029e-01 4.43116874e-01 4.47272718e-01 4.51428562e-01 4.55584407e-01 4.59740251e-01 4.63896096e-01 4.68051940e-01 4.72207785e-01 4.76363629e-01 4.80519474e-01 4.84675318e-01 4.88831162e-01 4.92987007e-01 4.97142851e-01 5.01298726e-01 5.05454540e-01 5.09610415e-01 5.13766229e-01 5.17922103e-01 5.22077918e-01 5.26233792e-01 5.30389607e-01 5.34545481e-01 5.38701296e-01 5.42857170e-01 5.47012985e-01 5.51168859e-01 5.55324674e-01 5.59480548e-01 5.63636363e-01 5.67792237e-01 5.71948051e-01 5.76103926e-01 5.80259740e-01 5.84415555e-01 5.88571429e-01 5.92727244e-01 5.96883118e-01 6.01038933e-01 6.05194807e-01 6.09350622e-01 6.13506496e-01 6.17662311e-01 6.21818185e-01 6.25974000e-01 6.30129874e-01 6.34285688e-01 6.38441563e-01 6.42597377e-01 6.46753252e-01 6.50909066e-01 6.55064940e-01 6.59220755e-01 6.63376629e-01 6.67532444e-01 6.71688318e-01 6.75844133e-01 6.80000007e-01 6.84155822e-01 6.88311696e-01 6.92467511e-01 6.96623385e-01 7.00779200e-01 7.04935074e-01 7.09090889e-01 7.13246763e-01 7.17402577e-01 7.21558452e-01 7.25714266e-01 7.29870141e-01 7.34025955e-01 7.38181829e-01 7.42337644e-01 7.46493518e-01 7.50649333e-01 7.54805207e-01 7.58961022e-01 7.63116896e-01 7.67272711e-01 7.71428585e-01 7.75584400e-01 7.79740274e-01 7.83896089e-01 7.88051963e-01 7.92207778e-01 7.96363652e-01 8.00519466e-01 8.04675341e-01 8.08831155e-01 8.12987030e-01 8.17142844e-01 8.21298718e-01 8.25454533e-01 8.29610407e-01 8.33766222e-01 8.37922096e-01 8.42077911e-01 8.46233785e-01 8.50389600e-01 8.54545474e-01 8.58701289e-01 8.62857163e-01 8.67012978e-01 8.71168852e-01 8.75324667e-01 8.79480541e-01 8.83636355e-01 8.87792230e-01 8.91948044e-01 8.96103919e-01 9.00259733e-01 9.04415607e-01 9.08571422e-01 9.12727296e-01 9.16883111e-01 9.21038985e-01 9.25194800e-01 9.29350674e-01 9.33506489e-01 9.37662363e-01 9.41818178e-01 9.45974052e-01 9.50129867e-01 9.54285741e-01 9.58441556e-01 9.62597430e-01 9.66753244e-01 9.70909119e-01 9.75064933e-01 9.79220808e-01 9.83376622e-01 9.87532496e-01 9.91688311e-01 9.95844185e-01 1.00000000e+00 
            </Histogram>
            <HistogramBinning NBins="241">
              -3.76786017e+00 -3.76776028e+00 -3.50432706e+00 -2.70894670e+00 -2.63214207e+00 -2.55466509e+00 -2.40061903e+00 -2.11298823e+00 -1.78279734e+00 -1.76633978e+00 -1.74095213e+00 -1.72048056e+00 -1.70908320e+00 -1.69857872e+00 -1.68389702e+00 -1.67538333e+00 -1.66829443e+00 -1.65231729e+00 -1.63934350e+00 -1.62528872e+00 -1.61495554e+00 -1.60097003e+00 -1.59071839e+00 -1.58282804e+00 -1.57363415e+00 -1.56028819e+00 -1.54981637e+00 -1.53588319e+00 -1.52005053e+00 -1.51574290e+00 -1.50635862e+00 -1.50093746e+00 -1.48892093e+00 -1.47564936e+00 -1.45639813e+00 -1.44328260e+00 -1.42511332e+00 -1.41721749e+00 -1.39612067e+00 -1.38083124e+00 -1.35347164e+00 -1.33008671e+00 -1.31432474e+00 -1.28286934e+00 -1.24476099e+00 -1.17482865e+00 -1.12653697e+00 -1.04528701e+00 -9.76651371e-01 -8.68214786e-01 -8.10697138e-01 -7.89093196e-01 -7.75731564e-01 -7.66781569e-01 -7.55639136e-01 -7.45379150e-01 -7.36226380e-01 -7.32076108e-01 -7.19365418e-01 -7.15692937e-01 -7.07614839e-01 -7.00001776e-01 -6.96285546e-01 -6.89278901e-01 -6.85761511e-01 -6.82436228e-01 -6.79213762e-01 -6.70124352e-01 -6.62337482e-01 -6.60150766e-01 -6.53505564e-01 -6.49325669e-01 -6.44259036e-01 -6.39372170e-01 -6.37490630e-01 -6.35363102e-01 -6.31151080e-01 -6.28355265e-01 -6.25620186e-01 -6.22465670e-01 -6.19477212e-01 -6.15982771e-01 -6.10882461e-01 -6.08239949e-01 -6.02801681e-01 -6.00354552e-01 -5.98443806e-01 -5.95422089e-01 -5.91460943e-01 -5.86959004e-01 -5.83806396e-01 -5.80426157e-01 -5.77083409e-01 -5.74481845e-01 -5.70861757e-01 -5.68727434e-01 -5.62428892e-01 -5.56030810e-01 -5.52822471e-01 -5.51541746e-01 -5.49966037e-01 -5.46310306e-01 -5.40044069e-01 -5.36133230e-01 -5.33408880e-01 -5.30106664e-01 -5.27004778e-01 -5.21389961e-01 -5.18388808e-01 -5.14695108e-01 -5.12454331e-01 -5.06743670e-01 -5.03533781e-01 -4.98947859e-01 -4.95844871e-01 -4.91900504e-01 -4.90025818e-01 -4.84640688e-01 -4.78990108e-01 -4.71085727e-01 -4.61854994e-01 -4.55321670e-01 -4.52546835e-01 -4.47893292e-01 -4.43709165e-01 -4.37736452e-01 -4.32517290e-01 -4.30001706e-01 -4.24622953e-01 -4.16165382e-01 -4.11310285e-01 -4.05842155e-01 -3.97475123e-01 -3.91527563e-01 -3.85541260e-01 -3.83174986e-01 -3.76253515e-01 -3.69305819e-01 -3.65963340e-01 -3.59918237e-01 -3.52798283e-01 -3.47957700e-01 -3.36314946e-01 -3.31328869e-01 -3.22915345e-01 -3.16285223e-01 -3.12056273e-01 -3.00873935e-01 -2.88090825e-01 -2.76097029e-01 -2.66901374e-01 -2.60365009e-01 -2.48931289e-01 -2.41210923e-01 -2.34459624e-01 -2.26478770e-01 -2.06450075e-01 -1.85542107e-01 -1.77036732e-01 -1.57360867e-01 -1.45815879e-01 -1.21045515e-01 -1.11584067e-01 -9.97141525e-02 -8.77265185e-02 -7.72715360e-02 -5.68804517e-02 -4.85833809e-02 -3.37568074e-02 -2.83736531e-02 -7.53608206e-03 4.73405141e-03 1.22455321e-02 2.07664259e-02 2.76371632e-02 3.91822346e-02 6.11520968e-02 7.23464265e-02 8.56092945e-02 1.00030929e-01 1.09898873e-01 1.21529467e-01 1.32809117e-01 1.46386370e-01 1.53018579e-01 1.70893937e-01 1.84915990e-01 2.03178421e-01 2.20969662e-01 2.32392058e-01 2.49742106e-01 2.58388072e-01 2.70581037e-01 2.82150030e-01 2.95811832e-01 3.08308125e-01 3.17959934e-01 3.30284566e-01 3.43070984e-01 3.53735149e-01 3.56079847e-01 3.67481112e-01 3.81859928e-01 3.89674485e-01 4.05314147e-01 4.11245257e-01 4.23937172e-01 4.32656437e-01 4.42368060e-01 4.51614767e-01 4.61412758e-01 4.70030755e-01 4.84916419e-01 5.01950383e-01 5.10320187e-01 5.15758634e-01 5.34002066e-01 5.41597128e-01 5.57610571e-01 5.73307753e-01 5.90905190e-01 6.12749755e-01 6.28201604e-01 6.45028710e-01 6.67545974e-01 6.86428607e-01 7.06772447e-01 7.22610831e-01 7.66143441e-01 7.85834789e-01 8.13569188e-01 8.30861628e-01 8.41175735e-01 8.83980930e-01 9.10779059e-01 9.66034412e-01 1.04298687e+00 1.12569594e+00 1.16334808e+00 1.32356656e+00 1.56066799e+00 3.17658234e+00 
            </HistogramBinning>
          </PDF>
        </CumulativePDF_cls1>
        <CumulativePDF_cls2>
          <PDF Name="GaussTransform var0 cls2" MinNSmooth="0" MaxNSmooth="0" InterpolMethod="1" KDE_type="0" KDE_iter="1" KDE_border="1" KDE_finefactor="0.0000000000000000e+00">
            <Histogram Name="Cumulative_Var0_cls2_original" NBins="1835" XMin="-6.7257738113403320e+00" XMax="6.2167840003967285e+00" HasEquidistantBins="0">
