<?xml version="1.0"?>
<MethodSetup Method="BDT::BDT">
  <GeneralInfo>
    <Info name="TMVA Release" value="4.2.1 [262657]"/>
    <Info name="ROOT Release" value="6.12/06 [396294]"/>
    <Info name="Creator" value="xqian"/>
    <Info name="Date" value="Sun Sep 13 21:13:55 2020"/>
    <Info name="Host" value="Linux xqian 4.15.0-46-generic #49-Ubuntu SMP Wed Feb 6 09:33:07 UTC 2019 x86_64 x86_64 x86_64 GNU/Linux"/>
    <Info name="Dir" value="/home/xqian/wire-cell/wcp_dev/test_files/nue_bdt_training/lol_tagger2"/>
    <Info name="Training events" value="42200"/>
    <Info name="TrainingTime" value="8.15022302e+00"/>
    <Info name="AnalysisType" value="Classification"/>
  </GeneralInfo>
  <Options>
    <Option name="V" modified="Yes">False</Option>
    <Option name="VerbosityLevel" modified="No">Default</Option>
    <Option name="VarTransform" modified="Yes">D,P,U,G,D,N</Option>
    <Option name="H" modified="Yes">False</Option>
    <Option name="CreateMVAPdfs" modified="No">False</Option>
    <Option name="IgnoreNegWeightsInTraining" modified="No">False</Option>
    <Option name="NTrees" modified="Yes">850</Option>
    <Option name="MaxDepth" modified="Yes">3</Option>
    <Option name="MinNodeSize" modified="Yes">2.5%</Option>
    <Option name="nCuts" modified="Yes">20</Option>
    <Option name="BoostType" modified="Yes">AdaBoost</Option>
    <Option name="AdaBoostR2Loss" modified="No">quadratic</Option>
    <Option name="UseBaggedBoost" modified="Yes">True</Option>
    <Option name="Shrinkage" modified="No">1.000000e+00</Option>
    <Option name="AdaBoostBeta" modified="Yes">5.000000e-01</Option>
    <Option name="UseRandomisedTrees" modified="No">False</Option>
    <Option name="UseNvars" modified="No">3</Option>
    <Option name="UsePoissonNvars" modified="No">True</Option>
    <Option name="BaggedSampleFraction" modified="Yes">5.000000e-01</Option>
    <Option name="UseYesNoLeaf" modified="No">True</Option>
    <Option name="NegWeightTreatment" modified="No">inverseboostnegweights</Option>
    <Option name="Css" modified="No">1.000000e+00</Option>
    <Option name="Cts_sb" modified="No">1.000000e+00</Option>
    <Option name="Ctb_ss" modified="No">1.000000e+00</Option>
    <Option name="Cbb" modified="No">1.000000e+00</Option>
    <Option name="NodePurityLimit" modified="No">5.000000e-01</Option>
    <Option name="SeparationType" modified="Yes">giniindex</Option>
    <Option name="RegressionLossFunctionBDTG" modified="No">huber</Option>
    <Option name="HuberQuantile" modified="No">7.000000e-01</Option>
    <Option name="DoBoostMonitor" modified="No">False</Option>
    <Option name="UseFisherCuts" modified="No">False</Option>
    <Option name="MinLinCorrForFisher" modified="No">8.000000e-01</Option>
    <Option name="UseExclusiveVars" modified="No">False</Option>
    <Option name="DoPreselection" modified="No">False</Option>
    <Option name="SigToBkgFraction" modified="No">1.000000e+00</Option>
    <Option name="PruneMethod" modified="No">nopruning</Option>
    <Option name="PruneStrength" modified="No">0.000000e+00</Option>
    <Option name="PruningValFraction" modified="No">5.000000e-01</Option>
    <Option name="SkipNormalization" modified="No">False</Option>
    <Option name="nEventsMin" modified="No">0</Option>
    <Option name="UseBaggedGrad" modified="No">False</Option>
    <Option name="GradBaggingFraction" modified="No">5.000000e-01</Option>
    <Option name="UseNTrainEvents" modified="No">0</Option>
    <Option name="NNodesMax" modified="No">0</Option>
  </Options>
  <Variables NVar="7">
    <Variable VarIndex="0" Expression="lol_2_v_length" Label="lol_2_v_length" Title="lol_2_v_length" Unit="cm" Internal="lol_2_v_length" Type="F" Min="0.00000000e+00" Max="4.83886444e+02"/>
    <Variable VarIndex="1" Expression="lol_2_v_angle" Label="lol_2_v_angle" Title="lol_2_v_angle" Unit="deg" Internal="lol_2_v_angle" Type="F" Min="0.00000000e+00" Max="1.79635330e+02"/>
    <Variable VarIndex="2" Expression="lol_2_v_type" Label="lol_2_v_type" Title="lol_2_v_type" Unit="" Internal="lol_2_v_type" Type="F" Min="1.10000000e+01" Max="2.21200000e+03"/>
    <Variable VarIndex="3" Expression="lol_2_v_vtx_n_segs" Label="lol_2_v_vtx_n_segs" Title="lol_2_v_vtx_n_segs" Unit="" Internal="lol_2_v_vtx_n_segs" Type="F" Min="2.00000000e+00" Max="1.00000000e+01"/>
    <Variable VarIndex="4" Expression="lol_2_v_energy" Label="lol_2_v_energy" Title="lol_2_v_energy" Unit="MeV" Internal="lol_2_v_energy" Type="F" Min="6.08567619e+01" Max="5.56039502e+03"/>
    <Variable VarIndex="5" Expression="lol_2_v_shower_main_length" Label="lol_2_v_shower_main_length" Title="lol_2_v_shower_main_length" Unit="cm" Internal="lol_2_v_shower_main_length" Type="F" Min="0.00000000e+00" Max="1.08417517e+03"/>
    <Variable VarIndex="6" Expression="lol_2_v_flag_dir_weak" Label="lol_2_v_flag_dir_weak" Title="lol_2_v_flag_dir_weak" Unit="" Internal="lol_2_v_flag_dir_weak" Type="F" Min="0.00000000e+00" Max="1.00000000e+00"/>
  </Variables>
  <Spectators NSpec="0"/>
  <Classes NClass="2">
    <Class Name="Signal" Index="0"/>
    <Class Name="Background" Index="1"/>
  </Classes>
  <Transformations NTransformations="6">
    <Transform Name="Decorrelation">
      <Selection>
        <Input NInputs="7">
          <Input Type="Variable" Label="lol_2_v_length" Expression="lol_2_v_length"/>
          <Input Type="Variable" Label="lol_2_v_angle" Expression="lol_2_v_angle"/>
          <Input Type="Variable" Label="lol_2_v_type" Expression="lol_2_v_type"/>
          <Input Type="Variable" Label="lol_2_v_vtx_n_segs" Expression="lol_2_v_vtx_n_segs"/>
          <Input Type="Variable" Label="lol_2_v_energy" Expression="lol_2_v_energy"/>
          <Input Type="Variable" Label="lol_2_v_shower_main_length" Expression="lol_2_v_shower_main_length"/>
          <Input Type="Variable" Label="lol_2_v_flag_dir_weak" Expression="lol_2_v_flag_dir_weak"/>
        </Input>
        <Output NOutputs="7">
          <Output Type="Variable" Label="lol_2_v_length" Expression="lol_2_v_length"/>
          <Output Type="Variable" Label="lol_2_v_angle" Expression="lol_2_v_angle"/>
          <Output Type="Variable" Label="lol_2_v_type" Expression="lol_2_v_type"/>
          <Output Type="Variable" Label="lol_2_v_vtx_n_segs" Expression="lol_2_v_vtx_n_segs"/>
          <Output Type="Variable" Label="lol_2_v_energy" Expression="lol_2_v_energy"/>
          <Output Type="Variable" Label="lol_2_v_shower_main_length" Expression="lol_2_v_shower_main_length"/>
          <Output Type="Variable" Label="lol_2_v_flag_dir_weak" Expression="lol_2_v_flag_dir_weak"/>
        </Output>
      </Selection>
      <Matrix Rows="7" Columns="7">
        4.065620405752876e-02 1.286378473237971e-03 -5.549084633126175e-08 1.269375052254671e-03 -8.502485348273864e-05 1.653222693001358e-04 4.333717902018877e-03 1.286378473237969e-03 2.998491707431648e-02 -1.251815277900642e-04 1.843445541112863e-03 3.471014421560544e-04 -5.112018713914452e-05 4.225520246141640e-04 -5.549084633125635e-08 -1.251815277900642e-04 9.278227336759832e-04 1.081027022961774e-04 6.444169046709364e-05 4.509767682375087e-05 5.694444999165652e-04 1.269375052254670e-03 1.843445541112863e-03 1.081027022961774e-04 8.666560059498997e-01 -2.267883075870988e-04 5.571276506068384e-04 -6.063495345767805e-02 -8.502485348273866e-05 3.471014421560544e-04 6.444169046709360e-05 -2.267883075870988e-04 2.090709761154867e-03 -2.556265645810904e-03 -9.890247662931282e-06 1.653222693001359e-04 -5.112018713914450e-05 4.509767682375089e-05 5.571276506068384e-04 -2.556265645810904e-03 1.945512082584054e-02 -2.607245256134539e-04 4.333717902018877e-03 4.225520246141643e-04 5.694444999165652e-04 -6.063495345767805e-02 -9.890247662931255e-06 -2.607245256134540e-04 2.518488296605253e+00 
      </Matrix>
      <Matrix Rows="7" Columns="7">
        2.448274575135810e-01 1.858900779636354e-02 -1.157800411907621e-04 -3.558790135717808e-02 1.078271436931348e-03 -6.402886466833601e-04 7.272457625774483e-03 1.858900779636354e-02 9.798941485963042e-02 -1.765954366783217e-04 1.914066537658986e-02 1.346882556705811e-03 -3.265192406935464e-03 -8.940978516656596e-03 -1.157800411907621e-04 -1.765954366783217e-04 1.262018106478187e-03 3.527455303153965e-05 -2.288548569511839e-04 -2.044188606371658e-04 2.324312516684360e-04 -3.558790135717806e-02 1.914066537658985e-02 3.527455303153965e-05 2.695679348908034e+00 -2.161271062198140e-04 1.837239205483983e-04 2.875704567106245e-03 1.078271436931348e-03 1.346882556705811e-03 -2.288548569511838e-04 -2.161271062198139e-04 9.193075405022615e-03 -6.190979455700577e-03 -3.297313905844808e-04 -6.402886466833601e-04 -3.265192406935464e-03 -2.044188606371658e-04 1.837239205483980e-04 -6.190979455700577e-03 2.207332099078598e-02 8.243901265971971e-04 7.272457625774484e-03 -8.940978516656598e-03 2.324312516684360e-04 2.875704567106244e-03 -3.297313905844808e-04 8.243901265971971e-04 5.865421010115720e+00 
      </Matrix>
      <Matrix Rows="7" Columns="7">
        4.146535604787048e-02 5.050705830592391e-04 -1.363973828119803e-05 2.478606174603620e-04 -1.466744225351537e-04 3.025959531854255e-04 4.711589690487288e-03 5.050705830592390e-04 2.799324976953985e-02 -1.822737790302077e-04 -8.313150414030077e-04 1.387782643565457e-04 3.667256161681690e-04 1.249024117940951e-03 -1.363973828119803e-05 -1.822737790302076e-04 9.247897732496719e-04 8.430754208358937e-05 4.327522245663656e-05 4.375474726818064e-05 5.715471020672004e-04 2.478606174603620e-04 -8.313150414030077e-04 8.430754208358938e-05 8.652437868231176e-01 -3.729835988367702e-04 9.018367437844797e-04 -5.245423261835407e-02 -1.466744225351537e-04 1.387782643565457e-04 4.327522245663658e-05 -3.729835988367702e-04 2.093556589229643e-03 -2.513672667838086e-03 3.867594885511428e-05 3.025959531854254e-04 3.667256161681690e-04 4.375474726818064e-05 9.018367437844796e-04 -2.513672667838086e-03 1.927322029171442e-02 -4.556844603480906e-04 4.711589690487288e-03 1.249024117940951e-03 5.715471020672004e-04 -5.245423261835407e-02 3.867594885511428e-05 -4.556844603480906e-04 2.558046996001545e+00 
      </Matrix>
    </Transform>
    <Transform Name="PCA">
      <Selection>
        <Input NInputs="7">
          <Input Type="Variable" Label="lol_2_v_length" Expression="lol_2_v_length"/>
          <Input Type="Variable" Label="lol_2_v_angle" Expression="lol_2_v_angle"/>
          <Input Type="Variable" Label="lol_2_v_type" Expression="lol_2_v_type"/>
          <Input Type="Variable" Label="lol_2_v_vtx_n_segs" Expression="lol_2_v_vtx_n_segs"/>
          <Input Type="Variable" Label="lol_2_v_energy" Expression="lol_2_v_energy"/>
          <Input Type="Variable" Label="lol_2_v_shower_main_length" Expression="lol_2_v_shower_main_length"/>
          <Input Type="Variable" Label="lol_2_v_flag_dir_weak" Expression="lol_2_v_flag_dir_weak"/>
        </Input>
        <Output NOutputs="7">
          <Output Type="Variable" Label="lol_2_v_length" Expression="lol_2_v_length"/>
          <Output Type="Variable" Label="lol_2_v_angle" Expression="lol_2_v_angle"/>
          <Output Type="Variable" Label="lol_2_v_type" Expression="lol_2_v_type"/>
          <Output Type="Variable" Label="lol_2_v_vtx_n_segs" Expression="lol_2_v_vtx_n_segs"/>
          <Output Type="Variable" Label="lol_2_v_energy" Expression="lol_2_v_energy"/>
          <Output Type="Variable" Label="lol_2_v_shower_main_length" Expression="lol_2_v_shower_main_length"/>
          <Output Type="Variable" Label="lol_2_v_flag_dir_weak" Expression="lol_2_v_flag_dir_weak"/>
        </Output>
      </Selection>
      <Statistics Class="Signal" ClassIndex="0" NRows="7">
        7.79653763e-01 2.31976050e+00 9.95146852e-01 2.77042371e+00 1.43517420e+00 3.11116432e-01 2.40196089e+00 
      </Statistics>
      <Statistics Class="Background" ClassIndex="1" NRows="7">
        2.49999616e-01 5.98877349e-01 3.63340086e-01 1.74654549e+00 3.58978966e-01 5.56643347e-01 2.62214962e+00 
      </Statistics>
      <Statistics Class="Combined" ClassIndex="2" NRows="7">
        7.52041461e-01 2.23004621e+00 9.62209058e-01 2.71704617e+00 1.37906924e+00 3.23916413e-01 2.41343993e+00 
      </Statistics>
      <Eigenvectors Class="Signal" ClassIndex="0" NRows="7" NCols="7">
        -8.34685094e-01 4.26349961e-01 1.11474952e-01 -9.94675670e-02 1.03250560e-01 -2.15394453e-01 2.05306099e-01 4.35683486e-02 -8.01150558e-02 8.09807090e-02 5.88141697e-01 -1.51341816e-01 1.11105154e-01 7.77152588e-01 6.66199861e-02 8.35052324e-02 -4.18204915e-02 -7.03707419e-01 -4.09513796e-01 4.00036982e-01 4.04851125e-01 -1.61884661e-01 -7.54642625e-01 -1.01965734e-01 -2.96021270e-01 1.37665400e-01 -4.68879518e-01 2.59773932e-01 5.13564167e-01 4.69323665e-01 1.12015017e-02 -1.89353800e-01 2.04040705e-01 -5.96769497e-01 2.86775815e-01 6.91824476e-02 -1.20825763e-01 9.83318322e-01 -8.98856965e-02 -4.20300669e-02 -2.92041553e-02 -5.47827952e-02 -4.71525412e-02 2.20251150e-02 -4.27679815e-02 1.32017136e-01 -8.58127339e-01 -4.52102389e-01 -1.93015048e-01 
      </Eigenvectors>
      <Eigenvectors Class="Background" ClassIndex="1" NRows="7" NCols="7">
        -9.62107793e-03 8.92792316e-03 -1.04635208e-01 -1.11564033e-01 1.26873134e-01 -4.52212498e-01 -8.69390437e-01 1.33161655e-02 -1.42907377e-01 4.01361884e-01 5.30339282e-02 -8.83214944e-01 4.88675404e-03 -1.88158665e-01 3.83519296e-01 7.13300372e-01 -3.09221305e-01 4.35219102e-01 -2.24551075e-01 -9.30529608e-02 7.96794435e-05 3.87850783e-02 3.92054351e-02 -6.22592802e-01 -6.90008810e-01 -3.40082805e-01 1.22768386e-01 4.99630435e-02 4.16489847e-02 5.68042056e-02 -1.38502196e-02 9.58924085e-02 9.24368545e-02 8.78163218e-01 -4.53801997e-01 9.00554692e-01 -4.22541414e-01 2.44691492e-02 -4.12071433e-02 8.86134706e-02 -1.52268795e-02 8.88971169e-03 1.95972933e-01 5.36092643e-01 5.86455395e-01 -5.55265397e-01 1.46144282e-01 1.86158945e-02 1.56522661e-02 
      </Eigenvectors>
      <Eigenvectors Class="Combined" ClassIndex="2" NRows="7" NCols="7">
        -7.95427818e-01 2.03556558e-01 4.18169183e-01 -3.61347775e-01 6.58352341e-03 -9.94768352e-02 1.02384817e-01 6.58981824e-02 1.12691006e-02 -1.25574694e-01 -4.74156132e-01 6.92254800e-01 2.77853518e-01 -4.45553712e-01 7.87514315e-02 -3.20427509e-02 6.41685925e-02 -3.60690986e-01 -7.01172001e-01 2.92113278e-01 -5.30644453e-01 -1.57779693e-01 2.10533277e-02 -7.96894892e-01 -4.36509833e-01 -1.66982986e-01 -1.44764675e-01 3.16606845e-01 5.04401581e-01 -1.91426646e-01 4.11260717e-01 -5.67592665e-01 -7.35182844e-03 -2.02247874e-01 4.20332989e-01 2.74203754e-01 9.59267787e-01 1.47875320e-02 -3.31719973e-02 -3.09222593e-02 7.76915050e-04 4.83918459e-02 -4.74040363e-02 -1.13536645e-02 2.91959869e-02 2.65162430e-02 -1.42906091e-02 8.75048568e-01 4.79743907e-01 
      </Eigenvectors>
    </Transform>
    <Transform Name="Gauss" FlatOrGauss="Flat">
      <Selection>
        <Input NInputs="7">
          <Input Type="Variable" Label="lol_2_v_length" Expression="lol_2_v_length"/>
          <Input Type="Variable" Label="lol_2_v_angle" Expression="lol_2_v_angle"/>
          <Input Type="Variable" Label="lol_2_v_type" Expression="lol_2_v_type"/>
          <Input Type="Variable" Label="lol_2_v_vtx_n_segs" Expression="lol_2_v_vtx_n_segs"/>
          <Input Type="Variable" Label="lol_2_v_energy" Expression="lol_2_v_energy"/>
          <Input Type="Variable" Label="lol_2_v_shower_main_length" Expression="lol_2_v_shower_main_length"/>
          <Input Type="Variable" Label="lol_2_v_flag_dir_weak" Expression="lol_2_v_flag_dir_weak"/>
        </Input>
        <Output NOutputs="7">
          <Output Type="Variable" Label="lol_2_v_length" Expression="lol_2_v_length"/>
          <Output Type="Variable" Label="lol_2_v_angle" Expression="lol_2_v_angle"/>
          <Output Type="Variable" Label="lol_2_v_type" Expression="lol_2_v_type"/>
          <Output Type="Variable" Label="lol_2_v_vtx_n_segs" Expression="lol_2_v_vtx_n_segs"/>
          <Output Type="Variable" Label="lol_2_v_energy" Expression="lol_2_v_energy"/>
          <Output Type="Variable" Label="lol_2_v_shower_main_length" Expression="lol_2_v_shower_main_length"/>
          <Output Type="Variable" Label="lol_2_v_flag_dir_weak" Expression="lol_2_v_flag_dir_weak"/>
        </Output>
      </Selection>
      <Variable VarIndex="0">
        <CumulativePDF_cls0>
          <PDF Name="GaussTransform var0 cls0" MinNSmooth="0" MaxNSmooth="0" InterpolMethod="1" KDE_type="0" KDE_iter="1" KDE_border="1" KDE_finefactor="0.0000000000000000e+00">
            <Histogram Name="Cumulative_Var0_cls0_original" NBins="1852" XMin="-1.5955130577087402e+01" XMax="5.4274754524230957e+00" HasEquidistantBins="0">
              4.75362671e-04 9.80482553e-04 1.50255277e-03 2.02998891e-03 2.55933334e-03 3.09009594e-03 3.62200150e-03 4.15447867e-03 4.68695583e-03 5.21943253e-03 5.75325126e-03 6.28975267e-03 6.82761334e-03 7.36550987e-03 7.90099427e-03 8.43065139e-03 8.95563234e-03 9.48098209e-03 1.00104492e-02 1.05424570e-02 1.10726664e-02 1.15994150e-02 1.21247536e-02 1.26515478e-02 1.31806787e-02 1.37110623e-02 1.42416181e-02 1.47719905e-02 1.53007144e-02 1.58260856e-02 1.63492821e-02 1.68735031e-02 1.74001511e-02 1.79279037e-02 1.84556581e-02 1.89842004e-02 1.95143204e-02 2.00452283e-02 2.05761380e-02 2.11070459e-02 2.16379557e-02 2.21688636e-02 2.26983149e-02 2.32248548e-02 2.37533879e-02 2.42888164e-02 2.48259250e-02 2.53594965e-02 2.58912966e-02 2.64230985e-02 2.69549005e-02 2.74874121e-02 2.80213505e-02 2.85567418e-02 2.90936232e-02 2.96305045e-02 3.01658958e-02 3.06987967e-02 3.12282033e-02 3.17558609e-02 3.22835185e-02 3.28111760e-02 3.33398730e-02 3.38706449e-02 3.44024599e-02 3.49349678e-02 3.54695022e-02 3.60059962e-02 3.65431309e-02 3.70807834e-02 3.76194865e-02 3.81578095e-02 3.86943221e-02 3.92299294e-02 3.97649445e-02 4.02987711e-02 4.08320017e-02 4.13644426e-02 4.18952890e-02 4.24253419e-02 4.29553948e-02 4.34844568e-02 4.40111570e-02 4.45367284e-02 4.50647362e-02 4.55967635e-02 4.61306795e-02 4.66634817e-02 4.71934676e-02 4.77213115e-02 4.82486598e-02 4.87760380e-02 4.93035689e-02 4.98312339e-02 5.03588952e-02 5.08859605e-02 5.14118224e-02 5.19368052e-02 5.24612144e-02 5.29857315e-02 5.35110384e-02 5.40380329e-02 5.45677207e-02 5.50988615e-02 5.56298532e-02 5.61605208e-02 5.66910580e-02 5.72206527e-02 5.77483587e-02 5.82751222e-02 5.88018857e-02 5.93312196e-02 5.98669685e-02 6.04097471e-02 6.09577484e-02 6.15054108e-02 6.20443262e-02 6.25729635e-02 6.30977079e-02 6.36224523e-02 6.41476959e-02 6.46749660e-02 6.52090088e-02 6.57525137e-02 6.63002357e-02 6.68479502e-02 6.73924163e-02 6.79303780e-02 6.84622526e-02 6.89876080e-02 6.95096180e-02 7.00362995e-02 7.05704987e-02 7.11078644e-02 7.16452301e-02 7.21809566e-02 7.27125183e-02 7.32407272e-02 7.37692714e-02 7.43001401e-02 7.48322457e-02 7.53639787e-02 7.58948401e-02 7.64252841e-02 7.69557282e-02 7.74862915e-02 7.80171007e-02 7.85480216e-02 7.90789500e-02 7.96097144e-02 8.01401734e-02 8.06704760e-02 8.12007710e-02 8.17312226e-02 8.22619870e-02 8.27929080e-02 8.33250657e-02 8.38597119e-02 8.43966454e-02 8.49356651e-02 8.54755566e-02 8.60150829e-02 8.65516886e-02 8.70804414e-02 8.76014978e-02 8.81207213e-02 8.86456445e-02 8.91794935e-02 8.97173062e-02 9.02551189e-02 9.07929242e-02 9.13307145e-02 9.18684900e-02 9.24062654e-02 9.29438397e-02 9.34810191e-02 9.40161943e-02 9.45474878e-02 9.50775966e-02 9.56125334e-02 9.61548910e-02 9.67009291e-02 9.72447693e-02 9.77801085e-02 9.83045921e-02 9.88240317e-02 9.93421301e-02 9.98586938e-02 1.00375280e-01 1.00892417e-01 1.01409554e-01 1.01932660e-01 1.02469943e-01 1.03017658e-01 1.03564598e-01 1.04105547e-01 1.04642995e-01 1.05179444e-01 1.05713658e-01 1.06243052e-01 1.06768079e-01 1.07293271e-01 1.07821345e-01 1.08350612e-01 1.08879417e-01 1.09407663e-01 1.09935232e-01 1.10462464e-01 1.10989697e-01 1.11516930e-01 1.12044476e-01 1.12574428e-01 1.13108188e-01 1.13643497e-01 1.14177570e-01 1.14709251e-01 1.15240648e-01 1.15775228e-01 1.16311349e-01 1.16843082e-01 1.17368445e-01 1.17891252e-01 1.18414067e-01 1.18950322e-01 1.19513467e-01 1.20090067e-01 1.20666668e-01 1.21243261e-01 1.21820502e-01 1.22390784e-01 1.22945234e-01 1.23491451e-01 1.24034122e-01 1.24568000e-01 1.25094995e-01 1.25622675e-01 1.26154959e-01 1.26689211e-01 1.27222002e-01 1.27752960e-01 1.28283545e-01 1.28815353e-01 1.29348740e-01 1.29882604e-01 1.30415961e-01 1.30949065e-01 1.31482586e-01 1.32016793e-01 1.32551283e-01 1.33084118e-01 1.33613646e-01 1.34142160e-01 1.34674296e-01 1.35212049e-01 1.35752827e-01 1.36291429e-01 1.36825576e-01 1.37357786e-01 1.37889981e-01 1.38423443e-01 1.38959378e-01 1.39496580e-01 1.40033767e-01 1.40570968e-01 1.41106755e-01 1.41639709e-01 1.42171249e-01 1.42702803e-01 1.43234342e-01 1.43768027e-01 1.44306555e-01 1.44847497e-01 1.45384714e-01 1.45916089e-01 1.46444499e-01 1.46971866e-01 1.47498712e-01 1.48025125e-01 1.48552567e-01 1.49084002e-01 1.49617732e-01 1.50148481e-01 1.50674462e-01 1.51198760e-01 1.51723623e-01 1.52248785e-01 1.52776122e-01 1.53308421e-01 1.53843775e-01 1.54377475e-01 1.54907674e-01 1.55436188e-01 1.55964553e-01 1.56492814e-01 1.57021075e-01 1.57548606e-01 1.58074066e-01 1.58595443e-01 1.59111619e-01 1.59626782e-01 1.60148904e-01 1.60680458e-01 1.61215916e-01 1.61751360e-01 1.62286788e-01 1.62821129e-01 1.63353398e-01 1.63884401e-01 1.64414912e-01 1.64945096e-01 1.65475205e-01 1.66005388e-01 1.66534483e-01 1.67061061e-01 1.67586938e-01 1.68115377e-01 1.68647975e-01 1.69183984e-01 1.69719741e-01 1.70250341e-01 1.70774594e-01 1.71296313e-01 1.71818048e-01 1.72343567e-01 1.72876701e-01 1.73413634e-01 1.73950568e-01 1.74487501e-01 1.75023481e-01 1.75557584e-01 1.76090732e-01 1.76623881e-01 1.77157775e-01 1.77693173e-01 1.78229302e-01 1.78766742e-01 1.79307133e-01 1.79848954e-01 1.80388391e-01 1.80924177e-01 1.81458414e-01 1.81991830e-01 1.82523564e-01 1.83054477e-01 1.83585376e-01 1.84116289e-01 1.84647188e-01 1.85178608e-01 1.85711026e-01 1.86244890e-01 1.86780632e-01 1.87317312e-01 1.87853992e-01 1.88390672e-01 1.88926309e-01 1.89459667e-01 1.89991534e-01 1.90523207e-01 1.91052526e-01 1.91577196e-01 1.92102686e-01 1.92634538e-01 1.93169549e-01 1.93704560e-01 1.94239587e-01 1.94774359e-01 1.95308641e-01 1.95842698e-01 1.96373656e-01 1.96897060e-01 1.97415084e-01 1.97934717e-01 1.98459432e-01 1.98986754e-01 1.99512959e-01 2.00036988e-01 2.00560167e-01 2.01083466e-01 2.01607406e-01 2.02132508e-01 2.02664018e-01 2.03208998e-01 2.03761593e-01 2.04306573e-01 2.04838261e-01 2.05364540e-01 2.05891460e-01 2.06418663e-01 2.06946179e-01 2.07474306e-01 2.08002731e-01 2.08531156e-01 2.09059581e-01 2.09588006e-01 2.10116416e-01 2.10646898e-01 2.11182803e-01 2.11723164e-01 2.12262735e-01 2.12796122e-01 2.13322833e-01 2.13847548e-01 2.14371756e-01 2.14895755e-01 2.15420514e-01 2.15944111e-01 2.16466129e-01 2.16987610e-01 2.17508808e-01 2.18030021e-01 2.18554854e-01 2.19088390e-01 2.19627336e-01 2.20161825e-01 2.20684677e-01 2.21199691e-01 2.21719906e-01 2.22254768e-01 2.22802579e-01 2.23353490e-01 2.23898217e-01 2.24433973e-01 2.24965692e-01 2.25496247e-01 2.26024494e-01 2.26597622e-01 2.27262810e-01 2.27930695e-01 2.28511915e-01 2.29049891e-01 2.29588062e-01 2.30122879e-01 2.30650783e-01 2.31174842e-01 2.31698066e-01 2.32221067e-01 2.32745096e-01 2.33270451e-01 2.33796328e-01 2.34322205e-01 2.34849289e-01 2.35379174e-01 2.35910624e-01 2.36440361e-01 2.36966789e-01 2.37491608e-01 2.38018185e-01 2.38547757e-01 2.39078626e-01 2.39611343e-01 2.40148887e-01 2.40690023e-01 2.41229504e-01 2.41764739e-01 2.42298782e-01 2.42834225e-01 2.43369684e-01 2.43903756e-01 2.44438604e-01 2.44976431e-01 2.45515764e-01 2.46055141e-01 2.46600315e-01 2.47156993e-01 2.47712195e-01 2.48252898e-01 2.48795703e-01 2.49357194e-01 2.49939144e-01 2.50544310e-01 2.51153469e-01 2.51730084e-01 2.52269596e-01 2.52800345e-01 2.53335744e-01 2.53869504e-01 2.54398972e-01 2.54928797e-01 2.55463690e-01 2.55999804e-01 2.56522924e-01 2.57023215e-01 2.57523119e-01 2.58071244e-01 2.58693784e-01 2.59363234e-01 2.60025054e-01 2.60635525e-01 2.61192113e-01 2.61723071e-01 2.62248427e-01 2.62777895e-01 2.63311505e-01 2.63845086e-01 2.64378667e-01 2.64912277e-01 2.65449464e-01 2.65993893e-01 2.66534746e-01 2.67061293e-01 2.67587155e-01 2.68125951e-01 2.68671244e-01 2.69216508e-01 2.69784302e-01 2.70404249e-01 2.71052867e-01 2.71668792e-01 2.72227973e-01 2.72760481e-01 2.73291409e-01 2.73822337e-01 2.74353266e-01 2.74884939e-01 2.75418103e-01 2.75952041e-01 2.76486725e-01 2.77022958e-01 2.77559966e-01 2.78096974e-01 2.78635323e-01 2.79176354e-01 2.79718697e-01 2.80261070e-01 2.80803442e-01 2.81350195e-01 2.81905651e-01 2.82465488e-01 2.83025295e-01 2.83582956e-01 2.84136295e-01 2.84687489e-01 2.85238653e-01 2.85786569e-01 2.86327928e-01 2.86864370e-01 2.87396610e-01 2.87925422e-01 2.88453728e-01 2.88985401e-01 2.89523065e-01 2.90063858e-01 2.90601850e-01 2.91134089e-01 2.91662842e-01 2.92190939e-01 2.92718530e-01 2.93245584e-01 2.93773532e-01 2.94303149e-01 2.94833332e-01 2.95363188e-01 2.95891136e-01 2.96415657e-01 2.96938479e-01 2.97455877e-01 2.97959775e-01 2.98453033e-01 2.98946619e-01 2.99450666e-01 2.99970597e-01 3.00504953e-01 3.01048279e-01 3.01593095e-01 3.02130342e-01 3.02646667e-01 3.03137779e-01 3.03618431e-01 3.04099113e-01 3.04624587e-01 3.05239707e-01 3.05899680e-01 3.06559622e-01 3.07187647e-01 3.07751715e-01 3.08283865e-01 3.08815986e-01 3.09348851e-01 3.09883147e-01 3.10418338e-01 3.10955763e-01 3.11497241e-01 3.12040657e-01 3.12595129e-01 3.13171715e-01 3.13759387e-01 3.14347029e-01 3.14924330e-01 3.15480888e-01 3.16027105e-01 3.16573322e-01 3.17119509e-01 3.17663848e-01 3.18204671e-01 3.18746358e-01 3.19298863e-01 3.19867045e-01 3.20440352e-01 3.20999771e-01 3.21534455e-01 3.22055817e-01 3.22598428e-01 3.23185086e-01 3.23794663e-01 3.24382991e-01 3.24933410e-01 3.25466990e-01 3.25999439e-01 3.26531351e-01 3.27063262e-01 3.27595174e-01 3.28127086e-01 3.28659117e-01 3.29191148e-01 3.29723179e-01 3.30251098e-01 3.30770731e-01 3.31286252e-01 3.31801742e-01 3.32319915e-01 3.32845479e-01 3.33377928e-01 3.33910257e-01 3.34438294e-01 3.34964216e-01 3.35491657e-01 3.36022258e-01 3.36558521e-01 3.37104529e-01 3.37656885e-01 3.38205457e-01 3.38744849e-01 3.39279205e-01 3.39816391e-01 3.40358257e-01 3.40900391e-01 3.41440290e-01 3.41978878e-01 3.42516899e-01 3.43054622e-01 3.43592346e-01 3.44130099e-01 3.44665915e-01 3.45197946e-01 3.45728070e-01 3.46258223e-01 3.46788347e-01 3.47319007e-01 3.47850770e-01 3.48383039e-01 3.48915309e-01 3.49447578e-01 3.49980950e-01 3.50512832e-01 3.51036847e-01 3.51554424e-01 3.52073789e-01 3.52598667e-01 3.53124946e-01 3.53649020e-01 3.54170442e-01 3.54694784e-01 3.55232686e-01 3.55781943e-01 3.56327444e-01 3.56859118e-01 3.57381821e-01 3.57908398e-01 3.58444422e-01 3.58984828e-01 3.59525204e-01 3.60065341e-01 3.60605001e-01 3.61142457e-01 3.61675978e-01 3.62206072e-01 3.62732708e-01 3.63257319e-01 3.63784134e-01 3.64315063e-01 3.64848107e-01 3.65380853e-01 3.65912855e-01 3.66444319e-01 3.66975665e-01 3.67507577e-01 3.68039846e-01 3.68571073e-01 3.69100660e-01 3.69629204e-01 3.70157063e-01 3.70684624e-01 3.71210903e-01 3.71734649e-01 3.72257113e-01 3.72779578e-01 3.73298347e-01 3.73809695e-01 3.74317348e-01 3.74825031e-01 3.75340313e-01 3.75870913e-01 3.76409143e-01 3.76947373e-01 3.77484530e-01 3.78019571e-01 3.78550172e-01 3.79073977e-01 3.79594386e-01 3.80114764e-01 3.80659491e-01 3.81252795e-01 3.81870389e-01 3.82488012e-01 3.83085221e-01 3.83641720e-01 3.84177804e-01 3.84713918e-01 3.85250002e-01 3.85786116e-01 3.86336952e-01 3.86922568e-01 3.87529373e-01 3.88119638e-01 3.88678640e-01 3.89224052e-01 3.89769495e-01 3.90314907e-01 3.90862972e-01 3.91417444e-01 3.91974926e-01 3.92524064e-01 3.93060118e-01 3.93594146e-01 3.94142866e-01 3.94712508e-01 3.95293742e-01 3.95870745e-01 3.96436185e-01 3.96996081e-01 3.97549093e-01 3.98088425e-01 3.98620874e-01 3.99153352e-01 3.99685800e-01 4.00218248e-01 4.00753200e-01 4.01293069e-01 4.01835412e-01 4.02377725e-01 4.02927667e-01 4.03496623e-01 4.04079676e-01 4.04657811e-01 4.05220658e-01 4.05776531e-01 4.06338513e-01 4.06908780e-01 4.07482088e-01 4.08055276e-01 4.08621281e-01 4.09173191e-01 4.09717143e-01 4.10259128e-01 4.10814047e-01 4.11402076e-01 4.12011713e-01 4.12610173e-01 4.13184524e-01 4.13748384e-01 4.14306998e-01 4.14855123e-01 4.15395916e-01 4.15932477e-01 4.16466862e-01 4.17001277e-01 4.17535663e-01 4.18070078e-01 4.18605596e-01 4.19143796e-01 4.19683516e-01 4.20219928e-01 4.20749962e-01 4.21276718e-01 4.21803266e-01 4.22329515e-01 4.22855198e-01 4.23380584e-01 4.23905998e-01 4.24431384e-01 4.24958676e-01 4.25489753e-01 4.26030159e-01 4.26585495e-01 4.27139491e-01 4.27675843e-01 4.28202868e-01 4.28728849e-01 4.29254353e-01 4.29809123e-01 4.30431545e-01 4.31102425e-01 4.31752592e-01 4.32324350e-01 4.32833523e-01 4.33345467e-01 4.33886141e-01 4.34436321e-01 4.34988767e-01 4.35544401e-01 4.36099410e-01 4.36646312e-01 4.37174916e-01 4.37694937e-01 4.38230008e-01 4.38790709e-01 4.39363211e-01 4.39923286e-01 4.40462172e-01 4.40989494e-01 4.41511780e-01 4.42034245e-01 4.42569226e-01 4.43122923e-01 4.43687171e-01 4.44244772e-01 4.44786161e-01 4.45321590e-01 4.45872247e-01 4.46448147e-01 4.47036773e-01 4.47621077e-01 4.48196948e-01 4.48765427e-01 4.49326009e-01 4.49884981e-01 4.50456083e-01 4.51045364e-01 4.51640218e-01 4.52215821e-01 4.52757865e-01 4.53279287e-01 4.53788817e-01 4.54281926e-01 4.54758048e-01 4.55213398e-01 4.55664307e-01 4.56157684e-01 4.56714958e-01 4.57304537e-01 4.57882851e-01 4.58432674e-01 4.58968759e-01 4.59504813e-01 4.60064620e-01 4.60686177e-01 4.61362213e-01 4.62046474e-01 4.62682903e-01 4.63250309e-01 4.63788360e-01 4.64326411e-01 4.64864463e-01 4.65399146e-01 4.65927035e-01 4.66451555e-01 4.66976076e-01 4.67504740e-01 4.68041688e-01 4.68582809e-01 4.69123930e-01 4.69665080e-01 4.70206201e-01 4.70748514e-01 4.71293211e-01 4.71839070e-01 4.72384959e-01 4.72931027e-01 4.73475099e-01 4.74017978e-01 4.74570572e-01 4.75138038e-01 4.75709379e-01 4.76267487e-01 4.76806462e-01 4.77338731e-01 4.77874786e-01 4.78413075e-01 4.78951365e-01 4.79489237e-01 4.80026364e-01 4.80563134e-01 4.81099874e-01 4.81648892e-01 4.82222438e-01 4.82810289e-01 4.83402163e-01 4.83980954e-01 4.84522492e-01 4.85035866e-01 4.85553414e-01 4.86089259e-01 4.86632168e-01 4.87174064e-01 4.87715960e-01 4.88257855e-01 4.88798141e-01 4.89334822e-01 4.89870071e-01 4.90409404e-01 4.90955621e-01 4.91505086e-01 4.92050976e-01 4.92583305e-01 4.93095517e-01 4.93596077e-01 4.94100988e-01 4.94621426e-01 4.95156318e-01 4.95696008e-01 4.96235698e-01 4.96775389e-01 4.97315079e-01 4.97857302e-01 4.98404622e-01 4.98957723e-01 4.99517322e-01 5.00090599e-01 5.00684738e-01 5.01289248e-01 5.01903117e-01 5.02535701e-01 5.03181934e-01 5.03836751e-01 5.04472256e-01 5.05050898e-01 5.05588412e-01 5.06134689e-01 5.06714106e-01 5.07303238e-01 5.07867754e-01 5.08405387e-01 5.08936405e-01 5.09472430e-01 5.10009170e-01 5.10539174e-01 5.11060655e-01 5.11580288e-01 5.12107134e-01 5.12643397e-01 5.13183415e-01 5.13723433e-01 5.14263391e-01 5.14810383e-01 5.15374303e-01 5.15950203e-01 5.16521156e-01 5.17078876e-01 5.17631352e-01 5.18189192e-01 5.18754303e-01 5.19314885e-01 5.19858897e-01 5.20395041e-01 5.20945311e-01 5.21523416e-01 5.22117317e-01 5.22700608e-01 5.23256898e-01 5.23788154e-01 5.24306893e-01 5.24828613e-01 5.25360823e-01 5.25898039e-01 5.26435196e-01 5.26970208e-01 5.27500093e-01 5.28026462e-01 5.28553307e-01 5.29081583e-01 5.29619694e-01 5.30176520e-01 5.30742764e-01 5.31309426e-01 5.31877041e-01 5.32443225e-01 5.32999992e-01 5.33544540e-01 5.34084141e-01 5.34622550e-01 5.35157323e-01 5.35689592e-01 5.36221921e-01 5.36753297e-01 5.37283838e-01 5.37813842e-01 5.38343251e-01 5.38872540e-01 5.39401829e-01 5.39932251e-01 5.40478110e-01 5.41057706e-01 5.41664124e-01 5.42272151e-01 5.42872071e-01 5.43470681e-01 5.44058502e-01 5.44623494e-01 5.45178056e-01 5.45727074e-01 5.46263397e-01 5.46791136e-01 5.47324479e-01 5.47873497e-01 5.48430264e-01 5.48977137e-01 5.49509048e-01 5.50035000e-01 5.50560713e-01 5.51085889e-01 5.51610768e-01 5.52135706e-01 5.52661300e-01 5.53188264e-01 5.53715885e-01 5.54242015e-01 5.54765224e-01 5.55297613e-01 5.55855274e-01 5.56427777e-01 5.56987107e-01 5.57522476e-01 5.58047533e-01 5.58572590e-01 5.59097648e-01 5.59625924e-01 5.60160577e-01 5.60706735e-01 5.61273098e-01 5.61853290e-01 5.62427282e-01 5.62980235e-01 5.63511789e-01 5.64036846e-01 5.64579427e-01 5.65173686e-01 5.65837741e-01 5.66537917e-01 5.67210913e-01 5.67831755e-01 5.68419337e-01 5.68985641e-01 5.69538951e-01 5.70087671e-01 5.70634067e-01 5.71176529e-01 5.71718037e-01 5.72269082e-01 5.72837472e-01 5.73428094e-01 5.74023724e-01 5.74594140e-01 5.75135767e-01 5.75660825e-01 5.76172590e-01 5.76680183e-01 5.77203691e-01 5.77748775e-01 5.78301549e-01 5.78852117e-01 5.79401612e-01 5.79949081e-01 5.80492377e-01 5.81033587e-01 5.81574857e-01 5.82126498e-01 5.82702637e-01 5.83293080e-01 5.83870530e-01 5.84419966e-01 5.84950686e-01 5.85483372e-01 5.86027622e-01 5.86577356e-01 5.87127149e-01 5.87676883e-01 5.88227987e-01 5.88781893e-01 5.89337111e-01 5.89892328e-01 5.90447605e-01 5.91007233e-01 5.91575801e-01 5.92148781e-01 5.92721701e-01 5.93294680e-01 5.93865991e-01 5.94430566e-01 5.94986796e-01 5.95534325e-01 5.96071005e-01 5.96602738e-01 5.97135186e-01 5.97668052e-01 5.98198891e-01 5.98725557e-01 5.99235237e-01 5.99714696e-01 6.00195944e-01 6.00777447e-01 6.01532459e-01 6.02384388e-01 6.03166044e-01 6.03797674e-01 6.04340494e-01 6.04861319e-01 6.05371118e-01 6.05876565e-01 6.06388688e-01 6.06911659e-01 6.07439101e-01 6.07966542e-01 6.08496726e-01 6.09032333e-01 6.09570622e-01 6.10108972e-01 6.10647261e-01 6.11182094e-01 6.11709952e-01 6.12234354e-01 6.12758756e-01 6.13288701e-01 6.13832057e-01 6.14385784e-01 6.14938676e-01 6.15481377e-01 6.16013885e-01 6.16543114e-01 6.17072344e-01 6.17601633e-01 6.18128538e-01 6.18650913e-01 6.19170964e-01 6.19691014e-01 6.20211065e-01 6.20747566e-01 6.21317089e-01 6.21903062e-01 6.22489095e-01 6.23075068e-01 6.23649180e-01 6.24199450e-01 6.24737859e-01 6.25276268e-01 6.25814795e-01 6.26353681e-01 6.26893103e-01 6.27433419e-01 6.27974153e-01 6.28514826e-01 6.29055560e-01 6.29596233e-01 6.30136073e-01 6.30674005e-01 6.31210983e-01 6.31748021e-01 6.32284999e-01 6.32819116e-01 6.33346379e-01 6.33869469e-01 6.34398043e-01 6.34941995e-01 6.35501742e-01 6.36068523e-01 6.36637866e-01 6.37214899e-01 6.37804568e-01 6.38400555e-01 6.38996542e-01 6.39592528e-01 6.40192628e-01 6.40787780e-01 6.41354442e-01 6.41897142e-01 6.42445147e-01 6.43011868e-01 6.43583655e-01 6.44148409e-01 6.44709051e-01 6.45267546e-01 6.45819724e-01 6.46363556e-01 6.46903574e-01 6.47443354e-01 6.47980869e-01 6.48513615e-01 6.49044037e-01 6.49574399e-01 6.50105298e-01 6.50655150e-01 6.51244402e-01 6.51851952e-01 6.52433932e-01 6.52975678e-01 6.53500557e-01 6.54026628e-01 6.54557049e-01 6.55095220e-01 6.55648232e-01 6.56227529e-01 6.56823814e-01 6.57410204e-01 6.57975674e-01 6.58531904e-01 6.59088135e-01 6.59644365e-01 6.60197735e-01 6.60743833e-01 6.61284268e-01 6.61826193e-01 6.62373126e-01 6.62925243e-01 6.63483083e-01 6.64040327e-01 6.64590716e-01 6.65134966e-01 6.65673554e-01 6.66208565e-01 6.66742444e-01 6.67275965e-01 6.67809248e-01 6.68341994e-01 6.68874443e-01 6.69406950e-01 6.69938385e-01 6.70467675e-01 6.71000063e-01 6.71549439e-01 6.72120035e-01 6.72696292e-01 6.73267007e-01 6.73832953e-01 6.74394667e-01 6.74954295e-01 6.75513983e-01 6.76073611e-01 6.76626563e-01 6.77166104e-01 6.77698910e-01 6.78231776e-01 6.78764641e-01 6.79300010e-01 6.79841161e-01 6.80385351e-01 6.80926383e-01 6.81460917e-01 6.81990981e-01 6.82521105e-01 6.83053672e-01 6.83588207e-01 6.84131980e-01 6.84691906e-01 6.85260177e-01 6.85843945e-01 6.86462760e-01 6.87112033e-01 6.87769592e-01 6.88414991e-01 6.89019382e-01 6.89561605e-01 6.90069675e-01 6.90582991e-01 6.91114247e-01 6.91658854e-01 6.92204356e-01 6.92745328e-01 6.93283975e-01 6.93822682e-01 6.94361389e-01 6.94909871e-01 6.95477903e-01 6.96055770e-01 6.96633577e-01 6.97211385e-01 6.97789252e-01 6.98356032e-01 6.98903203e-01 6.99443817e-01 6.99986279e-01 7.00528562e-01 7.01070786e-01 7.01613009e-01 7.02153563e-01 7.02689886e-01 7.03220248e-01 7.03743756e-01 7.04264939e-01 7.04793572e-01 7.05333233e-01 7.05877542e-01 7.06421852e-01 7.06966162e-01 7.07510471e-01 7.08052278e-01 7.08589137e-01 7.09123433e-01 7.09657788e-01 7.10192144e-01 7.10727572e-01 7.11265385e-01 7.11804271e-01 7.12343216e-01 7.12881505e-01 7.13418603e-01 7.13955104e-01 7.14491665e-01 7.15028167e-01 7.15564668e-01 7.16100872e-01 7.16636419e-01 7.17171371e-01 7.17704773e-01 7.18235254e-01 7.18764186e-01 7.19292521e-01 7.19819546e-01 7.20345974e-01 7.20872402e-01 7.21412301e-01 7.21982837e-01 7.22569525e-01 7.23137081e-01 7.23672867e-01 7.24196136e-01 7.24721432e-01 7.25247979e-01 7.25775123e-01 7.26303577e-01 7.26834297e-01 7.27366090e-01 7.27898240e-01 7.28431106e-01 7.28964329e-01 7.29497552e-01 7.30030775e-01 7.30562747e-01 7.31092155e-01 7.31621325e-01 7.32154191e-01 7.32692361e-01 7.33232915e-01 7.33768404e-01 7.34292686e-01 7.34810948e-01 7.35334992e-01 7.35869229e-01 7.36407816e-01 7.36946464e-01 7.37485409e-01 7.38024235e-01 7.38560855e-01 7.39094198e-01 7.39625454e-01 7.40155816e-01 7.40685523e-01 7.41222501e-01 7.41776884e-01 7.42341161e-01 7.42896676e-01 7.43434072e-01 7.43960559e-01 7.44491398e-01 7.45034277e-01 7.45583773e-01 7.46130526e-01 7.46672213e-01 7.47212112e-01 7.47752011e-01 7.48290777e-01 7.48826444e-01 7.49360323e-01 7.49894142e-01 7.50427961e-01 7.50961840e-01 7.51495123e-01 7.52023935e-01 7.52544105e-01 7.53059506e-01 7.53579199e-01 7.54107416e-01 7.54640579e-01 7.55172908e-01 7.55700588e-01 7.56222963e-01 7.56744087e-01 7.57270217e-01 7.57803082e-01 7.58338392e-01 7.58873582e-01 7.59408772e-01 7.59943962e-01 7.60482669e-01 7.61031568e-01 7.61591017e-01 7.62152970e-01 7.62706280e-01 7.63247073e-01 7.63782620e-01 7.64318168e-01 7.64853716e-01 7.65389264e-01 7.65924633e-01 7.66459584e-01 7.66994357e-01 7.67529130e-01 7.68063843e-01 7.68598616e-01 7.69132197e-01 7.69663334e-01 7.70193279e-01 7.70723224e-01 7.71253169e-01 7.71785676e-01 7.72325397e-01 7.72871971e-01 7.73419917e-01 7.73962021e-01 7.74495840e-01 7.75026202e-01 7.75556564e-01 7.76087105e-01 7.76618063e-01 7.77150691e-01 7.77686119e-01 7.78222978e-01 7.78759837e-01 7.79296398e-01 7.79832363e-01 7.80365705e-01 7.80895591e-01 7.81424880e-01 7.81954467e-01 7.82483697e-01 7.83012927e-01 7.83542216e-01 7.84071803e-01 7.84601510e-01 7.85130084e-01 7.85655677e-01 7.86178648e-01 7.86702096e-01 7.87229180e-01 7.87759662e-01 7.88290501e-01 7.88820744e-01 7.89351344e-01 7.89883435e-01 7.90417731e-01 7.90953279e-01 7.91489065e-01 7.92024851e-01 7.92561054e-01 7.93098390e-01 7.93636382e-01 7.94174492e-01 7.94712603e-01 7.95250177e-01 7.95786679e-01 7.96322763e-01 7.96855807e-01 7.97381818e-01 7.97903240e-01 7.98426867e-01 7.98955619e-01 7.99486578e-01 8.00017595e-01 8.00548375e-01 8.01078379e-01 8.01607251e-01 8.02135825e-01 8.02664638e-01 8.03193569e-01 8.03724349e-01 8.04259002e-01 8.04795563e-01 8.05332124e-01 8.05868447e-01 8.06404352e-01 8.06939960e-01 8.07475388e-01 8.08009923e-01 8.08541715e-01 8.09071362e-01 8.09601784e-01 8.10131907e-01 8.10661018e-01 8.11190069e-01 8.11719179e-01 8.12248290e-01 8.12777340e-01 8.13307405e-01 8.13839197e-01 8.14372003e-01 8.14904749e-01 8.15437496e-01 8.15970242e-01 8.16502988e-01 8.17035615e-01 8.17568064e-01 8.18100214e-01 8.18632126e-01 8.19164097e-01 8.19696069e-01 8.20229888e-01 8.20769489e-01 8.21315050e-01 8.21861684e-01 8.22402358e-01 8.22933793e-01 8.23458970e-01 8.23984325e-01 8.24513435e-01 8.25044513e-01 8.25575769e-01 8.26107264e-01 8.26640189e-01 8.27175617e-01 8.27712238e-01 8.28248918e-01 8.28784287e-01 8.29317093e-01 8.29848588e-01 8.30379307e-01 8.30907404e-01 8.31432998e-01 8.31958950e-01 8.32487464e-01 8.33018124e-01 8.33549321e-01 8.34080577e-01 8.34611773e-01 8.35143030e-01 8.35675001e-01 8.36208582e-01 8.36742878e-01 8.37277234e-01 8.37811768e-01 8.38346660e-01 8.38880897e-01 8.39413047e-01 8.39943886e-01 8.40475619e-01 8.41009021e-01 8.41543436e-01 8.42078209e-01 8.42612147e-01 8.43143880e-01 8.43674421e-01 8.44206452e-01 8.44741464e-01 8.45277846e-01 8.45814228e-01 8.46350610e-01 8.46886992e-01 8.47421348e-01 8.47951591e-01 8.48479807e-01 8.49007964e-01 8.49536180e-01 8.50064337e-01 8.50594223e-01 8.51127326e-01 8.51662099e-01 8.52196813e-01 8.52731586e-01 8.53266358e-01 8.53800058e-01 8.54331613e-01 8.54862154e-01 8.55392694e-01 8.55923176e-01 8.56455326e-01 8.56990814e-01 8.57528389e-01 8.58066142e-01 8.58603835e-01 8.59140456e-01 8.59673202e-01 8.60201061e-01 8.60727310e-01 8.61257851e-01 8.61795306e-01 8.62336218e-01 8.62874150e-01 8.63406539e-01 8.63936543e-01 8.64466608e-01 8.64996791e-01 8.65527451e-01 8.66058588e-01 8.66590142e-01 8.67121577e-01 8.67653310e-01 8.68186057e-01 8.68720055e-01 8.69254768e-01 8.69789481e-01 8.70324135e-01 8.70858848e-01 8.71393323e-01 8.71925175e-01 8.72452199e-01 8.72977018e-01 8.73501837e-01 8.74028206e-01 8.74557674e-01 8.75088692e-01 8.75619769e-01 8.76150787e-01 8.76682937e-01 8.77217352e-01 8.77752900e-01 8.78288448e-01 8.78823936e-01 8.79359484e-01 8.79894972e-01 8.80430639e-01 8.80966246e-01 8.81502807e-01 8.82042468e-01 8.82583737e-01 8.83121669e-01 8.83653820e-01 8.84182334e-01 8.84709358e-01 8.85236323e-01 8.85764003e-01 8.86294127e-01 8.86828184e-01 8.87364268e-01 8.87900770e-01 8.88438165e-01 8.88975143e-01 8.89510393e-01 8.90044272e-01 8.90576184e-01 8.91105533e-01 8.91633093e-01 8.92159164e-01 8.92684519e-01 8.93209875e-01 8.93734753e-01 8.94257963e-01 8.94779563e-01 8.95301700e-01 8.95826817e-01 8.96355450e-01 8.96886408e-01 8.97419214e-01 8.97952557e-01 8.98485422e-01 8.99017990e-01 8.99550557e-01 9.00083065e-01 9.00615394e-01 9.01146770e-01 9.01676714e-01 9.02205944e-01 9.02734935e-01 9.03262258e-01 9.03786480e-01 9.04310822e-01 9.04838383e-01 9.05367553e-01 9.05896723e-01 9.06426072e-01 9.06957030e-01 9.07490611e-01 9.08025444e-01 9.08560216e-01 9.09094989e-01 9.09627497e-01 9.10155356e-01 9.10680830e-01 9.11206603e-01 9.11732852e-01 9.12259400e-01 9.12785947e-01 9.13312435e-01 9.13839996e-01 9.14370775e-01 9.14905667e-01 9.15442169e-01 9.15975630e-01 9.16503429e-01 9.17028010e-01 9.17554319e-01 9.18084919e-01 9.18618500e-01 9.19153690e-01 9.19689834e-01 9.20226038e-01 9.20761347e-01 9.21295047e-01 9.21827674e-01 9.22360182e-01 9.22892988e-01 9.23427761e-01 9.23965812e-01 9.24504876e-01 9.25040364e-01 9.25570965e-01 9.26100075e-01 9.26632166e-01 9.27168489e-01 9.27706361e-01 9.28243518e-01 9.28780317e-01 9.29317176e-01 9.29851770e-01 9.30381835e-01 9.30909634e-01 9.31437433e-01 9.31965888e-01 9.32495475e-01 9.33025658e-01 9.33556795e-01 9.34088826e-01 9.34619963e-01 9.35150146e-01 9.35680330e-01 9.36210513e-01 9.36740696e-01 9.37270880e-01 9.37800884e-01 9.38330531e-01 9.38859582e-01 9.39387739e-01 9.39915419e-01 9.40443158e-01 9.40970838e-01 9.41497564e-01 9.42021549e-01 9.42545056e-01 9.43075776e-01 9.43616569e-01 9.44159746e-01 9.44696248e-01 9.45223451e-01 9.45744872e-01 9.46266711e-01 9.46793914e-01 9.47328568e-01 9.47869241e-01 9.48410809e-01 9.48947072e-01 9.49476421e-01 9.50002491e-01 9.50528622e-01 9.51056182e-01 9.51586664e-01 9.52119768e-01 9.52654362e-01 9.53189909e-01 9.53725457e-01 9.54259932e-01 9.54792857e-01 9.55323756e-01 9.55853462e-01 9.56382632e-01 9.56910908e-01 9.57438290e-01 9.57965136e-01 9.58491802e-01 9.59018469e-01 9.59545076e-01 9.60072458e-01 9.60602462e-01 9.61135626e-01 9.61670041e-01 9.62204516e-01 9.62738931e-01 9.63272333e-01 9.63803709e-01 9.64334190e-01 9.64864254e-01 9.65392292e-01 9.65917170e-01 9.66440678e-01 9.66966152e-01 9.67495799e-01 9.68028843e-01 9.68563676e-01 9.69099045e-01 9.69634533e-01 9.70171571e-01 9.70709920e-01 9.71248388e-01 9.71786797e-01 9.72325265e-01 9.72862244e-01 9.73395228e-01 9.73923743e-01 9.74449813e-01 9.74975288e-01 9.75500703e-01 9.76026177e-01 9.76553023e-01 9.77082729e-01 9.77613866e-01 9.78145003e-01 9.78676140e-01 9.79206920e-01 9.79736626e-01 9.80265319e-01 9.80793715e-01 9.81323004e-01 9.81853485e-01 9.82384384e-01 9.82915342e-01 9.83447790e-01 9.83983338e-01 9.84520495e-01 9.85057950e-01 9.85595286e-01 9.86131907e-01 9.86668289e-01 9.87204015e-01 9.87738311e-01 9.88271952e-01 9.88805592e-01 9.89339411e-01 9.89873469e-01 9.90407705e-01 9.90941942e-01 9.91476178e-01 9.92008805e-01 9.92538095e-01 9.93065536e-01 9.93592739e-01 9.94119763e-01 9.94646668e-01 9.95176017e-01 9.95711982e-01 9.96252954e-01 9.96793151e-01 9.97330189e-01 9.97865319e-01 9.98399377e-01 9.98932898e-01 9.99466479e-01 1.00000000e+00 
            </Histogram>
            <HistogramBinning NBins="1852">
              -1.59551306e+01 -1.59550304e+01 -7.93644810e+00 -6.60348797e+00 -6.01827621e+00 -5.68231153e+00 -5.32823515e+00 -5.12609720e+00 -4.95000696e+00 -4.77322435e+00 -4.62183285e+00 -4.49208260e+00 -4.39192867e+00 -4.26833534e+00 -4.20518017e+00 -4.08921576e+00 -3.98524022e+00 -3.90584850e+00 -3.83027744e+00 -3.76693225e+00 -3.67973471e+00 -3.60990381e+00 -3.55161977e+00 -3.49739313e+00 -3.44007611e+00 -3.37328172e+00 -3.32876229e+00 -3.28712225e+00 -3.24414587e+00 -3.20247722e+00 -3.15874624e+00 -3.11310172e+00 -3.07908106e+00 -3.03992748e+00 -2.99616981e+00 -2.94680595e+00 -2.91738749e+00 -2.87310791e+00 -2.83732939e+00 -2.79668689e+00 -2.75596809e+00 -2.72387171e+00 -2.68994498e+00 -2.66007280e+00 -2.63136172e+00 -2.60695291e+00 -2.58150649e+00 -2.55607224e+00 -2.53063345e+00 -2.49541831e+00 -2.46444345e+00 -2.44028997e+00 -2.41523933e+00 -2.39834833e+00 -2.37824917e+00 -2.35057116e+00 -2.32960224e+00 -2.30190778e+00 -2.27042532e+00 -2.25206518e+00 -2.23208833e+00 -2.21284175e+00 -2.19393349e+00 -2.17001915e+00 -2.15144253e+00 -2.13616943e+00 -2.12332463e+00 -2.10552478e+00 -2.08957100e+00 -2.07226753e+00 -2.04824090e+00 -2.02947211e+00 -2.00383902e+00 -1.98848617e+00 -1.97527695e+00 -1.96669674e+00 -1.95151770e+00 -1.93732262e+00 -1.91763532e+00 -1.90277970e+00 -1.88826799e+00 -1.87682962e+00 -1.86298943e+00 -1.85129333e+00 -1.83396566e+00 -1.82047582e+00 -1.80349326e+00 -1.78436458e+00 -1.77299750e+00 -1.75757778e+00 -1.74267673e+00 -1.73260117e+00 -1.72242057e+00 -1.70855916e+00 -1.69744980e+00 -1.68057203e+00 -1.67124546e+00 -1.65877628e+00 -1.64840448e+00 -1.63661230e+00 -1.62743318e+00 -1.61344004e+00 -1.60709846e+00 -1.59522581e+00 -1.58325076e+00 -1.57451439e+00 -1.56374323e+00 -1.55629873e+00 -1.54334033e+00 -1.53374267e+00 -1.52551317e+00 -1.51335490e+00 -1.49909067e+00 -1.48568249e+00 -1.47713530e+00 -1.46934533e+00 -1.45964718e+00 -1.45372188e+00 -1.44224048e+00 -1.43393087e+00 -1.42354286e+00 -1.41390979e+00 -1.40501463e+00 -1.39425063e+00 -1.38493657e+00 -1.37664676e+00 -1.36944020e+00 -1.35822213e+00 -1.35127902e+00 -1.34569800e+00 -1.33857143e+00 -1.33119857e+00 -1.32580221e+00 -1.31726229e+00 -1.30843377e+00 -1.30100524e+00 -1.29431331e+00 -1.28780890e+00 -1.28121769e+00 -1.27598774e+00 -1.26618016e+00 -1.25983858e+00 -1.25251746e+00 -1.24283743e+00 -1.23768675e+00 -1.22925043e+00 -1.22227788e+00 -1.21464503e+00 -1.20824337e+00 -1.20143723e+00 -1.19335341e+00 -1.18717694e+00 -1.18164587e+00 -1.17802417e+00 -1.17216170e+00 -1.16516387e+00 -1.15896726e+00 -1.15135145e+00 -1.14478528e+00 -1.14010680e+00 -1.13503706e+00 -1.12884736e+00 -1.12271678e+00 -1.11558318e+00 -1.10967135e+00 -1.10212648e+00 -1.10022223e+00 -1.09606171e+00 -1.09119999e+00 -1.08516002e+00 -1.08021724e+00 -1.07599068e+00 -1.06889486e+00 -1.06361067e+00 -1.06137264e+00 -1.05841768e+00 -1.05267131e+00 -1.04912865e+00 -1.04395783e+00 -1.03976524e+00 -1.03512967e+00 -1.02817607e+00 -1.02259219e+00 -1.01632488e+00 -1.01144958e+00 -1.00505829e+00 -1.00162673e+00 -9.96376514e-01 -9.91583467e-01 -9.89753723e-01 -9.85676527e-01 -9.82022166e-01 -9.79984522e-01 -9.75476444e-01 -9.70853388e-01 -9.66730118e-01 -9.62016463e-01 -9.57178473e-01 -9.53764975e-01 -9.52780902e-01 -9.46110070e-01 -9.42765117e-01 -9.38963115e-01 -9.34143841e-01 -9.29694474e-01 -9.25666809e-01 -9.21249688e-01 -9.17467237e-01 -9.15037155e-01 -9.10049856e-01 -9.06173348e-01 -9.02438700e-01 -8.98593366e-01 -8.93452942e-01 -8.90741527e-01 -8.88329208e-01 -8.85197937e-01 -8.81567955e-01 -8.78544629e-01 -8.74890447e-01 -8.71594429e-01 -8.66779804e-01 -8.61564100e-01 -8.57658803e-01 -8.54746759e-01 -8.50047290e-01 -8.46970499e-01 -8.44058514e-01 -8.40763628e-01 -8.37608755e-01 -8.34447503e-01 -8.30539763e-01 -8.27431738e-01 -8.22013855e-01 -8.19368064e-01 -8.16416204e-01 -8.14621985e-01 -8.10864210e-01 -8.07435036e-01 -8.02696228e-01 -7.99600065e-01 -7.96809137e-01 -7.96218097e-01 -7.93353260e-01 -7.90292680e-01 -7.87021518e-01 -7.83667147e-01 -7.80943155e-01 -7.77756810e-01 -7.74334669e-01 -7.70597279e-01 -7.69227028e-01 -7.66163409e-01 -7.62375772e-01 -7.60365963e-01 -7.56574333e-01 -7.53704190e-01 -7.51236081e-01 -7.49156117e-01 -7.46480227e-01 -7.43308663e-01 -7.41108179e-01 -7.39069521e-01 -7.36009538e-01 -7.33471990e-01 -7.30755448e-01 -7.29175508e-01 -7.26337731e-01 -7.24261224e-01 -7.21193433e-01 -7.19156981e-01 -7.16175139e-01 -7.14422226e-01 -7.12055802e-01 -7.10171640e-01 -7.08541989e-01 -7.06220031e-01 -7.03642249e-01 -7.00484395e-01 -6.97059691e-01 -6.95024490e-01 -6.92538202e-01 -6.90781295e-01 -6.88226879e-01 -6.85175538e-01 -6.82439983e-01 -6.78698421e-01 -6.77193403e-01 -6.74070239e-01 -6.72624946e-01 -6.70691848e-01 -6.68114305e-01 -6.65745020e-01 -6.62761569e-01 -6.61248803e-01 -6.58728838e-01 -6.57231450e-01 -6.54296339e-01 -6.52280033e-01 -6.49214923e-01 -6.47337735e-01 -6.45316899e-01 -6.42490327e-01 -6.39783144e-01 -6.37825012e-01 -6.35811269e-01 -6.33152962e-01 -6.31404221e-01 -6.28937542e-01 -6.26097679e-01 -6.22657299e-01 -6.19928062e-01 -6.17746592e-01 -6.15300059e-01 -6.12663865e-01 -6.09645367e-01 -6.06978059e-01 -6.04094207e-01 -6.01708531e-01 -5.99891603e-01 -5.97918689e-01 -5.95537722e-01 -5.93495965e-01 -5.91715455e-01 -5.89485824e-01 -5.87751329e-01 -5.86491227e-01 -5.83632946e-01 -5.82523823e-01 -5.79601228e-01 -5.77923357e-01 -5.75102627e-01 -5.73160648e-01 -5.70285141e-01 -5.68526030e-01 -5.66931725e-01 -5.64657390e-01 -5.63389122e-01 -5.60444415e-01 -5.58229506e-01 -5.56601107e-01 -5.54304719e-01 -5.51890433e-01 -5.51178813e-01 -5.49495637e-01 -5.48145652e-01 -5.45189261e-01 -5.43025374e-01 -5.41416168e-01 -5.38920403e-01 -5.36092639e-01 -5.32994092e-01 -5.31402290e-01 -5.29764175e-01 -5.28706491e-01 -5.27037621e-01 -5.24204731e-01 -5.21522701e-01 -5.17885804e-01 -5.16092598e-01 -5.14056385e-01 -5.11923790e-01 -5.09912431e-01 -5.07789314e-01 -5.06203353e-01 -5.04334211e-01 -5.02627969e-01 -5.00462711e-01 -4.98102576e-01 -4.96886015e-01 -4.95341569e-01 -4.93425459e-01 -4.92658675e-01 -4.90135342e-01 -4.88917530e-01 -4.86603767e-01 -4.85424548e-01 -4.83872503e-01 -4.82254982e-01 -4.79681849e-01 -4.78272200e-01 -4.77352262e-01 -4.75146323e-01 -4.72639620e-01 -4.71336484e-01 -4.69131619e-01 -4.67265069e-01 -4.65876460e-01 -4.64698642e-01 -4.62087989e-01 -4.60163116e-01 -4.58451331e-01 -4.57227021e-01 -4.55919176e-01 -4.54320490e-01 -4.52612042e-01 -4.50352997e-01 -4.48206365e-01 -4.45246398e-01 -4.44117039e-01 -4.42288846e-01 -4.41245317e-01 -4.40112114e-01 -4.39022869e-01 -4.36970711e-01 -4.35414851e-01 -4.33330625e-01 -4.30995584e-01 -4.28929001e-01 -4.27130789e-01 -4.24781889e-01 -4.23384070e-01 -4.22133863e-01 -4.20885056e-01 -4.19159919e-01 -4.17030394e-01 -4.15370166e-01 -4.13911402e-01 -4.12438750e-01 -4.11026061e-01 -4.10714597e-01 -4.09437656e-01 -4.08202469e-01 -4.06582236e-01 -4.05855447e-01 -4.04764682e-01 -4.03217077e-01 -4.01520759e-01 -4.00522560e-01 -3.98936689e-01 -3.97739947e-01 -3.96096259e-01 -3.94289374e-01 -3.93597454e-01 -3.92604530e-01 -3.90962631e-01 -3.88912767e-01 -3.87347102e-01 -3.85639668e-01 -3.83886695e-01 -3.82671177e-01 -3.81722420e-01 -3.80717337e-01 -3.79308224e-01 -3.78054321e-01 -3.76887739e-01 -3.75479519e-01 -3.75277758e-01 -3.73860002e-01 -3.72608632e-01 -3.72014821e-01 -3.70010912e-01 -3.68411809e-01 -3.66978109e-01 -3.65386873e-01 -3.64559174e-01 -3.63044620e-01 -3.62144887e-01 -3.60876560e-01 -3.59910041e-01 -3.58139575e-01 -3.56256008e-01 -3.55029076e-01 -3.53610247e-01 -3.52878690e-01 -3.51145864e-01 -3.49940449e-01 -3.48153979e-01 -3.46761405e-01 -3.45572770e-01 -3.44417334e-01 -3.43852252e-01 -3.43062580e-01 -3.41562510e-01 -3.40505630e-01 -3.39516371e-01 -3.38281542e-01 -3.37085813e-01 -3.36122245e-01 -3.34829181e-01 -3.34170759e-01 -3.33747208e-01 -3.32498968e-01 -3.31472725e-01 -3.30225974e-01 -3.29312384e-01 -3.27709675e-01 -3.27265978e-01 -3.25733691e-01 -3.24390888e-01 -3.23221952e-01 -3.21276367e-01 -3.19759756e-01 -3.19155604e-01 -3.17868650e-01 -3.17337543e-01 -3.16455692e-01 -3.15860182e-01 -3.14566702e-01 -3.13935429e-01 -3.13249856e-01 -3.11438769e-01 -3.10199529e-01 -3.08740586e-01 -3.07854176e-01 -3.06749493e-01 -3.06438029e-01 -3.05517733e-01 -3.03826749e-01 -3.02253962e-01 -3.00879449e-01 -2.99885571e-01 -2.98602730e-01 -2.96701044e-01 -2.95271039e-01 -2.94239938e-01 -2.93247998e-01 -2.91639030e-01 -2.90195882e-01 -2.88802147e-01 -2.87604690e-01 -2.86683530e-01 -2.85760880e-01 -2.84679621e-01 -2.83511609e-01 -2.82070458e-01 -2.80894190e-01 -2.80377537e-01 -2.79732138e-01 -2.78459847e-01 -2.77802169e-01 -2.76706964e-01 -2.75411755e-01 -2.74152309e-01 -2.73225129e-01 -2.71796048e-01 -2.70127088e-01 -2.69357622e-01 -2.68484354e-01 -2.67993957e-01 -2.67328918e-01 -2.66746193e-01 -2.65725583e-01 -2.64505863e-01 -2.63905615e-01 -2.63065279e-01 -2.62340128e-01 -2.61108428e-01 -2.59726584e-01 -2.58685708e-01 -2.57655978e-01 -2.56861120e-01 -2.55634725e-01 -2.54628509e-01 -2.53649384e-01 -2.52386600e-01 -2.51821667e-01 -2.50476897e-01 -2.49208361e-01 -2.48208240e-01 -2.47028217e-01 -2.45597914e-01 -2.44483575e-01 -2.42861927e-01 -2.41384372e-01 -2.39779040e-01 -2.38502726e-01 -2.37256423e-01 -2.36542851e-01 -2.34837815e-01 -2.33396500e-01 -2.33006954e-01 -2.32669637e-01 -2.31731459e-01 -2.30290011e-01 -2.28949040e-01 -2.27562338e-01 -2.26511776e-01 -2.25435689e-01 -2.24362046e-01 -2.23323137e-01 -2.22167447e-01 -2.21447825e-01 -2.20032632e-01 -2.19195649e-01 -2.18375564e-01 -2.17582151e-01 -2.16296911e-01 -2.15368778e-01 -2.14726076e-01 -2.13386625e-01 -2.12205753e-01 -2.10483372e-01 -2.09402129e-01 -2.08345100e-01 -2.07291201e-01 -2.06343040e-01 -2.05268070e-01 -2.04165593e-01 -2.03334197e-01 -2.02708185e-01 -2.01526940e-01 -2.00410888e-01 -1.99559376e-01 -1.98303118e-01 -1.97307140e-01 -1.96317554e-01 -1.95079073e-01 -1.93591237e-01 -1.92658007e-01 -1.91317111e-01 -1.90135285e-01 -1.89250946e-01 -1.88152373e-01 -1.87130943e-01 -1.86427131e-01 -1.85603365e-01 -1.84693098e-01 -1.83011264e-01 -1.82066351e-01 -1.81180850e-01 -1.80009112e-01 -1.78888366e-01 -1.78598687e-01 -1.77562505e-01 -1.76593348e-01 -1.76005796e-01 -1.74938351e-01 -1.74282536e-01 -1.73808113e-01 -1.73158258e-01 -1.72416359e-01 -1.71584278e-01 -1.70378476e-01 -1.69926509e-01 -1.69004917e-01 -1.67915910e-01 -1.66496187e-01 -1.65737644e-01 -1.64852157e-01 -1.63931116e-01 -1.63201183e-01 -1.61945343e-01 -1.61190733e-01 -1.60091609e-01 -1.59203455e-01 -1.58093259e-01 -1.57476619e-01 -1.56671852e-01 -1.55684501e-01 -1.54748529e-01 -1.53731987e-01 -1.53090701e-01 -1.52313650e-01 -1.51245892e-01 -1.49992630e-01 -1.48546562e-01 -1.48395017e-01 -1.47304773e-01 -1.46191567e-01 -1.45275280e-01 -1.44108906e-01 -1.42877087e-01 -1.41839474e-01 -1.41307905e-01 -1.40047446e-01 -1.38985142e-01 -1.38020515e-01 -1.37129694e-01 -1.36410892e-01 -1.35700196e-01 -1.34550020e-01 -1.33853942e-01 -1.32961288e-01 -1.32477552e-01 -1.32081240e-01 -1.30906239e-01 -1.30390599e-01 -1.29326612e-01 -1.28654629e-01 -1.27261937e-01 -1.25902891e-01 -1.25194937e-01 -1.24312386e-01 -1.23636536e-01 -1.22481547e-01 -1.21166728e-01 -1.20732300e-01 -1.19641021e-01 -1.18899412e-01 -1.18715264e-01 -1.17947780e-01 -1.17307611e-01 -1.16587013e-01 -1.15704700e-01 -1.14740267e-01 -1.14216164e-01 -1.13559753e-01 -1.13072425e-01 -1.12149127e-01 -1.11142680e-01 -1.10473841e-01 -1.09742336e-01 -1.08672306e-01 -1.08085401e-01 -1.07359402e-01 -1.06069840e-01 -1.05289660e-01 -1.04347073e-01 -1.03052497e-01 -1.01967603e-01 -1.01466663e-01 -1.00506522e-01 -9.97442007e-02 -9.89154279e-02 -9.84460786e-02 -9.76644233e-02 -9.69184861e-02 -9.60194543e-02 -9.52804461e-02 -9.41952541e-02 -9.33285654e-02 -9.22849029e-02 -9.14151892e-02 -9.07539651e-02 -8.98627564e-02 -8.94634724e-02 -8.87627378e-02 -8.82449225e-02 -8.75988230e-02 -8.70825574e-02 -8.66277069e-02 -8.51845890e-02 -8.40739757e-02 -8.29355046e-02 -8.20129663e-02 -8.11528191e-02 -8.05967972e-02 -7.99110383e-02 -7.91528970e-02 -7.84414709e-02 -7.81189725e-02 -7.74143413e-02 -7.66373426e-02 -7.57558569e-02 -7.45954067e-02 -7.37432018e-02 -7.28969499e-02 -7.17710182e-02 -7.04853833e-02 -6.99052587e-02 -6.88415989e-02 -6.81266934e-02 -6.70472682e-02 -6.63075522e-02 -6.57747015e-02 -6.52830526e-02 -6.44096658e-02 -6.36358112e-02 -6.28033355e-02 -6.20768331e-02 -6.11346960e-02 -6.00163750e-02 -5.89429662e-02 -5.85454665e-02 -5.82624935e-02 -5.72122149e-02 -5.65566234e-02 -5.60013019e-02 -5.54069951e-02 -5.45972958e-02 -5.33908345e-02 -5.25529645e-02 -5.22503778e-02 -5.12273163e-02 -5.03254980e-02 -4.93659079e-02 -4.86704186e-02 -4.77783829e-02 -4.76428159e-02 -4.68147844e-02 -4.64030169e-02 -4.59284969e-02 -4.53575216e-02 -4.47574370e-02 -4.40637060e-02 -4.33656685e-02 -4.26978990e-02 -4.19811942e-02 -4.10228707e-02 -4.07566912e-02 -4.00102474e-02 -3.95591110e-02 -3.85499522e-02 -3.78489047e-02 -3.68365310e-02 -3.60924006e-02 -3.54366936e-02 -3.47818658e-02 -3.36412638e-02 -3.31243202e-02 -3.24893445e-02 -3.18568572e-02 -3.12245078e-02 -3.07858009e-02 -3.04154251e-02 -2.97064874e-02 -2.83871293e-02 -2.71466207e-02 -2.66541969e-02 -2.61173844e-02 -2.52946299e-02 -2.47177891e-02 -2.38316040e-02 -2.33606417e-02 -2.25449521e-02 -2.16427743e-02 -2.07091048e-02 -1.95978433e-02 -1.90021861e-02 -1.82099361e-02 -1.75993964e-02 -1.71494242e-02 -1.67522635e-02 -1.61501653e-02 -1.54669136e-02 -1.50720291e-02 -1.43398140e-02 -1.35484524e-02 -1.27762090e-02 -1.20957121e-02 -1.12693822e-02 -1.04813278e-02 -9.75414366e-03 -9.10847168e-03 -8.59907735e-03 -7.40562566e-03 -6.64168643e-03 -6.10108068e-03 -5.38585568e-03 -4.73163323e-03 -3.56102455e-03 -2.32233875e-03 -1.54654111e-03 -6.43389241e-04 -6.12149772e-04 4.53930988e-04 9.14942066e-04 1.06084626e-03 1.91152655e-03 2.63490621e-03 2.98366742e-03 3.70505429e-03 4.34916932e-03 5.30786300e-03 6.34686463e-03 6.83834823e-03 7.34912185e-03 8.15455336e-03 8.54920596e-03 9.17754695e-03 9.97851044e-03 1.13541353e-02 1.19932983e-02 1.28627252e-02 1.34766232e-02 1.43016120e-02 1.47829037e-02 1.52334254e-02 1.57874078e-02 1.61315631e-02 1.70134585e-02 1.77375022e-02 1.83555484e-02 1.90949123e-02 1.97905321e-02 2.09598579e-02 2.14144811e-02 2.23417412e-02 2.28401702e-02 2.40807347e-02 2.43886393e-02 2.51652505e-02 2.61029042e-02 2.67888941e-02 2.73480415e-02 2.76994128e-02 2.82746758e-02 2.95565203e-02 3.00638787e-02 3.06531060e-02 3.14324573e-02 3.23425196e-02 3.29275914e-02 3.38019468e-02 3.40749025e-02 3.45471986e-02 3.49350870e-02 3.59471925e-02 3.63064371e-02 3.65327075e-02 3.72940712e-02 3.80481668e-02 3.89284119e-02 3.94697487e-02 4.02229615e-02 4.06960249e-02 4.11644056e-02 4.17331494e-02 4.25603203e-02 4.29050885e-02 4.32820432e-02 4.39257696e-02 4.43874151e-02 4.51320074e-02 4.56609093e-02 4.59900722e-02 4.65766527e-02 4.69091572e-02 4.75921892e-02 4.80279252e-02 4.87218611e-02 4.96693701e-02 5.04917018e-02 5.12762144e-02 5.18149547e-02 5.23963124e-02 5.26474901e-02 5.28461076e-02 5.33312596e-02 5.39599881e-02 5.47682717e-02 5.51080666e-02 5.56603596e-02 5.65108210e-02 5.75128831e-02 5.79765625e-02 5.91175556e-02 5.96191250e-02 6.04557171e-02 6.10008836e-02 6.22610673e-02 6.26960471e-02 6.35331199e-02 6.42618686e-02 6.49469495e-02 6.58541471e-02 6.64368868e-02 6.72399998e-02 6.73256963e-02 6.80706948e-02 6.87419325e-02 6.91913813e-02 6.98988289e-02 7.08610415e-02 7.15035871e-02 7.30096921e-02 7.38754347e-02 7.43895546e-02 7.48750344e-02 7.55386502e-02 7.63026178e-02 7.70615786e-02 7.80760869e-02 7.94574618e-02 8.03267136e-02 8.10395181e-02 8.19215402e-02 8.28371644e-02 8.36375877e-02 8.43437389e-02 8.57925043e-02 8.63730311e-02 8.69654194e-02 8.78985450e-02 8.85539502e-02 8.86849985e-02 8.92416835e-02 8.99075940e-02 8.99298713e-02 9.10056978e-02 9.15075392e-02 9.24931243e-02 9.31007341e-02 9.41802561e-02 9.47875455e-02 9.54694450e-02 9.66599360e-02 9.74468589e-02 9.80188921e-02 9.88860428e-02 9.96552333e-02 1.00412421e-01 1.01067327e-01 1.01694614e-01 1.02155752e-01 1.02594383e-01 1.03201702e-01 1.03872038e-01 1.04825139e-01 1.05623342e-01 1.06331266e-01 1.07050635e-01 1.07798465e-01 1.08171277e-01 1.08895563e-01 1.10215977e-01 1.10899873e-01 1.12128384e-01 1.12946711e-01 1.13405466e-01 1.14095680e-01 1.14819877e-01 1.15301199e-01 1.16167605e-01 1.16844021e-01 1.17488019e-01 1.18370086e-01 1.19397029e-01 1.20281100e-01 1.20542727e-01 1.21134609e-01 1.21535338e-01 1.21919937e-01 1.22797482e-01 1.23266459e-01 1.23690866e-01 1.24567427e-01 1.25448391e-01 1.25758648e-01 1.26380563e-01 1.27208710e-01 1.28076062e-01 1.28767341e-01 1.29714072e-01 1.30266577e-01 1.31020114e-01 1.31629512e-01 1.32069051e-01 1.32713422e-01 1.33493468e-01 1.34048209e-01 1.34672463e-01 1.35323122e-01 1.36115626e-01 1.36418223e-01 1.37433693e-01 1.37944177e-01 1.38831094e-01 1.39523238e-01 1.40026107e-01 1.40872419e-01 1.41868427e-01 1.42264262e-01 1.42956629e-01 1.43527344e-01 1.43939465e-01 1.44542202e-01 1.45763353e-01 1.46264941e-01 1.47190586e-01 1.47830129e-01 1.48488060e-01 1.49496838e-01 1.49777398e-01 1.50221467e-01 1.51155457e-01 1.52311474e-01 1.52673244e-01 1.53068572e-01 1.53885707e-01 1.54783458e-01 1.55564293e-01 1.56228691e-01 1.56660154e-01 1.57331333e-01 1.58044964e-01 1.59025595e-01 1.59945905e-01 1.60762966e-01 1.61806926e-01 1.62747815e-01 1.63016319e-01 1.63688377e-01 1.64692074e-01 1.65529802e-01 1.66128457e-01 1.67117149e-01 1.67820245e-01 1.68241635e-01 1.68897122e-01 1.69563681e-01 1.69958666e-01 1.71031699e-01 1.71291292e-01 1.71962172e-01 1.72475874e-01 1.73027873e-01 1.73240826e-01 1.73985824e-01 1.74450904e-01 1.75026253e-01 1.75627515e-01 1.76794693e-01 1.77356943e-01 1.77864328e-01 1.78779185e-01 1.79723114e-01 1.80536628e-01 1.81463122e-01 1.82182267e-01 1.82801247e-01 1.83872893e-01 1.84574723e-01 1.85766906e-01 1.86281547e-01 1.87102959e-01 1.88441858e-01 1.88748106e-01 1.89308241e-01 1.90050676e-01 1.90586597e-01 1.91129982e-01 1.92268282e-01 1.93137541e-01 1.93982095e-01 1.95116311e-01 1.95661053e-01 1.96260020e-01 1.96937993e-01 1.97933823e-01 1.98323295e-01 1.98834136e-01 1.99356124e-01 2.00220779e-01 2.00840190e-01 2.01687723e-01 2.02417269e-01 2.02919543e-01 2.03630567e-01 2.04716370e-01 2.05093816e-01 2.05950946e-01 2.06071928e-01 2.06633508e-01 2.07603946e-01 2.08744928e-01 2.09512368e-01 2.10336298e-01 2.11185336e-01 2.12190956e-01 2.12966979e-01 2.13519052e-01 2.14077279e-01 2.15119034e-01 2.15802222e-01 2.16600493e-01 2.17324048e-01 2.18078271e-01 2.18858048e-01 2.19751567e-01 2.20637083e-01 2.21511275e-01 2.22720876e-01 2.23463699e-01 2.23901659e-01 2.24479392e-01 2.25457758e-01 2.26058558e-01 2.26985574e-01 2.27758691e-01 2.28556946e-01 2.29138732e-01 2.29732916e-01 2.30720237e-01 2.31614605e-01 2.32727796e-01 2.33621433e-01 2.34287843e-01 2.34865069e-01 2.35627040e-01 2.36213163e-01 2.36649424e-01 2.37689063e-01 2.38455877e-01 2.39493251e-01 2.40356013e-01 2.40698755e-01 2.41166934e-01 2.41961464e-01 2.42880806e-01 2.43926093e-01 2.44446918e-01 2.45278791e-01 2.46227980e-01 2.47221202e-01 2.47985393e-01 2.48529643e-01 2.49000624e-01 2.50546038e-01 2.51223326e-01 2.51773238e-01 2.53023058e-01 2.54048139e-01 2.54380047e-01 2.54877359e-01 2.55417615e-01 2.56083995e-01 2.56991893e-01 2.57461309e-01 2.58199751e-01 2.59069800e-01 2.60065079e-01 2.61285454e-01 2.61701286e-01 2.62796074e-01 2.63668031e-01 2.64850587e-01 2.65411496e-01 2.66400546e-01 2.67241806e-01 2.68045962e-01 2.68665284e-01 2.69328535e-01 2.69954681e-01 2.70559579e-01 2.71400750e-01 2.72160739e-01 2.72903591e-01 2.73635447e-01 2.74350613e-01 2.75209010e-01 2.75774002e-01 2.76481241e-01 2.77281374e-01 2.78153688e-01 2.78810024e-01 2.80037105e-01 2.81086206e-01 2.81374037e-01 2.82283694e-01 2.83164740e-01 2.84176737e-01 2.84703612e-01 2.85728157e-01 2.86740154e-01 2.87357390e-01 2.88208991e-01 2.88882762e-01 2.89844513e-01 2.90566742e-01 2.91340619e-01 2.92026341e-01 2.92793721e-01 2.93769270e-01 2.94973582e-01 2.95559466e-01 2.96361983e-01 2.97266215e-01 2.97950149e-01 2.98418492e-01 2.99127251e-01 2.99998194e-01 3.00881714e-01 3.01560163e-01 3.02113950e-01 3.03148061e-01 3.04461688e-01 3.05096358e-01 3.06227952e-01 3.07090193e-01 3.08133423e-01 3.08799356e-01 3.09394538e-01 3.10692608e-01 3.11815888e-01 3.12611014e-01 3.13900173e-01 3.14587206e-01 3.15171778e-01 3.15857321e-01 3.16670597e-01 3.17963570e-01 3.18850756e-01 3.19788724e-01 3.20370138e-01 3.21205348e-01 3.21851730e-01 3.22718382e-01 3.23723376e-01 3.24727267e-01 3.25978577e-01 3.26839834e-01 3.27809811e-01 3.29077065e-01 3.29579145e-01 3.30212355e-01 3.31260562e-01 3.32116485e-01 3.32950145e-01 3.33836913e-01 3.34954411e-01 3.36229682e-01 3.36996347e-01 3.37902457e-01 3.39008719e-01 3.39883834e-01 3.40807080e-01 3.41489702e-01 3.43009591e-01 3.44333559e-01 3.45774949e-01 3.46612483e-01 3.48138303e-01 3.48806977e-01 3.49574655e-01 3.50790471e-01 3.52113605e-01 3.53475034e-01 3.55098575e-01 3.56212944e-01 3.56970608e-01 3.57986778e-01 3.59185964e-01 3.60089511e-01 3.61056894e-01 3.61664802e-01 3.63408089e-01 3.64026934e-01 3.64872575e-01 3.66273582e-01 3.67284060e-01 3.68211031e-01 3.69445354e-01 3.70917618e-01 3.72262418e-01 3.72944057e-01 3.73623699e-01 3.74284804e-01 3.75621021e-01 3.76727760e-01 3.77910435e-01 3.78953427e-01 3.80278975e-01 3.81817162e-01 3.83459419e-01 3.85316253e-01 3.86321664e-01 3.87399912e-01 3.88658613e-01 3.89373183e-01 3.90188098e-01 3.91647577e-01 3.92561704e-01 3.93561661e-01 3.94264907e-01 3.95231426e-01 3.96203250e-01 3.97367358e-01 3.99242461e-01 4.00529563e-01 4.01325017e-01 4.02633399e-01 4.03408498e-01 4.04671937e-01 4.05964941e-01 4.07337278e-01 4.08434927e-01 4.09502417e-01 4.11082596e-01 4.12870228e-01 4.13645953e-01 4.14769113e-01 4.16138113e-01 4.16697621e-01 4.17583317e-01 4.18585062e-01 4.19566602e-01 4.21418518e-01 4.23827767e-01 4.24549103e-01 4.26165789e-01 4.27488416e-01 4.29159492e-01 4.30702537e-01 4.32071477e-01 4.33419168e-01 4.34742391e-01 4.36301529e-01 4.38478738e-01 4.39340562e-01 4.40299064e-01 4.41525459e-01 4.43378866e-01 4.44540948e-01 4.45633739e-01 4.46465850e-01 4.47895795e-01 4.48823571e-01 4.49878931e-01 4.50939268e-01 4.52543050e-01 4.54176933e-01 4.56174374e-01 4.57567900e-01 4.59925920e-01 4.61233050e-01 4.62645233e-01 4.64001745e-01 4.64651048e-01 4.66356218e-01 4.67666924e-01 4.69096303e-01 4.70336348e-01 4.72118556e-01 4.74145770e-01 4.75100607e-01 4.76294100e-01 4.77922231e-01 4.78629410e-01 4.80392337e-01 4.81812418e-01 4.83251274e-01 4.84201342e-01 4.85359490e-01 4.86466110e-01 4.87836391e-01 4.89569187e-01 4.90686536e-01 4.92858142e-01 4.94520634e-01 4.96194482e-01 4.97740716e-01 4.98997837e-01 5.00920415e-01 5.02549350e-01 5.04317641e-01 5.05804062e-01 5.06958663e-01 5.08066475e-01 5.09985089e-01 5.11707067e-01 5.12782931e-01 5.14877737e-01 5.16682148e-01 5.18407404e-01 5.19584000e-01 5.21382987e-01 5.22683620e-01 5.24181247e-01 5.25451303e-01 5.26916325e-01 5.28426349e-01 5.29965341e-01 5.31607807e-01 5.33065557e-01 5.34430921e-01 5.36716938e-01 5.38331091e-01 5.40137768e-01 5.41578829e-01 5.43448567e-01 5.45869589e-01 5.47215521e-01 5.49380422e-01 5.51049292e-01 5.53111315e-01 5.54252028e-01 5.55972338e-01 5.57099998e-01 5.58854461e-01 5.59990823e-01 5.61314464e-01 5.63705802e-01 5.65082133e-01 5.66999972e-01 5.69252431e-01 5.71106613e-01 5.73110759e-01 5.74428678e-01 5.75735569e-01 5.77526093e-01 5.78855991e-01 5.81395745e-01 5.83084643e-01 5.84308922e-01 5.86075962e-01 5.87251484e-01 5.88889539e-01 5.91537893e-01 5.94621360e-01 5.96981585e-01 5.98166108e-01 5.99938810e-01 6.02745712e-01 6.04426742e-01 6.06284916e-01 6.07795775e-01 6.09591901e-01 6.11021042e-01 6.12608969e-01 6.13902152e-01 6.16037130e-01 6.18140996e-01 6.20761812e-01 6.22288227e-01 6.24087036e-01 6.26352787e-01 6.29121244e-01 6.30671203e-01 6.32202923e-01 6.34532332e-01 6.36034667e-01 6.38223588e-01 6.39822781e-01 6.41487062e-01 6.43133104e-01 6.45209908e-01 6.47276163e-01 6.49990380e-01 6.51932716e-01 6.54175758e-01 6.56275392e-01 6.58160806e-01 6.60916865e-01 6.63498282e-01 6.65764272e-01 6.67935610e-01 6.70310438e-01 6.72560155e-01 6.75109506e-01 6.77364469e-01 6.79356515e-01 6.82478786e-01 6.84606194e-01 6.87085867e-01 6.89206243e-01 6.91533148e-01 6.93232298e-01 6.95195615e-01 6.97269619e-01 6.99425995e-01 7.01906323e-01 7.03802168e-01 7.05698013e-01 7.09232628e-01 7.12229609e-01 7.14632690e-01 7.16564000e-01 7.18593478e-01 7.20455527e-01 7.22570658e-01 7.26500630e-01 7.28517950e-01 7.31769383e-01 7.33889699e-01 7.36298084e-01 7.38754928e-01 7.41404593e-01 7.44786382e-01 7.48189747e-01 7.49652565e-01 7.52344310e-01 7.55381644e-01 7.57904470e-01 7.61740327e-01 7.64572620e-01 7.67433584e-01 7.69742548e-01 7.72163510e-01 7.75279880e-01 7.77962685e-01 7.80578971e-01 7.82819688e-01 7.85879076e-01 7.88611889e-01 7.90659308e-01 7.92281151e-01 7.95518160e-01 7.98096895e-01 8.00405741e-01 8.02789509e-01 8.05073500e-01 8.07272434e-01 8.09493661e-01 8.12431753e-01 8.14600229e-01 8.17885697e-01 8.21701348e-01 8.24930310e-01 8.27706575e-01 8.30991328e-01 8.33790898e-01 8.36377561e-01 8.38891089e-01 8.41562092e-01 8.43480647e-01 8.46198380e-01 8.49784255e-01 8.52487862e-01 8.54707539e-01 8.58159065e-01 8.60744238e-01 8.64048958e-01 8.66681337e-01 8.69418681e-01 8.71263027e-01 8.73771846e-01 8.76325667e-01 8.78652275e-01 8.81794214e-01 8.84312630e-01 8.86829257e-01 8.88779402e-01 8.92274261e-01 8.96104455e-01 8.98965597e-01 9.01495397e-01 9.05380309e-01 9.07836378e-01 9.10408199e-01 9.13072109e-01 9.17601287e-01 9.21690822e-01 9.25340533e-01 9.28431869e-01 9.31086540e-01 9.35036778e-01 9.38385963e-01 9.42210197e-01 9.46404636e-01 9.49293911e-01 9.52321708e-01 9.54785168e-01 9.58816707e-01 9.61133659e-01 9.64208961e-01 9.67586100e-01 9.70552623e-01 9.73265171e-01 9.76956189e-01 9.79580462e-01 9.83244717e-01 9.85704005e-01 9.88873303e-01 9.92552757e-01 9.97214377e-01 1.00139976e+00 1.00475216e+00 1.00822842e+00 1.01154661e+00 1.01526725e+00 1.01857567e+00 1.02156281e+00 1.02564669e+00 1.02869618e+00 1.03101718e+00 1.03494334e+00 1.03848612e+00 1.04131043e+00 1.04449356e+00 1.04853499e+00 1.05087614e+00 1.05487919e+00 1.05824757e+00 1.06176674e+00 1.06539941e+00 1.07020330e+00 1.07289934e+00 1.07686043e+00 1.08150876e+00 1.08660030e+00 1.09070110e+00 1.09442437e+00 1.09806776e+00 1.10302734e+00 1.10760403e+00 1.11107051e+00 1.11476970e+00 1.11845911e+00 1.12217212e+00 1.12638867e+00 1.13118458e+00 1.13506460e+00 1.14116836e+00 1.14649761e+00 1.14942825e+00 1.15351689e+00 1.15709567e+00 1.16102445e+00 1.16493988e+00 1.16904879e+00 1.17281067e+00 1.17818034e+00 1.18194139e+00 1.18827999e+00 1.19393015e+00 1.19858623e+00 1.20365131e+00 1.20856965e+00 1.21297765e+00 1.21659553e+00 1.22044027e+00 1.22512782e+00 1.23021150e+00 1.23558354e+00 1.24005735e+00 1.24468553e+00 1.25002587e+00 1.25410020e+00 1.25890362e+00 1.26386786e+00 1.27098763e+00 1.27587640e+00 1.28185678e+00 1.28688884e+00 1.29385018e+00 1.29906547e+00 1.30512130e+00 1.31045067e+00 1.31597555e+00 1.32125592e+00 1.32729399e+00 1.33388984e+00 1.33834016e+00 1.34367847e+00 1.34940934e+00 1.35546005e+00 1.36198664e+00 1.36644220e+00 1.37166393e+00 1.37699246e+00 1.38418663e+00 1.39003527e+00 1.39783800e+00 1.40315747e+00 1.40785015e+00 1.41316009e+00 1.41853285e+00 1.42425501e+00 1.42964387e+00 1.43792951e+00 1.44327867e+00 1.45052922e+00 1.45537341e+00 1.46141863e+00 1.46537423e+00 1.47126591e+00 1.47751129e+00 1.48302281e+00 1.48942435e+00 1.49721754e+00 1.50237238e+00 1.50762630e+00 1.51578832e+00 1.52332973e+00 1.52921140e+00 1.53736520e+00 1.54308295e+00 1.55069172e+00 1.55624163e+00 1.56237745e+00 1.56851006e+00 1.57824850e+00 1.58466613e+00 1.59305358e+00 1.60207641e+00 1.60753667e+00 1.61483169e+00 1.62251556e+00 1.63021660e+00 1.63914359e+00 1.64600396e+00 1.65422714e+00 1.66351187e+00 1.67139912e+00 1.68023789e+00 1.69030428e+00 1.69858730e+00 1.70993793e+00 1.71864021e+00 1.72797954e+00 1.73806047e+00 1.74842131e+00 1.75639427e+00 1.76663995e+00 1.77438939e+00 1.78503025e+00 1.79382646e+00 1.80261767e+00 1.81169021e+00 1.81970012e+00 1.83064568e+00 1.83831060e+00 1.84946561e+00 1.86041725e+00 1.86751175e+00 1.87833142e+00 1.88554204e+00 1.89547050e+00 1.90982497e+00 1.91890955e+00 1.93067801e+00 1.94584775e+00 1.96227419e+00 1.97758925e+00 1.99213493e+00 2.00343776e+00 2.01649880e+00 2.02592850e+00 2.04077125e+00 2.06025910e+00 2.07751274e+00 2.09212542e+00 2.10447598e+00 2.12305331e+00 2.14265203e+00 2.15900540e+00 2.18285084e+00 2.20274115e+00 2.21974015e+00 2.24705553e+00 2.26575065e+00 2.29024434e+00 2.30744457e+00 2.33563590e+00 2.35739040e+00 2.38163042e+00 2.40192199e+00 2.42789650e+00 2.44835353e+00 2.47509599e+00 2.50284243e+00 2.52630281e+00 2.54803538e+00 2.57738352e+00 2.61700797e+00 2.64996552e+00 2.69144678e+00 2.74450278e+00 2.77822781e+00 2.82125807e+00 2.86666012e+00 2.91353679e+00 2.98403931e+00 3.07700777e+00 3.14814329e+00 3.24852943e+00 3.36898661e+00 3.50531530e+00 3.67732453e+00 4.02414989e+00 5.42747545e+00 
            </HistogramBinning>
          </PDF>
        </CumulativePDF_cls0>
        <CumulativePDF_cls1>
          <PDF Name="GaussTransform var0 cls1" MinNSmooth="0" MaxNSmooth="0" InterpolMethod="1" KDE_type="0" KDE_iter="1" KDE_border="1" KDE_finefactor="0.0000000000000000e+00">
            <Histogram Name="Cumulative_Var0_cls1_original" NBins="489" XMin="-1.7417439222335815e+00" XMax="3.1766922473907471e+00" HasEquidistantBins="0">
              1.18842779e-03 2.76249903e-03 4.56206780e-03 6.42105704e-03 8.26823711e-03 1.01055382e-02 1.19428383e-02 1.38158267e-02 1.57601889e-02 1.77402403e-02 1.97202899e-02 2.17003394e-02 2.36803908e-02 2.56604403e-02 2.76404899e-02 2.96205413e-02 3.16005908e-02 3.35806422e-02 3.55606899e-02 3.75407413e-02 3.95207927e-02 4.15008403e-02 4.34808917e-02 4.54578698e-02 4.74287048e-02 4.94148992e-02 5.14440946e-02 5.34978583e-02 5.55301271e-02 5.75255342e-02 5.95055819e-02 6.14856333e-02 6.34656847e-02 6.54457361e-02 6.74257874e-02 6.94058314e-02 7.13858828e-02 7.33659342e-02 7.53459856e-02 7.73260370e-02 7.93060884e-02 8.12956393e-02 8.33041966e-02 8.53222609e-02 8.73403177e-02 8.93108696e-02 9.11863893e-02 9.30143893e-02 9.48423967e-02 9.66703966e-02 9.85347107e-02 1.00471646e-01 1.02464922e-01 1.04491234e-01 1.06530517e-01 1.08569808e-01 1.10616155e-01 1.12669565e-01 1.14722975e-01 1.16760515e-01 1.18793517e-01 1.20837837e-01 1.22882165e-01 1.24931365e-01 1.26948997e-01 1.28930181e-01 1.30909666e-01 1.32885173e-01 1.34858415e-01 1.36834085e-01 1.38813987e-01 1.40795738e-01 1.42777488e-01 1.44759238e-01 1.46740571e-01 1.48721039e-01 1.50701091e-01 1.52681142e-01 1.54661193e-01 1.56641245e-01 1.58604324e-01 1.60533503e-01 1.62462667e-01 1.64425761e-01 1.66405812e-01 1.68385863e-01 1.70365915e-01 1.72345966e-01 1.74326017e-01 1.76306054e-01 1.78286105e-01 1.80266157e-01 1.82246208e-01 1.84226260e-01 1.86206311e-01 1.88186362e-01 1.90166414e-01 1.92146465e-01 1.94126517e-01 1.96106568e-01 1.98086619e-01 2.00066656e-01 2.02046707e-01 2.04026759e-01 2.06375539e-01 2.09785655e-01 2.14245334e-01 2.18888298e-01 2.22704768e-01 2.25200057e-01 2.26789817e-01 2.28364214e-01 2.30399683e-01 2.32663602e-01 2.34788567e-01 2.36660689e-01 2.38529116e-01 2.40918383e-01 2.43977308e-01 2.47238517e-01 2.50364870e-01 2.53154069e-01 2.55403847e-01 2.57383883e-01 2.59363949e-01 2.61343986e-01 2.63324052e-01 2.65304089e-01 2.67328262e-01 2.69440681e-01 2.71597803e-01 2.73756146e-01 2.75915056e-01 2.78073996e-01 2.80188203e-01 2.82212973e-01 2.84193009e-01 2.86173046e-01 2.88153112e-01 2.90133148e-01 2.92113215e-01 2.94093251e-01 2.96073318e-01 2.98053354e-01 3.00033420e-01 3.02013457e-01 3.03993523e-01 3.05997849e-01 3.08055341e-01 3.10138106e-01 3.12184930e-01 3.14175069e-01 3.16144496e-01 3.18120986e-01 3.20101053e-01 3.22081089e-01 3.24061155e-01 3.26041192e-01 3.28021228e-01 3.30001295e-01 3.31981331e-01 3.33961397e-01 3.35941434e-01 3.37861061e-01 3.39643538e-01 3.41353089e-01 3.43147069e-01 3.45082015e-01 3.47073585e-01 3.49057466e-01 3.51037502e-01 3.53017569e-01 3.54997605e-01 3.57009023e-01 3.59083176e-01 3.61180335e-01 3.63260865e-01 3.65333050e-01 3.67395192e-01 3.69424284e-01 3.71417314e-01 3.73397380e-01 3.75377417e-01 3.77357453e-01 3.79337519e-01 3.81317556e-01 3.83297622e-01 3.85277659e-01 3.87257725e-01 3.89237761e-01 3.91217828e-01 3.93168628e-01 3.95047426e-01 3.96870255e-01 3.98694515e-01 4.00575846e-01 4.02527720e-01 4.04507786e-01 4.06487823e-01 4.08467859e-01 4.10447925e-01 4.12427962e-01 4.14408028e-01 4.16388065e-01 4.18368131e-01 4.20348167e-01 4.22328234e-01 4.24308270e-01 4.26288337e-01 4.28268373e-01 4.30248410e-01 4.32228476e-01 4.34208512e-01 4.36188579e-01 4.38168615e-01 4.40148681e-01 4.42128718e-01 4.44108784e-01 4.46088821e-01 4.48068887e-01 4.50048923e-01 4.52028990e-01 4.54009026e-01 4.55989063e-01 4.57893014e-01 4.59623516e-01 4.61264849e-01 4.63009030e-01 4.64939177e-01 4.66980189e-01 4.68996465e-01 4.70930725e-01 4.72816139e-01 4.74674165e-01 4.76518184e-01 4.78390038e-01 4.80319738e-01 4.82291490e-01 4.84268934e-01 4.86242294e-01 4.88215685e-01 4.90190715e-01 4.92169112e-01 4.94149148e-01 4.96129215e-01 4.98109251e-01 5.00089288e-01 5.02069354e-01 5.04049420e-01 5.06029427e-01 5.08009493e-01 5.09989560e-01 5.11969626e-01 5.14318347e-01 5.17404556e-01 5.20859540e-01 5.24314463e-01 5.27422905e-01 5.29838324e-01 5.31907201e-01 5.33976138e-01 5.36045015e-01 5.38091719e-01 5.40093958e-01 5.42074025e-01 5.44054091e-01 5.46034157e-01 5.48014164e-01 5.49994230e-01 5.51974297e-01 5.53954303e-01 5.55934370e-01 5.57914436e-01 5.59894502e-01 5.61874509e-01 5.63854575e-01 5.66122293e-01 5.69194853e-01 5.73014200e-01 5.77063143e-01 5.81112087e-01 5.84643841e-01 5.87141097e-01 5.89121163e-01 5.91101229e-01 5.93082309e-01 5.95065415e-01 5.97049534e-01 5.99033654e-01 6.01017773e-01 6.03000939e-01 6.04971707e-01 6.06920838e-01 6.08869553e-01 6.10885561e-01 6.13021493e-01 6.15220368e-01 6.17356837e-01 6.19383812e-01 6.21363819e-01 6.23343885e-01 6.25323951e-01 6.27304018e-01 6.29284024e-01 6.31264091e-01 6.33262873e-01 6.35363936e-01 6.37455046e-01 6.39244139e-01 6.40832603e-01 6.42816961e-01 6.45638168e-01 6.48932815e-01 6.51919007e-01 6.54283762e-01 6.56312048e-01 6.58292115e-01 6.60272181e-01 6.62252247e-01 6.64232254e-01 6.66212320e-01 6.68192387e-01 6.70172393e-01 6.72152460e-01 6.74132526e-01 6.76112592e-01 6.78072512e-01 6.79992139e-01 6.81891680e-01 6.83791220e-01 6.85690820e-01 6.87610447e-01 6.89570367e-01 6.91550434e-01 6.93530500e-01 6.95510507e-01 6.97490573e-01 6.99470639e-01 7.01450706e-01 7.03438580e-01 7.05465615e-01 7.07553804e-01 7.09668219e-01 7.11721897e-01 7.13636935e-01 7.15435624e-01 7.17188895e-01 7.18921065e-01 7.20680416e-01 7.22515285e-01 7.24414766e-01 7.26367950e-01 7.28347957e-01 7.30328023e-01 7.32308090e-01 7.34288156e-01 7.36268163e-01 7.38248229e-01 7.40228295e-01 7.42208362e-01 7.44188368e-01 7.46168435e-01 7.48148501e-01 7.50128508e-01 7.52108574e-01 7.54088640e-01 7.56068707e-01 7.58048713e-01 7.60028780e-01 7.62008846e-01 7.63988912e-01 7.65968919e-01 7.67977595e-01 7.70043373e-01 7.72137761e-01 7.74232149e-01 7.76311100e-01 7.78345525e-01 7.80337512e-01 7.82315969e-01 7.84294426e-01 7.86259949e-01 7.88199484e-01 7.90126026e-01 7.92052567e-01 7.93979108e-01 7.95917451e-01 7.97879279e-01 7.99852848e-01 8.01840127e-01 8.03859293e-01 8.05896699e-01 8.07915747e-01 8.09902847e-01 8.11876237e-01 8.13849628e-01 8.15824687e-01 8.17803085e-01 8.19783092e-01 8.21763158e-01 8.23743224e-01 8.25733840e-01 8.27746689e-01 8.29771638e-01 8.31801355e-01 8.33839059e-01 8.35892737e-01 8.37983727e-01 8.40115607e-01 8.42256308e-01 8.44354749e-01 8.46385419e-01 8.48390996e-01 8.50363910e-01 8.52246404e-01 8.54043067e-01 8.55767906e-01 8.57484698e-01 8.59322965e-01 8.61313939e-01 8.63360941e-01 8.65398586e-01 8.67424130e-01 8.69397461e-01 8.71271908e-01 8.73099685e-01 8.74986470e-01 8.76982749e-01 8.79058003e-01 8.81126642e-01 8.83139968e-01 8.85139048e-01 8.87163103e-01 8.89203906e-01 8.91253352e-01 8.93303990e-01 8.95348668e-01 8.97374988e-01 8.99370432e-01 9.01350439e-01 9.03330505e-01 9.05310571e-01 9.07290637e-01 9.09270048e-01 9.11248147e-01 9.13225591e-01 9.15197492e-01 9.17156279e-01 9.19107139e-01 9.21072125e-01 9.23107028e-01 9.25258279e-01 9.27480400e-01 9.29671884e-01 9.31783438e-01 9.33852792e-01 9.35934663e-01 9.38044548e-01 9.40163016e-01 9.42273796e-01 9.44380760e-01 9.46465731e-01 9.48506713e-01 9.50525701e-01 9.52544749e-01 9.54520762e-01 9.56410944e-01 9.58258152e-01 9.60105360e-01 9.61952567e-01 9.63810086e-01 9.65688109e-01 9.67602372e-01 9.69568431e-01 9.71558273e-01 9.73544002e-01 9.75527704e-01 9.77534533e-01 9.79587495e-01 9.81663525e-01 9.83739614e-01 9.85808730e-01 9.87863839e-01 9.89912033e-01 9.91960227e-01 9.94004607e-01 9.96028066e-01 9.98020768e-01 1.00000000e+00 
            </Histogram>
            <HistogramBinning NBins="489">
              -1.74174392e+00 -1.74164391e+00 -1.30611598e+00 -1.15897989e+00 -1.06092227e+00 -9.96676862e-01 -9.20515895e-01 -8.92691553e-01 -8.64697516e-01 -8.16010177e-01 -7.97133923e-01 -7.75178015e-01 -7.56754875e-01 -7.22639382e-01 -7.05931664e-01 -6.96731448e-01 -6.83292329e-01 -6.78286731e-01 -6.58607662e-01 -6.51177645e-01 -6.35301590e-01 -6.20741546e-01 -5.99548042e-01 -5.90112150e-01 -5.85684240e-01 -5.74159741e-01 -5.61568260e-01 -5.51093519e-01 -5.43240845e-01 -5.39141834e-01 -5.27304828e-01 -5.17783403e-01 -5.10694981e-01 -5.04867196e-01 -4.90263790e-01 -4.78820086e-01 -4.69464302e-01 -4.65814024e-01 -4.57668155e-01 -4.49037433e-01 -4.46292281e-01 -4.37307745e-01 -4.24850553e-01 -4.22221243e-01 -4.21076447e-01 -4.16236281e-01 -4.04088676e-01 -3.99696410e-01 -3.92563045e-01 -3.88572961e-01 -3.81575584e-01 -3.77947837e-01 -3.69723678e-01 -3.69540900e-01 -3.66517335e-01 -3.63957375e-01 -3.61112565e-01 -3.55926454e-01 -3.53315622e-01 -3.49222541e-01 -3.47400278e-01 -3.45647275e-01 -3.44078124e-01 -3.41162682e-01 -3.37535769e-01 -3.34162116e-01 -3.31602097e-01 -3.30136746e-01 -3.27696025e-01 -3.24605584e-01 -3.20882797e-01 -3.19148988e-01 -3.17760587e-01 -3.17192405e-01 -3.15883428e-01 -3.14142764e-01 -3.12407821e-01 -3.11830878e-01 -3.11247230e-01 -3.08035642e-01 -3.06529254e-01 -3.05316776e-01 -3.03041786e-01 -3.01288813e-01 -2.99625635e-01 -2.98993230e-01 -2.97012031e-01 -2.96575278e-01 -2.94496566e-01 -2.92350054e-01 -2.87587702e-01 -2.85626620e-01 -2.84801155e-01 -2.82331973e-01 -2.80773818e-01 -2.78862149e-01 -2.77404159e-01 -2.75802433e-01 -2.75073081e-01 -2.74068683e-01 -2.71783262e-01 -2.71219969e-01 -2.69999087e-01 -2.67559171e-01 -2.64932632e-01 -2.64208734e-01 -2.63068616e-01 -2.62287706e-01 -2.61313498e-01 -2.60964155e-01 -2.59857416e-01 -2.58881927e-01 -2.58602053e-01 -2.56708086e-01 -2.55728602e-01 -2.54456729e-01 -2.53504246e-01 -2.51482129e-01 -2.50181943e-01 -2.49997318e-01 -2.49782428e-01 -2.48625085e-01 -2.47904763e-01 -2.46786296e-01 -2.45715663e-01 -2.45031178e-01 -2.44400755e-01 -2.43432060e-01 -2.42345721e-01 -2.41555572e-01 -2.39893362e-01 -2.38248140e-01 -2.36544624e-01 -2.36094534e-01 -2.35068023e-01 -2.33619422e-01 -2.31617719e-01 -2.30836272e-01 -2.30672821e-01 -2.30504587e-01 -2.29855910e-01 -2.28674188e-01 -2.27428988e-01 -2.25516036e-01 -2.24228427e-01 -2.23265141e-01 -2.21879274e-01 -2.21048042e-01 -2.20433265e-01 -2.19277263e-01 -2.18373701e-01 -2.17109755e-01 -2.15307012e-01 -2.14882657e-01 -2.13679984e-01 -2.12715864e-01 -2.11860284e-01 -2.10295051e-01 -2.09211230e-01 -2.08018035e-01 -2.07245067e-01 -2.06226021e-01 -2.04126045e-01 -2.02739894e-01 -2.01940626e-01 -2.00540766e-01 -1.99672848e-01 -1.99585721e-01 -1.98495969e-01 -1.97904095e-01 -1.97536841e-01 -1.97137117e-01 -1.96346924e-01 -1.96336403e-01 -1.94991559e-01 -1.93716794e-01 -1.92829609e-01 -1.91714779e-01 -1.90984502e-01 -1.90061793e-01 -1.89095154e-01 -1.88456327e-01 -1.87024534e-01 -1.84282020e-01 -1.83408648e-01 -1.82447121e-01 -1.80096522e-01 -1.79384962e-01 -1.78079396e-01 -1.76681578e-01 -1.76108465e-01 -1.74306139e-01 -1.71506166e-01 -1.70973971e-01 -1.69900492e-01 -1.68255806e-01 -1.66988954e-01 -1.66397780e-01 -1.65847108e-01 -1.64737284e-01 -1.63710207e-01 -1.62836552e-01 -1.62726924e-01 -1.61601529e-01 -1.61169484e-01 -1.59766659e-01 -1.57760248e-01 -1.56351268e-01 -1.56234339e-01 -1.55857071e-01 -1.55408174e-01 -1.54113591e-01 -1.53045535e-01 -1.52016878e-01 -1.51442230e-01 -1.49818361e-01 -1.49587005e-01 -1.48153469e-01 -1.47339851e-01 -1.45657569e-01 -1.44371986e-01 -1.43393695e-01 -1.42840311e-01 -1.41646668e-01 -1.40506476e-01 -1.39892444e-01 -1.38136655e-01 -1.37947276e-01 -1.36644512e-01 -1.36642054e-01 -1.34869516e-01 -1.33572251e-01 -1.32586822e-01 -1.31947756e-01 -1.30806014e-01 -1.29313841e-01 -1.28709525e-01 -1.27535909e-01 -1.26429364e-01 -1.25805110e-01 -1.24822967e-01 -1.24569900e-01 -1.22761540e-01 -1.21686280e-01 -1.20648459e-01 -1.19194329e-01 -1.18154362e-01 -1.16652071e-01 -1.16056718e-01 -1.14494488e-01 -1.13737039e-01 -1.12805910e-01 -1.11864470e-01 -1.11839041e-01 -1.11011229e-01 -1.10604681e-01 -1.10049054e-01 -1.09279662e-01 -1.08100653e-01 -1.07811026e-01 -1.07439257e-01 -1.07196853e-01 -1.05842017e-01 -1.05358392e-01 -1.04864605e-01 -1.02981910e-01 -1.02786131e-01 -1.02200948e-01 -1.00681461e-01 -9.92535129e-02 -9.82573032e-02 -9.71719623e-02 -9.56449136e-02 -9.43780541e-02 -9.19428915e-02 -9.19319913e-02 -9.08227786e-02 -9.04867649e-02 -9.00869444e-02 -8.96983370e-02 -8.83154869e-02 -8.75157043e-02 -8.68458673e-02 -8.60539675e-02 -8.43624845e-02 -8.27569142e-02 -8.21507573e-02 -8.15529004e-02 -8.01382139e-02 -7.88795203e-02 -7.83564448e-02 -7.72463679e-02 -7.58970529e-02 -7.38161430e-02 -7.29913414e-02 -7.20447302e-02 -7.19480738e-02 -7.03198984e-02 -6.90908805e-02 -6.79653287e-02 -6.73756227e-02 -6.59710094e-02 -6.39605299e-02 -6.31396100e-02 -6.24388196e-02 -6.15638532e-02 -6.02280721e-02 -5.91306202e-02 -5.81593029e-02 -5.69224842e-02 -5.66726364e-02 -5.59380949e-02 -5.48699424e-02 -5.33680357e-02 -5.27045876e-02 -5.13234362e-02 -4.93879467e-02 -4.82863188e-02 -4.75137047e-02 -4.55527008e-02 -4.49156277e-02 -4.26472053e-02 -4.08368371e-02 -3.96482795e-02 -3.80523317e-02 -3.65924872e-02 -3.52969654e-02 -3.32769305e-02 -3.22526805e-02 -3.10141239e-02 -2.98682246e-02 -2.91598272e-02 -2.86701564e-02 -2.55699474e-02 -2.35799681e-02 -2.18509659e-02 -2.07014792e-02 -1.93283875e-02 -1.61161590e-02 -1.31202564e-02 -1.13192284e-02 -9.81062464e-03 -6.71755662e-03 -4.58578113e-03 -3.66012077e-03 -1.73269073e-03 9.46377404e-04 2.09845603e-03 3.15384474e-03 3.68893007e-03 5.08554047e-03 5.88474562e-03 7.15228869e-03 8.72943830e-03 1.14641376e-02 1.29198628e-02 1.52610093e-02 1.64656881e-02 1.86026990e-02 2.10687146e-02 2.32691038e-02 2.62297783e-02 2.69651376e-02 2.92512234e-02 3.08643878e-02 3.41740474e-02 3.49061079e-02 3.62803042e-02 3.93711664e-02 4.08604369e-02 4.21331637e-02 4.33351807e-02 4.49143872e-02 4.55098487e-02 4.72859405e-02 5.05920574e-02 5.25750369e-02 5.49436584e-02 5.64676635e-02 5.78606054e-02 6.04347438e-02 6.25047609e-02 6.68635443e-02 6.87759221e-02 7.17531964e-02 7.29807690e-02 7.72679076e-02 8.07525218e-02 8.33023936e-02 8.54188427e-02 9.12972465e-02 9.29405987e-02 9.67991874e-02 9.94076505e-02 1.04498863e-01 1.07638627e-01 1.10070847e-01 1.14223607e-01 1.18806981e-01 1.19101509e-01 1.25981465e-01 1.30469412e-01 1.37078971e-01 1.42695665e-01 1.47610471e-01 1.50771499e-01 1.53728768e-01 1.58104613e-01 1.63200930e-01 1.63690388e-01 1.65196791e-01 1.71630412e-01 1.78905338e-01 1.81086347e-01 1.84846193e-01 1.91044480e-01 2.00794563e-01 2.06526354e-01 2.08413258e-01 2.17486441e-01 2.17504144e-01 2.23889500e-01 2.30222613e-01 2.38748744e-01 2.48171076e-01 2.51943529e-01 2.52249539e-01 2.57437855e-01 2.64366180e-01 2.74286091e-01 2.79404551e-01 2.89439142e-01 2.96079695e-01 2.98819840e-01 3.13176811e-01 3.18072498e-01 3.21646929e-01 3.27778578e-01 3.41631323e-01 3.46009851e-01 3.60092103e-01 3.72790635e-01 3.90555054e-01 4.09048200e-01 4.23556179e-01 4.26888704e-01 4.49626714e-01 4.72500592e-01 4.79533404e-01 4.85657781e-01 4.94277537e-01 5.12077808e-01 5.28257310e-01 5.41996479e-01 5.54445446e-01 5.72964251e-01 5.90355396e-01 5.99248648e-01 6.14466965e-01 6.42113328e-01 6.64447546e-01 6.69690728e-01 7.03311682e-01 7.18922853e-01 7.29506969e-01 7.58678079e-01 8.03576231e-01 8.17215919e-01 8.29133570e-01 8.34708869e-01 8.74129057e-01 9.00571227e-01 9.32552099e-01 9.38601196e-01 9.61408496e-01 1.00238633e+00 1.04016554e+00 1.05939615e+00 1.10518754e+00 1.13596046e+00 1.20416117e+00 1.27993929e+00 1.32071400e+00 1.35408521e+00 1.39360523e+00 1.47942495e+00 1.57494879e+00 1.72491992e+00 2.05604434e+00 3.17669225e+00 
            </HistogramBinning>
          </PDF>
        </CumulativePDF_cls1>
        <CumulativePDF_cls2>
          <PDF Name="GaussTransform var0 cls2" MinNSmooth="0" MaxNSmooth="0" InterpolMethod="1" KDE_type="0" KDE_iter="1" KDE_border="1" KDE_finefactor="0.0000000000000000e+00">
            <Histogram Name="Cumulative_Var0_cls2_original" NBins="1870" XMin="-1.5955130577087402e+01" XMax="5.4274754524230957e+00" HasEquidistantBins="0">
