<?xml version="1.0"?>
<MethodSetup Method="BDT::BDT">
  <GeneralInfo>
    <Info name="TMVA Release" value="4.2.1 [262657]"/>
    <Info name="ROOT Release" value="6.12/06 [396294]"/>
    <Info name="Creator" value="xqian"/>
    <Info name="Date" value="Fri Jul 24 22:58:29 2020"/>
    <Info name="Host" value="Linux xqian 4.15.0-46-generic #49-Ubuntu SMP Wed Feb 6 09:33:07 UTC 2019 x86_64 x86_64 x86_64 GNU/Linux"/>
    <Info name="Dir" value="/home/xqian/wire-cell/wcp_dev/test_files/bdt_training/stw_tagger2"/>
    <Info name="Training events" value="30500"/>
    <Info name="TrainingTime" value="4.69993997e+00"/>
    <Info name="AnalysisType" value="Classification"/>
  </GeneralInfo>
  <Options>
    <Option name="V" modified="Yes">False</Option>
    <Option name="VerbosityLevel" modified="No">Default</Option>
    <Option name="VarTransform" modified="Yes">D,P,U,G,D,N</Option>
    <Option name="H" modified="Yes">False</Option>
    <Option name="CreateMVAPdfs" modified="No">False</Option>
    <Option name="IgnoreNegWeightsInTraining" modified="No">False</Option>
    <Option name="NTrees" modified="Yes">850</Option>
    <Option name="MaxDepth" modified="Yes">3</Option>
    <Option name="MinNodeSize" modified="Yes">2.5%</Option>
    <Option name="nCuts" modified="Yes">20</Option>
    <Option name="BoostType" modified="Yes">AdaBoost</Option>
    <Option name="AdaBoostR2Loss" modified="No">quadratic</Option>
    <Option name="UseBaggedBoost" modified="Yes">True</Option>
    <Option name="Shrinkage" modified="No">1.000000e+00</Option>
    <Option name="AdaBoostBeta" modified="Yes">5.000000e-01</Option>
    <Option name="UseRandomisedTrees" modified="No">False</Option>
    <Option name="UseNvars" modified="No">2</Option>
    <Option name="UsePoissonNvars" modified="No">True</Option>
    <Option name="BaggedSampleFraction" modified="Yes">5.000000e-01</Option>
    <Option name="UseYesNoLeaf" modified="No">True</Option>
    <Option name="NegWeightTreatment" modified="No">inverseboostnegweights</Option>
    <Option name="Css" modified="No">1.000000e+00</Option>
    <Option name="Cts_sb" modified="No">1.000000e+00</Option>
    <Option name="Ctb_ss" modified="No">1.000000e+00</Option>
    <Option name="Cbb" modified="No">1.000000e+00</Option>
    <Option name="NodePurityLimit" modified="No">5.000000e-01</Option>
    <Option name="SeparationType" modified="Yes">giniindex</Option>
    <Option name="RegressionLossFunctionBDTG" modified="No">huber</Option>
    <Option name="HuberQuantile" modified="No">7.000000e-01</Option>
    <Option name="DoBoostMonitor" modified="No">False</Option>
    <Option name="UseFisherCuts" modified="No">False</Option>
    <Option name="MinLinCorrForFisher" modified="No">8.000000e-01</Option>
    <Option name="UseExclusiveVars" modified="No">False</Option>
    <Option name="DoPreselection" modified="No">False</Option>
    <Option name="SigToBkgFraction" modified="No">1.000000e+00</Option>
    <Option name="PruneMethod" modified="No">nopruning</Option>
    <Option name="PruneStrength" modified="No">0.000000e+00</Option>
    <Option name="PruningValFraction" modified="No">5.000000e-01</Option>
    <Option name="SkipNormalization" modified="No">False</Option>
    <Option name="nEventsMin" modified="No">0</Option>
    <Option name="UseBaggedGrad" modified="No">False</Option>
    <Option name="GradBaggingFraction" modified="No">5.000000e-01</Option>
    <Option name="UseNTrainEvents" modified="No">0</Option>
    <Option name="NNodesMax" modified="No">0</Option>
  </Options>
  <Variables NVar="5">
    <Variable VarIndex="0" Expression="stw_2_v_medium_dQ_dx" Label="stw_2_v_medium_dQ_dx" Title="stw_2_v_medium_dQ_dx" Unit="MeV/cm" Internal="stw_2_v_medium_dQ_dx" Type="F" Min="-8.38598728e-01" Max="1.14143229e+01"/>
    <Variable VarIndex="1" Expression="stw_2_v_energy" Label="stw_2_v_energy" Title="stw_2_v_energy" Unit="MeV" Internal="stw_2_v_energy" Type="F" Min="6.20549927e+01" Max="5.24822803e+03"/>
    <Variable VarIndex="2" Expression="stw_2_v_angle" Label="stw_2_v_angle" Title="stw_2_v_angle" Unit="deg" Internal="stw_2_v_angle" Type="F" Min="0.00000000e+00" Max="1.79791672e+02"/>
    <Variable VarIndex="3" Expression="stw_2_v_dir_length" Label="stw_2_v_dir_length" Title="stw_2_v_dir_length" Unit="cm" Internal="stw_2_v_dir_length" Type="F" Min="0.00000000e+00" Max="1.02491211e+03"/>
    <Variable VarIndex="4" Expression="stw_2_v_max_dQ_dx" Label="stw_2_v_max_dQ_dx" Title="stw_2_v_max_dQ_dx" Unit="MeV/cm" Internal="stw_2_v_max_dQ_dx" Type="F" Min="2.01363534e-01" Max="3.03982754e+01"/>
  </Variables>
  <Spectators NSpec="0"/>
  <Classes NClass="2">
    <Class Name="Signal" Index="0"/>
    <Class Name="Background" Index="1"/>
  </Classes>
  <Transformations NTransformations="6">
    <Transform Name="Decorrelation">
      <Selection>
        <Input NInputs="5">
          <Input Type="Variable" Label="stw_2_v_medium_dQ_dx" Expression="stw_2_v_medium_dQ_dx"/>
          <Input Type="Variable" Label="stw_2_v_energy" Expression="stw_2_v_energy"/>
          <Input Type="Variable" Label="stw_2_v_angle" Expression="stw_2_v_angle"/>
          <Input Type="Variable" Label="stw_2_v_dir_length" Expression="stw_2_v_dir_length"/>
          <Input Type="Variable" Label="stw_2_v_max_dQ_dx" Expression="stw_2_v_max_dQ_dx"/>
        </Input>
        <Output NOutputs="5">
          <Output Type="Variable" Label="stw_2_v_medium_dQ_dx" Expression="stw_2_v_medium_dQ_dx"/>
          <Output Type="Variable" Label="stw_2_v_energy" Expression="stw_2_v_energy"/>
          <Output Type="Variable" Label="stw_2_v_angle" Expression="stw_2_v_angle"/>
          <Output Type="Variable" Label="stw_2_v_dir_length" Expression="stw_2_v_dir_length"/>
          <Output Type="Variable" Label="stw_2_v_max_dQ_dx" Expression="stw_2_v_max_dQ_dx"/>
        </Output>
      </Selection>
      <Matrix Rows="5" Columns="5">
        2.015335684160621e+00 -6.392105818404013e-05 3.711368254046846e-04 1.286702015254947e-04 -1.887651321273443e-01 -6.392105818404015e-05 1.425546698753197e-03 -3.810578816244298e-04 1.259042485473088e-06 -1.070364287081999e-04 3.711368254046847e-04 -3.810578816244299e-04 2.297596886339472e-02 2.351576228957334e-04 1.035411854848565e-03 1.286702015254947e-04 1.259042485473089e-06 2.351576228957334e-04 7.379104619835325e-03 2.053440300835134e-04 -1.887651321273443e-01 -1.070364287081998e-04 1.035411854848565e-03 2.053440300835134e-04 6.925373855991472e-01 
      </Matrix>
      <Matrix Rows="5" Columns="5">
        3.219340098030146e+00 -2.229131799823654e-03 2.421891710413095e-02 1.228225179950893e-03 -1.042523406410793e+00 -2.229131799823654e-03 8.030149130458950e-03 3.685466917661113e-04 -1.176157938222662e-03 -1.979545643373508e-03 2.421891710413095e-02 3.685466917661112e-04 1.998468572249482e-01 -3.895821262378826e-02 2.685414618097614e-02 1.228225179950893e-03 -1.176157938222662e-03 -3.895821262378826e-02 8.433157977794650e-02 -1.198914581686965e-02 -1.042523406410793e+00 -1.979545643373508e-03 2.685414618097614e-02 -1.198914581686964e-02 2.801332918041870e+00 
      </Matrix>
      <Matrix Rows="5" Columns="5">
        2.016332468910281e+00 -5.884122218207934e-05 8.543347158806336e-04 2.003044631171782e-04 -1.883238578918625e-01 -5.884122218207934e-05 1.424531538615711e-03 -4.196316118110782e-04 -1.556660535359612e-05 -1.114321805140604e-04 8.543347158806338e-04 -4.196316118110782e-04 2.230444201441129e-02 4.658911485255189e-05 8.059166043305979e-04 2.003044631171781e-04 -1.556660535359612e-05 4.658911485255189e-05 7.384327962137263e-03 1.702573699445883e-04 -1.883238578918625e-01 -1.114321805140604e-04 8.059166043305978e-04 1.702573699445883e-04 6.971581700652525e-01 
      </Matrix>
    </Transform>
    <Transform Name="PCA">
      <Selection>
        <Input NInputs="5">
          <Input Type="Variable" Label="stw_2_v_medium_dQ_dx" Expression="stw_2_v_medium_dQ_dx"/>
          <Input Type="Variable" Label="stw_2_v_energy" Expression="stw_2_v_energy"/>
          <Input Type="Variable" Label="stw_2_v_angle" Expression="stw_2_v_angle"/>
          <Input Type="Variable" Label="stw_2_v_dir_length" Expression="stw_2_v_dir_length"/>
          <Input Type="Variable" Label="stw_2_v_max_dQ_dx" Expression="stw_2_v_max_dQ_dx"/>
        </Input>
        <Output NOutputs="5">
          <Output Type="Variable" Label="stw_2_v_medium_dQ_dx" Expression="stw_2_v_medium_dQ_dx"/>
          <Output Type="Variable" Label="stw_2_v_energy" Expression="stw_2_v_energy"/>
          <Output Type="Variable" Label="stw_2_v_angle" Expression="stw_2_v_angle"/>
          <Output Type="Variable" Label="stw_2_v_dir_length" Expression="stw_2_v_dir_length"/>
          <Output Type="Variable" Label="stw_2_v_max_dQ_dx" Expression="stw_2_v_max_dQ_dx"/>
        </Output>
      </Selection>
      <Statistics Class="Signal" ClassIndex="0" NRows="5">
        2.26219983e+00 1.37100859e+00 2.14141841e+00 9.73758244e-01 1.23155287e+00 
      </Statistics>
      <Statistics Class="Background" ClassIndex="1" NRows="5">
        2.82069886e+00 2.37303424e-01 2.55554521e-02 6.34883777e-02 9.48802035e-01 
      </Statistics>
      <Statistics Class="Combined" ClassIndex="2" NRows="5">
        2.27135556e+00 1.35242326e+00 2.10673214e+00 9.58835787e-01 1.22691761e+00 
      </Statistics>
      <Eigenvectors Class="Signal" ClassIndex="0" NRows="5" NCols="5">
        8.81312042e-01 9.89122954e-02 4.51020806e-01 2.60663328e-02 -9.69856777e-02 -2.02672890e-01 -4.76417689e-01 5.80455631e-01 -5.91377185e-01 2.12824273e-01 2.33645726e-01 3.86300934e-01 -3.84676790e-01 -5.61045600e-01 5.77436459e-01 -3.34354674e-02 -8.81472504e-02 2.19026033e-01 5.78243802e-01 7.80239600e-01 3.55674752e-01 -7.78616847e-01 -5.13520065e-01 2.13427074e-02 5.56139316e-02 
      </Eigenvectors>
      <Eigenvectors Class="Background" ClassIndex="1" NRows="5" NCols="5">
        9.82941678e-01 -1.70918304e-01 6.68525796e-02 -1.19713073e-02 -1.02960282e-04 7.63716329e-02 1.47838343e-01 -8.30947427e-01 -4.82257256e-01 2.21958354e-01 -5.03177712e-02 -3.82731648e-02 5.20595204e-01 -6.82228892e-01 5.09458201e-01 -3.24323370e-03 6.07171937e-02 1.04263031e-01 -5.43785919e-01 -8.30499247e-01 1.59532548e-01 9.71483065e-01 1.52206964e-01 7.83915821e-02 3.81814254e-02 
      </Eigenvectors>
      <Eigenvectors Class="Combined" ClassIndex="2" NRows="5" NCols="5">
        -9.54852492e-01 1.22064759e-01 -7.80748842e-02 2.58432716e-01 2.17659693e-02 1.97168506e-01 -3.57187746e-01 -4.46868419e-01 7.36796852e-01 3.01629755e-01 3.94028969e-02 -9.73744647e-02 8.83103640e-01 4.53324995e-01 5.99169080e-02 5.19623355e-02 -7.87985461e-02 -9.11380803e-02 2.81726872e-01 -9.50481207e-01 -2.12434994e-01 -9.17510824e-01 7.76835909e-02 -3.24760448e-01 -3.92577757e-02 
      </Eigenvectors>
    </Transform>
    <Transform Name="Gauss" FlatOrGauss="Flat">
      <Selection>
        <Input NInputs="5">
          <Input Type="Variable" Label="stw_2_v_medium_dQ_dx" Expression="stw_2_v_medium_dQ_dx"/>
          <Input Type="Variable" Label="stw_2_v_energy" Expression="stw_2_v_energy"/>
          <Input Type="Variable" Label="stw_2_v_angle" Expression="stw_2_v_angle"/>
          <Input Type="Variable" Label="stw_2_v_dir_length" Expression="stw_2_v_dir_length"/>
          <Input Type="Variable" Label="stw_2_v_max_dQ_dx" Expression="stw_2_v_max_dQ_dx"/>
        </Input>
        <Output NOutputs="5">
          <Output Type="Variable" Label="stw_2_v_medium_dQ_dx" Expression="stw_2_v_medium_dQ_dx"/>
          <Output Type="Variable" Label="stw_2_v_energy" Expression="stw_2_v_energy"/>
          <Output Type="Variable" Label="stw_2_v_angle" Expression="stw_2_v_angle"/>
          <Output Type="Variable" Label="stw_2_v_dir_length" Expression="stw_2_v_dir_length"/>
          <Output Type="Variable" Label="stw_2_v_max_dQ_dx" Expression="stw_2_v_max_dQ_dx"/>
        </Output>
      </Selection>
      <Variable VarIndex="0">
        <CumulativePDF_cls0>
          <PDF Name="GaussTransform var0 cls0" MinNSmooth="0" MaxNSmooth="0" InterpolMethod="1" KDE_type="0" KDE_iter="1" KDE_border="1" KDE_finefactor="0.0000000000000000e+00">
            <Histogram Name="Cumulative_Var0_cls0_original" NBins="1916" XMin="-1.8584262847900391e+01" XMax="4.0008344650268555e+00" HasEquidistantBins="0">
              3.97749420e-04 8.61140783e-04 1.36707735e-03 1.89584726e-03 2.43189675e-03 2.96767848e-03 3.50335217e-03 4.03902587e-03 4.57469979e-03 5.11037325e-03 5.64604718e-03 6.18172064e-03 6.71739457e-03 7.25306803e-03 7.78874196e-03 8.32441542e-03 8.86008888e-03 9.39576328e-03 9.93143674e-03 1.04671102e-02 1.10008083e-02 1.15305539e-02 1.20549919e-02 1.25721255e-02 1.30866896e-02 1.36086084e-02 1.41397063e-02 1.46733625e-02 1.52087118e-02 1.57488044e-02 1.62884556e-02 1.68171208e-02 1.73310768e-02 1.78373065e-02 1.83433387e-02 1.88513640e-02 1.93603877e-02 1.98694095e-02 2.03790404e-02 2.08898857e-02 2.14013383e-02 2.19102874e-02 2.24142484e-02 2.29182933e-02 2.34325211e-02 2.39612535e-02 2.44972501e-02 2.50274967e-02 2.55469233e-02 2.60621551e-02 2.65783872e-02 2.70951185e-02 2.76118480e-02 2.81333160e-02 2.86642537e-02 2.91999262e-02 2.97356006e-02 3.02712750e-02 3.08066737e-02 3.13413776e-02 3.18756029e-02 3.24110836e-02 3.29485238e-02 3.34856659e-02 3.40186618e-02 3.45431119e-02 3.50597613e-02 3.55740078e-02 3.60883065e-02 3.66067402e-02 3.71350199e-02 3.76696475e-02 3.82004492e-02 3.87223847e-02 3.92387435e-02 3.97548079e-02 4.02728692e-02 4.07949425e-02 4.13240530e-02 4.18585949e-02 4.23935615e-02 4.29268181e-02 4.34600227e-02 4.39898707e-02 4.45079282e-02 4.50154878e-02 4.55220379e-02 4.60319147e-02 4.65439297e-02 4.70589437e-02 4.75764312e-02 4.80913594e-02 4.86007594e-02 4.91064973e-02 4.96130623e-02 5.01248203e-02 5.06416783e-02 5.11589758e-02 5.16743585e-02 5.21889478e-02 5.27060367e-02 5.32281213e-02 5.37527017e-02 5.42772859e-02 5.48018664e-02 5.53264506e-02 5.58514707e-02 5.63768893e-02 5.69018014e-02 5.74262403e-02 5.79506792e-02 5.84731251e-02 5.89915887e-02 5.95077835e-02 6.00231327e-02 6.05375767e-02 6.10504337e-02 6.15608208e-02 6.20699897e-02 6.25795573e-02 6.30899295e-02 6.35993779e-02 6.41059726e-02 6.46117032e-02 6.51206076e-02 6.56336024e-02 6.61481917e-02 6.66627809e-02 6.71773702e-02 6.76950663e-02 6.82189688e-02 6.87459856e-02 6.92751631e-02 6.98086694e-02 7.03443438e-02 7.08800182e-02 7.14156926e-02 7.19513670e-02 7.24870414e-02 7.30227157e-02 7.35583827e-02 7.40878731e-02 7.46048242e-02 7.51148313e-02 7.56237805e-02 7.61318728e-02 7.66390711e-02 7.71458074e-02 7.76525438e-02 7.81611204e-02 7.86775574e-02 7.92057812e-02 7.97403231e-02 8.02707300e-02 8.07928219e-02 8.13112780e-02 8.18293318e-02 8.23460743e-02 8.28613713e-02 8.33764076e-02 8.38914886e-02 8.44057873e-02 8.49200413e-02 8.54362696e-02 8.59546438e-02 8.64733085e-02 8.69916156e-02 8.75095278e-02 8.80266502e-02 8.85433853e-02 8.90601128e-02 8.95768479e-02 9.00935754e-02 9.06103104e-02 9.11270380e-02 9.16437656e-02 9.21605006e-02 9.26778391e-02 9.31963921e-02 9.37155485e-02 9.42347124e-02 9.47538689e-02 9.52730328e-02 9.57913175e-02 9.63078365e-02 9.68234837e-02 9.73391309e-02 9.78551582e-02 9.83720794e-02 9.88894254e-02 9.94058400e-02 9.99208614e-02 1.00435302e-01 1.00950465e-01 1.01467274e-01 1.01983063e-01 1.02493495e-01 1.03000358e-01 1.03510559e-01 1.04029723e-01 1.04558289e-01 1.05091043e-01 1.05620109e-01 1.06142186e-01 1.06658898e-01 1.07170433e-01 1.07678190e-01 1.08185060e-01 1.08692616e-01 1.09201238e-01 1.09710261e-01 1.10219285e-01 1.10728309e-01 1.11238725e-01 1.11751921e-01 1.12266511e-01 1.12781100e-01 1.13295689e-01 1.13812566e-01 1.14334010e-01 1.14855990e-01 1.15374476e-01 1.15891203e-01 1.16407938e-01 1.16924562e-01 1.17440380e-01 1.17954746e-01 1.18469045e-01 1.18986629e-01 1.19508609e-01 1.20031871e-01 1.20554112e-01 1.21075213e-01 1.21594854e-01 1.22113757e-01 1.22634411e-01 1.23158775e-01 1.23684943e-01 1.24208219e-01 1.24726124e-01 1.25240415e-01 1.25754818e-01 1.26271129e-01 1.26787722e-01 1.27302989e-01 1.27817497e-01 1.28331870e-01 1.28846183e-01 1.29360482e-01 1.29875392e-01 1.30391508e-01 1.30908236e-01 1.31427124e-01 1.31950930e-01 1.32477045e-01 1.32999197e-01 1.33515209e-01 1.34028658e-01 1.34542108e-01 1.35056987e-01 1.35574713e-01 1.36093870e-01 1.36613041e-01 1.37129813e-01 1.37641728e-01 1.38151050e-01 1.38658851e-01 1.39163777e-01 1.39668643e-01 1.40176266e-01 1.40686616e-01 1.41199932e-01 1.41714633e-01 1.42226711e-01 1.42734587e-01 1.43240869e-01 1.43747687e-01 1.44261912e-01 1.44791678e-01 1.45331115e-01 1.45871833e-01 1.46412507e-01 1.46947771e-01 1.47472128e-01 1.47988141e-01 1.48498416e-01 1.49005577e-01 1.49513796e-01 1.50027648e-01 1.50550961e-01 1.51080310e-01 1.51606098e-01 1.52122855e-01 1.52635515e-01 1.53153554e-01 1.53680369e-01 1.54212311e-01 1.54746890e-01 1.55282781e-01 1.55818686e-01 1.56350076e-01 1.56872213e-01 1.57389343e-01 1.57906219e-01 1.58423081e-01 1.58939570e-01 1.59455284e-01 1.59969568e-01 1.60481781e-01 1.60997972e-01 1.61526084e-01 1.62061766e-01 1.62592515e-01 1.63112283e-01 1.63624540e-01 1.64133266e-01 1.64640576e-01 1.65149406e-01 1.65665776e-01 1.66194826e-01 1.66730642e-01 1.67260200e-01 1.67778537e-01 1.68292880e-01 1.68808922e-01 1.69325799e-01 1.69842660e-01 1.70358941e-01 1.70873985e-01 1.71388432e-01 1.71902880e-01 1.72416046e-01 1.72926635e-01 1.73435941e-01 1.73945263e-01 1.74456462e-01 1.74971476e-01 1.75489008e-01 1.76008195e-01 1.76533386e-01 1.77069336e-01 1.77610993e-01 1.78146526e-01 1.78671539e-01 1.79189667e-01 1.79702967e-01 1.80213884e-01 1.80724800e-01 1.81235716e-01 1.81746751e-01 1.82258785e-01 1.82772368e-01 1.83286682e-01 1.83800980e-01 1.84315279e-01 1.84829652e-01 1.85344175e-01 1.85858756e-01 1.86380729e-01 1.86920688e-01 1.87473536e-01 1.88022614e-01 1.88556686e-01 1.89077601e-01 1.89593866e-01 1.90109342e-01 1.90624028e-01 1.91138342e-01 1.91652671e-01 1.92167044e-01 1.92684487e-01 1.93209335e-01 1.93739519e-01 1.94268718e-01 1.94793299e-01 1.95314556e-01 1.95835322e-01 1.96356848e-01 1.96879074e-01 1.97401330e-01 1.97922230e-01 1.98440954e-01 1.98958218e-01 1.99474722e-01 1.99990660e-01 2.00504392e-01 2.01014027e-01 2.01521486e-01 2.02030957e-01 2.02544004e-01 2.03058586e-01 2.03574330e-01 2.04092339e-01 2.04611540e-01 2.05130801e-01 2.05650106e-01 2.06169412e-01 2.06688762e-01 2.07208171e-01 2.07727656e-01 2.08247215e-01 2.08766773e-01 2.09286004e-01 2.09804311e-01 2.10321575e-01 2.10838452e-01 2.11355329e-01 2.11872205e-01 2.12389737e-01 2.12908611e-01 2.13427186e-01 2.13944316e-01 2.14458570e-01 2.14966878e-01 2.15472937e-01 2.15986267e-01 2.16509417e-01 2.17036426e-01 2.17563435e-01 2.18088493e-01 2.18609616e-01 2.19128132e-01 2.19645232e-01 2.20161393e-01 2.20676988e-01 2.21191719e-01 2.21706063e-01 2.22220466e-01 2.22737208e-01 2.23259240e-01 2.23784089e-01 2.24305436e-01 2.24820361e-01 2.25331321e-01 2.25840867e-01 2.26349816e-01 2.26858914e-01 2.27368236e-01 2.27877542e-01 2.28388742e-01 2.28905141e-01 2.29426280e-01 2.29948848e-01 2.30471402e-01 2.30991870e-01 2.31508136e-01 2.32022136e-01 2.32535839e-01 2.33049586e-01 2.33563811e-01 2.34079048e-01 2.34595910e-01 2.35116839e-01 2.35644549e-01 2.36174330e-01 2.36698776e-01 2.37217069e-01 2.37752751e-01 2.38334179e-01 2.38941550e-01 2.39522278e-01 2.40055770e-01 2.40568444e-01 2.41080880e-01 2.41591960e-01 2.42102712e-01 2.42616624e-01 2.43135154e-01 2.43656754e-01 2.44177669e-01 2.44695261e-01 2.45210111e-01 2.45723769e-01 2.46237114e-01 2.46749997e-01 2.47261703e-01 2.47772455e-01 2.48283476e-01 2.48795435e-01 2.49310941e-01 2.49832660e-01 2.50352770e-01 2.50863433e-01 2.51374066e-01 2.51894176e-01 2.52419233e-01 2.52944887e-01 2.53470004e-01 2.53991008e-01 2.54505366e-01 2.55015254e-01 2.55525380e-01 2.56039172e-01 2.56556153e-01 2.57073611e-01 2.57590771e-01 2.58107126e-01 2.58621663e-01 2.59135306e-01 2.59650558e-01 2.60168701e-01 2.60688484e-01 2.61207193e-01 2.61723429e-01 2.62238085e-01 2.62752533e-01 2.63267547e-01 2.63783425e-01 2.64300376e-01 2.64818758e-01 2.65337765e-01 2.65856594e-01 2.66372889e-01 2.66884357e-01 2.67393380e-01 2.67902404e-01 2.68412530e-01 2.68925160e-01 2.69439369e-01 2.69953787e-01 2.70468235e-01 2.70982385e-01 2.71495879e-01 2.72008657e-01 2.72520632e-01 2.73033082e-01 2.73548394e-01 2.74067223e-01 2.74587721e-01 2.75105983e-01 2.75618672e-01 2.76126415e-01 2.76633143e-01 2.77143776e-01 2.77661413e-01 2.78183490e-01 2.78706014e-01 2.79228568e-01 2.79751837e-01 2.80275285e-01 2.80798763e-01 2.81322330e-01 2.81845272e-01 2.82366961e-01 2.82887787e-01 2.83407658e-01 2.83926070e-01 2.84443885e-01 2.84961671e-01 2.85479635e-01 2.86000699e-01 2.86527634e-01 2.87055820e-01 2.87576020e-01 2.88086116e-01 2.88592607e-01 2.89099336e-01 2.89606065e-01 2.90112555e-01 2.90618539e-01 2.91126013e-01 2.91639090e-01 2.92159408e-01 2.92684138e-01 2.93208838e-01 2.93729126e-01 2.94242293e-01 2.94750541e-01 2.95258611e-01 2.95767516e-01 2.96283782e-01 2.96814799e-01 2.97353178e-01 2.97891587e-01 2.98429966e-01 2.98964888e-01 2.99492836e-01 3.00014853e-01 3.00531954e-01 3.01047087e-01 3.01563263e-01 3.02079797e-01 3.02595943e-01 3.03111225e-01 3.03625137e-01 3.04138452e-01 3.04651797e-01 3.05165142e-01 3.05678457e-01 3.06191951e-01 3.06706637e-01 3.07223171e-01 3.07740360e-01 3.08257371e-01 3.08774382e-01 3.09290439e-01 3.09804142e-01 3.10315609e-01 3.10825765e-01 3.11335385e-01 3.11844856e-01 3.12354833e-01 3.12865883e-01 3.13379139e-01 3.13895285e-01 3.14414680e-01 3.14938605e-01 3.15465271e-01 3.15989584e-01 3.16509485e-01 3.17027211e-01 3.17544520e-01 3.18058878e-01 3.18567127e-01 3.19071352e-01 3.19575518e-01 3.20081502e-01 3.20589185e-01 3.21099192e-01 3.21616262e-01 3.22142631e-01 3.22673500e-01 3.23201060e-01 3.23719680e-01 3.24230462e-01 3.24739218e-01 3.25248808e-01 3.25757474e-01 3.26263219e-01 3.26768577e-01 3.27278554e-01 3.27794284e-01 3.28312486e-01 3.28830838e-01 3.29349190e-01 3.29869062e-01 3.30391973e-01 3.30916405e-01 3.31440866e-01 3.31965297e-01 3.32486272e-01 3.33000332e-01 3.33510578e-01 3.34019989e-01 3.34528893e-01 3.35039854e-01 3.35554689e-01 3.36071402e-01 3.36588532e-01 3.37106466e-01 3.37624758e-01 3.38143080e-01 3.38661373e-01 3.39178801e-01 3.39694440e-01 3.40209216e-01 3.40723991e-01 3.41238767e-01 3.41753811e-01 3.42269659e-01 3.42786491e-01 3.43303651e-01 3.43820810e-01 3.44337970e-01 3.44854593e-01 3.45370054e-01 3.45884979e-01 3.46399903e-01 3.46914798e-01 3.47430229e-01 3.47947240e-01 3.48466158e-01 3.48985791e-01 3.49504858e-01 3.50022882e-01 3.50540638e-01 3.51058781e-01 3.51577073e-01 3.52095395e-01 3.52613688e-01 3.53132844e-01 3.53653938e-01 3.54176223e-01 3.54698062e-01 3.55218798e-01 3.55737686e-01 3.56253833e-01 3.56768608e-01 3.57283384e-01 3.57798159e-01 3.58314455e-01 3.58833790e-01 3.59354675e-01 3.59875560e-01 3.60396445e-01 3.60919774e-01 3.61448497e-01 3.61979246e-01 3.62504244e-01 3.63020390e-01 3.63531858e-01 3.64041030e-01 3.64546478e-01 3.65050524e-01 3.65558565e-01 3.66073281e-01 3.66591871e-01 3.67109388e-01 3.67624074e-01 3.68137568e-01 3.68651062e-01 3.69170398e-01 3.69703680e-01 3.70245576e-01 3.70781302e-01 3.71304989e-01 3.71820748e-01 3.72330427e-01 3.72837007e-01 3.73348445e-01 3.73870790e-01 3.74403715e-01 3.74941289e-01 3.75475526e-01 3.76000851e-01 3.76519024e-01 3.77035201e-01 3.77552271e-01 3.78071159e-01 3.78591090e-01 3.79111141e-01 3.79631013e-01 3.80150348e-01 3.80668312e-01 3.81184399e-01 3.81699413e-01 3.82214576e-01 3.82730603e-01 3.83248776e-01 3.83771211e-01 3.84296507e-01 3.84819984e-01 3.85338992e-01 3.85854274e-01 3.86368483e-01 3.86883736e-01 3.87399793e-01 3.87915641e-01 3.88432294e-01 3.88951570e-01 3.89472455e-01 3.89991730e-01 3.90508145e-01 3.91023457e-01 3.91538978e-01 3.92054647e-01 3.92569095e-01 3.93080920e-01 3.93592119e-01 3.94107282e-01 3.94627810e-01 3.95152122e-01 3.95682961e-01 3.96223009e-01 3.96765262e-01 3.97298038e-01 3.97816598e-01 3.98326069e-01 3.98835093e-01 3.99351925e-01 3.99878919e-01 4.00410086e-01 4.00942504e-01 4.01477456e-01 4.02009845e-01 4.02532905e-01 4.03048933e-01 4.03566003e-01 4.04086649e-01 4.04607058e-01 4.05126214e-01 4.05649304e-01 4.06181723e-01 4.06720251e-01 4.07255262e-01 4.07782495e-01 4.08305973e-01 4.08832312e-01 4.09364790e-01 4.09898937e-01 4.10427094e-01 4.10945088e-01 4.11454856e-01 4.11961526e-01 4.12468433e-01 4.12976593e-01 4.13488060e-01 4.14005309e-01 4.14525658e-01 4.15043861e-01 4.15558487e-01 4.16071713e-01 4.16585654e-01 4.17100906e-01 4.17616814e-01 4.18132842e-01 4.18650031e-01 4.19170201e-01 4.19692874e-01 4.20215517e-01 4.20737028e-01 4.21258062e-01 4.21779066e-01 4.22300100e-01 4.22820061e-01 4.23337847e-01 4.23854589e-01 4.24371332e-01 4.24891025e-01 4.25417751e-01 4.25948590e-01 4.26475763e-01 4.26996291e-01 4.27513748e-01 4.28030640e-01 4.28547025e-01 4.29061592e-01 4.29572821e-01 4.30082440e-01 4.30592030e-01 4.31103081e-01 4.31620687e-01 4.32146937e-01 4.32676822e-01 4.33206677e-01 4.33736563e-01 4.34263140e-01 4.34783101e-01 4.35299754e-01 4.35816437e-01 4.36333597e-01 4.36852962e-01 4.37375247e-01 4.37898695e-01 4.38422143e-01 4.38945591e-01 4.39469278e-01 4.39993650e-01 4.40518677e-01 4.41040516e-01 4.41554576e-01 4.42063421e-01 4.42574024e-01 4.43089217e-01 4.43606585e-01 4.44125742e-01 4.44648147e-01 4.45171714e-01 4.45695281e-01 4.46215600e-01 4.46726739e-01 4.47231323e-01 4.47739273e-01 4.48256135e-01 4.48778421e-01 4.49298739e-01 4.49813694e-01 4.50327247e-01 4.50845897e-01 4.51372087e-01 4.51901972e-01 4.52428579e-01 4.52948570e-01 4.53464866e-01 4.53980744e-01 4.54496622e-01 4.55012500e-01 4.55526441e-01 4.56035703e-01 4.56541330e-01 4.57047075e-01 4.57556576e-01 4.58070934e-01 4.58587229e-01 4.59103942e-01 4.59622473e-01 4.60143268e-01 4.60665017e-01 4.61186737e-01 4.61708486e-01 4.62229043e-01 4.62747425e-01 4.63264793e-01 4.63781983e-01 4.64298993e-01 4.64809179e-01 4.65303987e-01 4.65791970e-01 4.66293722e-01 4.66816008e-01 4.67345029e-01 4.67870295e-01 4.68393654e-01 4.68915284e-01 4.69431758e-01 4.69942927e-01 4.70452219e-01 4.70961541e-01 4.71470863e-01 4.71979588e-01 4.72487181e-01 4.72994208e-01 4.73501235e-01 4.74008232e-01 4.74515170e-01 4.75022048e-01 4.75528747e-01 4.76035058e-01 4.76541370e-01 4.77051675e-01 4.77570593e-01 4.78095025e-01 4.78616565e-01 4.79130983e-01 4.79641855e-01 4.80154634e-01 4.80671287e-01 4.81190473e-01 4.81708109e-01 4.82222140e-01 4.82734323e-01 4.83246028e-01 4.83757496e-01 4.84268934e-01 4.84780401e-01 4.85292584e-01 4.85806286e-01 4.86320734e-01 4.86835182e-01 4.87349629e-01 4.87864077e-01 4.88378525e-01 4.88892972e-01 4.89408493e-01 4.89926159e-01 4.90444899e-01 4.90963638e-01 4.91482377e-01 4.91999149e-01 4.92512017e-01 4.93022919e-01 4.93533850e-01 4.94046688e-01 4.94563341e-01 4.95081931e-01 4.95602489e-01 4.96127278e-01 4.96653616e-01 4.97175455e-01 4.97690648e-01 4.98202980e-01 4.98715341e-01 4.99228299e-01 4.99742508e-01 5.00258625e-01 5.00777841e-01 5.01298964e-01 5.01818717e-01 5.02335608e-01 5.02851069e-01 5.03366351e-01 5.03883004e-01 5.04405022e-01 5.04934132e-01 5.05465746e-01 5.05992174e-01 5.06509483e-01 5.07020295e-01 5.07528961e-01 5.08038282e-01 5.08550048e-01 5.09064436e-01 5.09580255e-01 5.10096669e-01 5.10613441e-01 5.11130393e-01 5.11647403e-01 5.12164176e-01 5.12680829e-01 5.13197899e-01 5.13715088e-01 5.14230847e-01 5.14745057e-01 5.15259087e-01 5.15773416e-01 5.16287684e-01 5.16802013e-01 5.17316341e-01 5.17830610e-01 5.18344939e-01 5.18859208e-01 5.19373357e-01 5.19887269e-01 5.20401716e-01 5.20917773e-01 5.21434605e-01 5.21950483e-01 5.22464871e-01 5.22978723e-01 5.23492754e-01 5.24006784e-01 5.24522424e-01 5.25041282e-01 5.25561690e-01 5.26082158e-01 5.26602268e-01 5.27121782e-01 5.27640939e-01 5.28160095e-01 5.28679252e-01 5.29198468e-01 5.29717863e-01 5.30235648e-01 5.30750096e-01 5.31266868e-01 5.31791687e-01 5.32317579e-01 5.32837570e-01 5.33354640e-01 5.33871472e-01 5.34387648e-01 5.34903705e-01 5.35420656e-01 5.35938859e-01 5.36457479e-01 5.36974669e-01 5.37489176e-01 5.38001716e-01 5.38513601e-01 5.39025903e-01 5.39539218e-01 5.40051937e-01 5.40561855e-01 5.41070998e-01 5.41584015e-01 5.42103291e-01 5.42626917e-01 5.43151677e-01 5.43676376e-01 5.44198513e-01 5.44715583e-01 5.45229971e-01 5.45744419e-01 5.46258867e-01 5.46773314e-01 5.47291338e-01 5.47818124e-01 5.48352063e-01 5.48887730e-01 5.49423397e-01 5.49953938e-01 5.50473154e-01 5.50985336e-01 5.51495314e-01 5.52002192e-01 5.52507937e-01 5.53017437e-01 5.53534269e-01 5.54057181e-01 5.54582000e-01 5.55106640e-01 5.55631220e-01 5.56155801e-01 5.56680381e-01 5.57202876e-01 5.57721019e-01 5.58237016e-01 5.58752716e-01 5.59267640e-01 5.59780300e-01 5.60289145e-01 5.60796022e-01 5.61302900e-01 5.61809778e-01 5.62317014e-01 5.62828958e-01 5.63349366e-01 5.63873827e-01 5.64398289e-01 5.64922690e-01 5.65447152e-01 5.65969586e-01 5.66490769e-01 5.67012548e-01 5.67534328e-01 5.68056166e-01 5.68574131e-01 5.69087029e-01 5.69598734e-01 5.70110440e-01 5.70622146e-01 5.71135938e-01 5.71654737e-01 5.72176635e-01 5.72696328e-01 5.73211610e-01 5.73724926e-01 5.74238181e-01 5.74751377e-01 5.75264573e-01 5.75778306e-01 5.76293528e-01 5.76810062e-01 5.77326775e-01 5.77842414e-01 5.78356504e-01 5.78870237e-01 5.79384327e-01 5.79898596e-01 5.80412924e-01 5.80927432e-01 5.81442118e-01 5.81956923e-01 5.82471669e-01 5.82986474e-01 5.83501160e-01 5.84015667e-01 5.84530115e-01 5.85044563e-01 5.85558951e-01 5.86073339e-01 5.86586833e-01 5.87098837e-01 5.87610006e-01 5.88120043e-01 5.88627815e-01 5.89134395e-01 5.89640975e-01 5.90155900e-01 5.90690613e-01 5.91239393e-01 5.91785312e-01 5.92320979e-01 5.92850804e-01 5.93375802e-01 5.93895614e-01 5.94414175e-01 5.94931126e-01 5.95445335e-01 5.95958710e-01 5.96472025e-01 5.96985400e-01 5.97498715e-01 5.98011851e-01 5.98524392e-01 5.99036753e-01 5.99549115e-01 6.00061476e-01 6.00572228e-01 6.01079285e-01 6.01583838e-01 6.02089107e-01 6.02596760e-01 6.03105724e-01 6.03616178e-01 6.04129195e-01 6.04643464e-01 6.05157793e-01 6.05672121e-01 6.06186390e-01 6.06700718e-01 6.07214987e-01 6.07729375e-01 6.08244181e-01 6.08759761e-01 6.09275639e-01 6.09791756e-01 6.10308230e-01 6.10825002e-01 6.11341715e-01 6.11859024e-01 6.12377644e-01 6.12896621e-01 6.13411427e-01 6.13919377e-01 6.14426613e-01 6.14944696e-01 6.15478456e-01 6.16019487e-01 6.16552889e-01 6.17072999e-01 6.17587268e-01 6.18101656e-01 6.18616343e-01 6.19131148e-01 6.19644105e-01 6.20153844e-01 6.20662034e-01 6.21170163e-01 6.21679902e-01 6.22192681e-01 6.22707129e-01 6.23221576e-01 6.23736024e-01 6.24255776e-01 6.24786139e-01 6.25321805e-01 6.25857472e-01 6.26393139e-01 6.26921594e-01 6.27435565e-01 6.27942264e-01 6.28449023e-01 6.28955781e-01 6.29462481e-01 6.29969835e-01 6.30480051e-01 6.30995035e-01 6.31513059e-01 6.32031679e-01 6.32550299e-01 6.33066595e-01 6.33578122e-01 6.34087265e-01 6.34596467e-01 6.35105610e-01 6.35614753e-01 6.36123776e-01 6.36632740e-01 6.37143672e-01 6.37658477e-01 6.38175189e-01 6.38691962e-01 6.39208674e-01 6.39725387e-01 6.40242159e-01 6.40758872e-01 6.41275585e-01 6.41792297e-01 6.42313838e-01 6.42844856e-01 6.43380642e-01 6.43916368e-01 6.44452035e-01 6.44985437e-01 6.45514369e-01 6.46044075e-01 6.46579921e-01 6.47115767e-01 6.47640586e-01 6.48153543e-01 6.48663938e-01 6.49175704e-01 6.49687767e-01 6.50199950e-01 6.50711477e-01 6.51221037e-01 6.51729584e-01 6.52239978e-01 6.52752876e-01 6.53267145e-01 6.53782248e-01 6.54302776e-01 6.54833436e-01 6.55369163e-01 6.55905008e-01 6.56440854e-01 6.56976640e-01 6.57512367e-01 6.58048034e-01 6.58583701e-01 6.59119368e-01 6.59655094e-01 6.60190761e-01 6.60727262e-01 6.61265552e-01 6.61802113e-01 6.62329674e-01 6.62846446e-01 6.63359582e-01 6.63879931e-01 6.64411068e-01 6.64946735e-01 6.65482461e-01 6.66018188e-01 6.66550457e-01 6.67074680e-01 6.67589426e-01 6.68095469e-01 6.68600976e-01 6.69116855e-01 6.69643700e-01 6.70173824e-01 6.70697153e-01 6.71211839e-01 6.71725094e-01 6.72239661e-01 6.72754169e-01 6.73268020e-01 6.73780382e-01 6.74291372e-01 6.74802184e-01 6.75313950e-01 6.75827205e-01 6.76340759e-01 6.76851273e-01 6.77357793e-01 6.77863717e-01 6.78373277e-01 6.78887308e-01 6.79402947e-01 6.79917753e-01 6.80432200e-01 6.80951953e-01 6.81482315e-01 6.82017982e-01 6.82553649e-01 6.83089316e-01 6.83624983e-01 6.84157968e-01 6.84685409e-01 6.85207546e-01 6.85724616e-01 6.86238945e-01 6.86753273e-01 6.87267542e-01 6.87781870e-01 6.88296139e-01 6.88815832e-01 6.89346313e-01 6.89882159e-01 6.90417945e-01 6.90953612e-01 6.91489339e-01 6.92025006e-01 6.92560673e-01 6.93096399e-01 6.93632185e-01 6.94168031e-01 6.94703877e-01 6.95239604e-01 6.95775270e-01 6.96310937e-01 6.96846604e-01 6.97382271e-01 6.97917938e-01 6.98453605e-01 6.98989332e-01 6.99524999e-01 7.00055301e-01 7.00574934e-01 7.01089263e-01 7.01603532e-01 7.02117920e-01 7.02631533e-01 7.03143060e-01 7.03653634e-01 7.04166710e-01 7.04684019e-01 7.05203414e-01 7.05720603e-01 7.06234336e-01 7.06746519e-01 7.07259953e-01 7.07775712e-01 7.08293200e-01 7.08812058e-01 7.09335387e-01 7.09866226e-01 7.10402369e-01 7.10938215e-01 7.11470902e-01 7.11999655e-01 7.12523639e-01 7.13045239e-01 7.13566840e-01 7.14088380e-01 7.14614093e-01 7.15149403e-01 7.15690434e-01 7.16226578e-01 7.16753781e-01 7.17277110e-01 7.17800438e-01 7.18326867e-01 7.18859494e-01 7.19395161e-01 7.19930828e-01 7.20466495e-01 7.20996320e-01 7.21514344e-01 7.22026289e-01 7.22537041e-01 7.23045170e-01 7.23551929e-01 7.24058628e-01 7.24565387e-01 7.25072145e-01 7.25581467e-01 7.26094961e-01 7.26614177e-01 7.27143705e-01 7.27679491e-01 7.28210151e-01 7.28732169e-01 7.29247570e-01 7.29756594e-01 7.30265617e-01 7.30785251e-01 7.31316566e-01 7.31852233e-01 7.32387900e-01 7.32923627e-01 7.33459294e-01 7.33994961e-01 7.34524786e-01 7.35042989e-01 7.35554934e-01 7.36067951e-01 7.36580968e-01 7.37089574e-01 7.37597406e-01 7.38115311e-01 7.38646090e-01 7.39181995e-01 7.39717841e-01 7.40250349e-01 7.40776181e-01 7.41295755e-01 7.41809547e-01 7.42323399e-01 7.42842972e-01 7.43368745e-01 7.43901134e-01 7.44436800e-01 7.44972467e-01 7.45508134e-01 7.46043861e-01 7.46579647e-01 7.47115552e-01 7.47651398e-01 7.48187184e-01 7.48723030e-01 7.49258816e-01 7.49794543e-01 7.50330210e-01 7.50865877e-01 7.51401544e-01 7.51937211e-01 7.52472878e-01 7.53008544e-01 7.53544211e-01 7.54079938e-01 7.54615605e-01 7.55151212e-01 7.55686879e-01 7.56222546e-01 7.56758332e-01 7.57294178e-01 7.57829905e-01 7.58365631e-01 7.58895934e-01 7.59415567e-01 7.59929836e-01 7.60444164e-01 7.60958493e-01 7.61478126e-01 7.62008429e-01 7.62544096e-01 7.63079762e-01 7.63615489e-01 7.64143646e-01 7.64656901e-01 7.65162587e-01 7.65668333e-01 7.66181588e-01 7.66709805e-01 7.67245650e-01 7.67781556e-01 7.68317521e-01 7.68848121e-01 7.69366026e-01 7.69874632e-01 7.70381212e-01 7.70887792e-01 7.71394432e-01 7.71901011e-01 7.72407591e-01 7.72914171e-01 7.73420811e-01 7.73927391e-01 7.74435937e-01 7.74953723e-01 7.75484085e-01 7.76019752e-01 7.76555419e-01 7.77091086e-01 7.77626812e-01 7.78162479e-01 7.78693438e-01 7.79214978e-01 7.79729664e-01 7.80238807e-01 7.80744493e-01 7.81252921e-01 7.81769097e-01 7.82293081e-01 7.82816291e-01 7.83329666e-01 7.83837914e-01 7.84355104e-01 7.84885466e-01 7.85421133e-01 7.85956860e-01 7.86492527e-01 7.87028193e-01 7.87563860e-01 7.88099587e-01 7.88635492e-01 7.89171457e-01 7.89707303e-01 7.90243089e-01 7.90778756e-01 7.91309059e-01 7.91828692e-01 7.92343020e-01 7.92857289e-01 7.93371618e-01 7.93891251e-01 7.94421613e-01 7.94957280e-01 7.95492947e-01 7.96028614e-01 7.96564341e-01 7.97100127e-01 7.97630727e-01 7.98150897e-01 7.98664987e-01 7.99176931e-01 7.99687684e-01 8.00199449e-01 8.00713062e-01 8.01232815e-01 8.01763177e-01 8.02298844e-01 8.02834511e-01 8.03370237e-01 8.03906143e-01 8.04434836e-01 8.04946542e-01 8.05448532e-01 8.05960178e-01 8.06488693e-01 8.07024419e-01 8.07560086e-01 8.08095753e-01 8.08631420e-01 8.09167087e-01 8.09702814e-01 8.10238600e-01 8.10774386e-01 8.11304927e-01 8.11823070e-01 8.12334120e-01 8.12852204e-01 8.13382745e-01 8.13918531e-01 8.14454198e-01 8.14989924e-01 8.15525591e-01 8.16061258e-01 8.16596925e-01 8.17132592e-01 8.17668259e-01 8.18203926e-01 8.18739593e-01 8.19275260e-01 8.19810987e-01 8.20346653e-01 8.20877552e-01 8.21397305e-01 8.21910679e-01 8.22430432e-01 8.22961330e-01 8.23496997e-01 8.24032724e-01 8.24568391e-01 8.25104058e-01 8.25639725e-01 8.26175392e-01 8.26710165e-01 8.27246428e-01 8.27788591e-01 8.28330457e-01 8.28857720e-01 8.29365551e-01 8.29866052e-01 8.30377519e-01 8.30906093e-01 8.31441939e-01 8.31977785e-01 8.32513571e-01 8.33049238e-01 8.33584905e-01 8.34120631e-01 8.34656298e-01 8.35191965e-01 8.35722148e-01 8.36239576e-01 8.36748600e-01 8.37260783e-01 8.37778568e-01 8.38295162e-01 8.38809490e-01 8.39323759e-01 8.39843452e-01 8.40373755e-01 8.40909421e-01 8.41445088e-01 8.41980755e-01 8.42516482e-01 8.43052268e-01 8.43588114e-01 8.44123900e-01 8.44659746e-01 8.45195532e-01 8.45731199e-01 8.46266866e-01 8.46802592e-01 8.47338259e-01 8.47873926e-01 8.48409593e-01 8.48945260e-01 8.49480927e-01 8.50016594e-01 8.50552261e-01 8.51087928e-01 8.51623654e-01 8.52159321e-01 8.52694988e-01 8.53230655e-01 8.53766322e-01 8.54301989e-01 8.54832351e-01 8.55351985e-01 8.55866253e-01 8.56382847e-01 8.56904030e-01 8.57422888e-01 8.57931972e-01 8.58438015e-01 8.58954310e-01 8.59484434e-01 8.60020101e-01 8.60555768e-01 8.61091495e-01 8.61627162e-01 8.62162828e-01 8.62698495e-01 8.63234162e-01 8.63769829e-01 8.64305496e-01 8.64841163e-01 8.65376830e-01 8.65905285e-01 8.66416693e-01 8.66918445e-01 8.67429912e-01 8.67958307e-01 8.68493974e-01 8.69029641e-01 8.69565308e-01 8.70100975e-01 8.70636642e-01 8.71172309e-01 8.71707976e-01 8.72243702e-01 8.72779369e-01 8.73315036e-01 8.73850703e-01 8.74386370e-01 8.74922037e-01 8.75457704e-01 8.75993371e-01 8.76529098e-01 8.77064764e-01 8.77600431e-01 8.78136098e-01 8.78671765e-01 8.79207432e-01 8.79743099e-01 8.80278766e-01 8.80814433e-01 8.81350160e-01 8.81885827e-01 8.82421494e-01 8.82957160e-01 8.83492827e-01 8.84028494e-01 8.84564161e-01 8.85099828e-01 8.85635495e-01 8.86171222e-01 8.86706889e-01 8.87242556e-01 8.87778223e-01 8.88313890e-01 8.88849556e-01 8.89385223e-01 8.89920890e-01 8.90456557e-01 8.90992284e-01 8.91527951e-01 8.92063618e-01 8.92599285e-01 8.93134952e-01 8.93670619e-01 8.94206285e-01 8.94736648e-01 8.95256400e-01 8.95770848e-01 8.96285295e-01 8.96805048e-01 8.97335410e-01 8.97871077e-01 8.98406804e-01 8.98942471e-01 8.99478137e-01 9.00013804e-01 9.00549471e-01 9.01085138e-01 9.01620805e-01 9.02156472e-01 9.02692139e-01 9.03227866e-01 9.03763533e-01 9.04299200e-01 9.04834867e-01 9.05370533e-01 9.05906200e-01 9.06441867e-01 9.06977534e-01 9.07513201e-01 9.08048928e-01 9.08584595e-01 9.09120262e-01 9.09655929e-01 9.10191596e-01 9.10727262e-01 9.11262929e-01 9.11798596e-01 9.12334263e-01 9.12869990e-01 9.13405657e-01 9.13941324e-01 9.14476991e-01 9.15012658e-01 9.15548325e-01 9.16083992e-01 9.16619658e-01 9.17155325e-01 9.17691052e-01 9.18226719e-01 9.18762386e-01 9.19298053e-01 9.19833720e-01 9.20369387e-01 9.20905054e-01 9.21440721e-01 9.21976447e-01 9.22512114e-01 9.23047781e-01 9.23583448e-01 9.24119115e-01 9.24654782e-01 9.25190449e-01 9.25726116e-01 9.26261783e-01 9.26797509e-01 9.27333176e-01 9.27868843e-01 9.28404510e-01 9.28932905e-01 9.29444373e-01 9.29946065e-01 9.30457532e-01 9.30985928e-01 9.31521595e-01 9.32057261e-01 9.32592928e-01 9.33128655e-01 9.33664322e-01 9.34199989e-01 9.34735656e-01 9.35271323e-01 9.35806990e-01 9.36342657e-01 9.36878324e-01 9.37413990e-01 9.37949717e-01 9.38485384e-01 9.39021051e-01 9.39556718e-01 9.40092385e-01 9.40628052e-01 9.41163719e-01 9.41699386e-01 9.42235112e-01 9.42770779e-01 9.43306446e-01 9.43842113e-01 9.44377780e-01 9.44913447e-01 9.45449114e-01 9.45984781e-01 9.46520448e-01 9.47056174e-01 9.47591841e-01 9.48127508e-01 9.48663175e-01 9.49198842e-01 9.49734509e-01 9.50270176e-01 9.50805843e-01 9.51341510e-01 9.51877236e-01 9.52412903e-01 9.52948570e-01 9.53484237e-01 9.54019904e-01 9.54555571e-01 9.55091238e-01 9.55626905e-01 9.56162572e-01 9.56698298e-01 9.57233965e-01 9.57769632e-01 9.58305299e-01 9.58840966e-01 9.59376633e-01 9.59912300e-01 9.60447967e-01 9.60983634e-01 9.61519361e-01 9.62055027e-01 9.62590694e-01 9.63126361e-01 9.63662028e-01 9.64197695e-01 9.64733362e-01 9.65269029e-01 9.65804696e-01 9.66340423e-01 9.66876090e-01 9.67411757e-01 9.67947423e-01 9.68483090e-01 9.69018757e-01 9.69554424e-01 9.70090091e-01 9.70625818e-01 9.71161485e-01 9.71697152e-01 9.72232819e-01 9.72768486e-01 9.73304152e-01 9.73839819e-01 9.74375486e-01 9.74911213e-01 9.75447059e-01 9.75982904e-01 9.76518691e-01 9.77054417e-01 9.77590084e-01 9.78125811e-01 9.78661478e-01 9.79197145e-01 9.79732811e-01 9.80268538e-01 9.80804265e-01 9.81333435e-01 9.81847048e-01 9.82351720e-01 9.82865274e-01 9.83394265e-01 9.83929932e-01 9.84465599e-01 9.85001266e-01 9.85536933e-01 9.86072600e-01 9.86608326e-01 9.87143993e-01 9.87679660e-01 9.88215327e-01 9.88750994e-01 9.89286661e-01 9.89822328e-01 9.90357995e-01 9.90893662e-01 9.91429389e-01 9.91965055e-01 9.92500842e-01 9.93036687e-01 9.93572474e-01 9.94108260e-01 9.94643986e-01 9.95179653e-01 9.95715320e-01 9.96250987e-01 9.96786654e-01 9.97322381e-01 9.97858047e-01 9.98393714e-01 9.98929381e-01 9.99464929e-01 1.00000000e+00 
            </Histogram>
            <HistogramBinning NBins="1916">
              -1.85842628e+01 -1.85841637e+01 -7.63216972e+00 -6.76798344e+00 -6.44720793e+00 -6.05171442e+00 -5.75168037e+00 -5.32424641e+00 -5.13649511e+00 -4.87599516e+00 -4.73256350e+00 -4.62924385e+00 -4.55700588e+00 -4.42566967e+00 -4.35533190e+00 -4.29940367e+00 -4.22363567e+00 -4.16401052e+00 -4.09890747e+00 -4.02487230e+00 -3.93371081e+00 -3.87724328e+00 -3.76956153e+00 -3.71889925e+00 -3.65680599e+00 -3.55534148e+00 -3.51918459e+00 -3.49041009e+00 -3.40804148e+00 -3.37856889e+00 -3.33791351e+00 -3.29180646e+00 -3.26285338e+00 -3.22519469e+00 -3.20800257e+00 -3.17220068e+00 -3.13333440e+00 -3.10574985e+00 -3.07564616e+00 -3.03757071e+00 -3.00476098e+00 -2.99068308e+00 -2.95929694e+00 -2.92795873e+00 -2.87728667e+00 -2.84908223e+00 -2.81938171e+00 -2.78143954e+00 -2.75543022e+00 -2.73625231e+00 -2.72123265e+00 -2.70315790e+00 -2.67755055e+00 -2.64876604e+00 -2.61844826e+00 -2.60019469e+00 -2.56909060e+00 -2.55312991e+00 -2.53261065e+00 -2.51910233e+00 -2.50625968e+00 -2.47964096e+00 -2.45122361e+00 -2.42208695e+00 -2.39762330e+00 -2.38326550e+00 -2.36299396e+00 -2.33344769e+00 -2.31389832e+00 -2.29948568e+00 -2.28088880e+00 -2.26722717e+00 -2.25941920e+00 -2.25284982e+00 -2.22835159e+00 -2.21524286e+00 -2.19609189e+00 -2.18490553e+00 -2.17232466e+00 -2.15903020e+00 -2.14134812e+00 -2.12320232e+00 -2.09800673e+00 -2.07669902e+00 -2.06361222e+00 -2.04259062e+00 -2.02214718e+00 -2.00938272e+00 -1.99687314e+00 -1.98373437e+00 -1.96919024e+00 -1.95699358e+00 -1.94518232e+00 -1.93119633e+00 -1.92185473e+00 -1.90175033e+00 -1.88392639e+00 -1.86701465e+00 -1.85717881e+00 -1.84386206e+00 -1.83332264e+00 -1.82177877e+00 -1.81236339e+00 -1.79909039e+00 -1.78627348e+00 -1.77357376e+00 -1.75821912e+00 -1.74346769e+00 -1.73252952e+00 -1.72077298e+00 -1.71120751e+00 -1.70097661e+00 -1.69143271e+00 -1.68012762e+00 -1.67198586e+00 -1.66132975e+00 -1.65164888e+00 -1.64030397e+00 -1.62839878e+00 -1.61530721e+00 -1.60718107e+00 -1.60053873e+00 -1.59202600e+00 -1.58674538e+00 -1.58221519e+00 -1.57408297e+00 -1.56727076e+00 -1.56054795e+00 -1.55243564e+00 -1.54560924e+00 -1.53800929e+00 -1.52884459e+00 -1.52125931e+00 -1.51342678e+00 -1.49776387e+00 -1.48734236e+00 -1.47827089e+00 -1.47028601e+00 -1.45983624e+00 -1.45015776e+00 -1.43842387e+00 -1.42564940e+00 -1.41671956e+00 -1.41044688e+00 -1.40291357e+00 -1.39487684e+00 -1.38901460e+00 -1.38280427e+00 -1.37560546e+00 -1.37158585e+00 -1.36597514e+00 -1.35851097e+00 -1.35354865e+00 -1.34673226e+00 -1.33813381e+00 -1.32916474e+00 -1.31862807e+00 -1.31128776e+00 -1.30162632e+00 -1.29000700e+00 -1.28141594e+00 -1.27450657e+00 -1.26944768e+00 -1.26184869e+00 -1.25625360e+00 -1.25021601e+00 -1.24378073e+00 -1.23902428e+00 -1.23386836e+00 -1.22912109e+00 -1.22510123e+00 -1.21955562e+00 -1.21124887e+00 -1.20394719e+00 -1.19559538e+00 -1.18758702e+00 -1.17803025e+00 -1.17315602e+00 -1.16554201e+00 -1.15907454e+00 -1.15278649e+00 -1.14423668e+00 -1.13994002e+00 -1.13567555e+00 -1.12718153e+00 -1.12024140e+00 -1.11243463e+00 -1.10936308e+00 -1.10421050e+00 -1.09771395e+00 -1.08958840e+00 -1.08497083e+00 -1.07585824e+00 -1.06897259e+00 -1.06469393e+00 -1.05801928e+00 -1.05377603e+00 -1.04701889e+00 -1.03588724e+00 -1.03264856e+00 -1.02848649e+00 -1.02531517e+00 -1.02094877e+00 -1.01622093e+00 -1.01208508e+00 -1.00743568e+00 -1.00283265e+00 -9.97427046e-01 -9.93628323e-01 -9.85830307e-01 -9.78080630e-01 -9.71308291e-01 -9.64285314e-01 -9.60203886e-01 -9.55810487e-01 -9.50711071e-01 -9.45331395e-01 -9.39027429e-01 -9.35619354e-01 -9.29368377e-01 -9.25371230e-01 -9.23168182e-01 -9.18234169e-01 -9.11475539e-01 -9.07849252e-01 -9.02740479e-01 -8.96735370e-01 -8.92588735e-01 -8.86958718e-01 -8.81025910e-01 -8.76553059e-01 -8.67601931e-01 -8.63170445e-01 -8.58149827e-01 -8.53372335e-01 -8.46489668e-01 -8.43181252e-01 -8.39671314e-01 -8.34862828e-01 -8.31731200e-01 -8.27287793e-01 -8.23145211e-01 -8.17666531e-01 -8.09899032e-01 -8.05362165e-01 -8.00544739e-01 -7.94149578e-01 -7.88165867e-01 -7.84914315e-01 -7.79794991e-01 -7.76333988e-01 -7.71315932e-01 -7.68798947e-01 -7.65164137e-01 -7.60610580e-01 -7.55273402e-01 -7.50849605e-01 -7.46905327e-01 -7.41295576e-01 -7.35408127e-01 -7.30835974e-01 -7.25471079e-01 -7.21022725e-01 -7.17154682e-01 -7.11760342e-01 -7.07191646e-01 -7.03388333e-01 -6.99957550e-01 -6.97244108e-01 -6.93186700e-01 -6.90697074e-01 -6.88010037e-01 -6.85113132e-01 -6.81860924e-01 -6.76646829e-01 -6.73135698e-01 -6.68843210e-01 -6.63946629e-01 -6.60509527e-01 -6.56146884e-01 -6.51568830e-01 -6.47680938e-01 -6.46386802e-01 -6.41542792e-01 -6.37576163e-01 -6.34567678e-01 -6.30855918e-01 -6.27430022e-01 -6.22761548e-01 -6.19628906e-01 -6.16448700e-01 -6.14661872e-01 -6.12752974e-01 -6.10337198e-01 -6.08343720e-01 -6.05381250e-01 -6.02742732e-01 -5.99346459e-01 -5.96746683e-01 -5.92949331e-01 -5.89175999e-01 -5.85780859e-01 -5.83794296e-01 -5.79983473e-01 -5.75263560e-01 -5.72353065e-01 -5.68605721e-01 -5.64917147e-01 -5.61049700e-01 -5.56084692e-01 -5.51306486e-01 -5.47276795e-01 -5.43869436e-01 -5.41597188e-01 -5.38056910e-01 -5.35762727e-01 -5.33554137e-01 -5.31087399e-01 -5.28258145e-01 -5.25782108e-01 -5.22889555e-01 -5.19525111e-01 -5.16056478e-01 -5.13415217e-01 -5.11137009e-01 -5.08603036e-01 -5.06229520e-01 -5.04019976e-01 -5.01527905e-01 -4.98888791e-01 -4.96680945e-01 -4.93741214e-01 -4.90298957e-01 -4.87776428e-01 -4.85887647e-01 -4.81764734e-01 -4.78385478e-01 -4.74973112e-01 -4.72405583e-01 -4.70667660e-01 -4.68467265e-01 -4.66478348e-01 -4.65085626e-01 -4.62217689e-01 -4.60706860e-01 -4.58354294e-01 -4.56121415e-01 -4.53620076e-01 -4.51954216e-01 -4.48112309e-01 -4.45502341e-01 -4.43347365e-01 -4.40038770e-01 -4.38157260e-01 -4.36964244e-01 -4.35178876e-01 -4.34786648e-01 -4.33029264e-01 -4.29655492e-01 -4.28603381e-01 -4.26104546e-01 -4.24800158e-01 -4.22328502e-01 -4.19934064e-01 -4.17442143e-01 -4.15458292e-01 -4.13028359e-01 -4.10628706e-01 -4.08414036e-01 -4.06586707e-01 -4.04896230e-01 -4.03002679e-01 -4.00511980e-01 -3.98177564e-01 -3.95792782e-01 -3.93017977e-01 -3.88948649e-01 -3.87407035e-01 -3.85372669e-01 -3.83417666e-01 -3.81810486e-01 -3.80281508e-01 -3.77321512e-01 -3.75331908e-01 -3.73243213e-01 -3.71658951e-01 -3.69780570e-01 -3.68692905e-01 -3.65834326e-01 -3.65280986e-01 -3.62803638e-01 -3.59442830e-01 -3.56784314e-01 -3.54503453e-01 -3.51599723e-01 -3.48770678e-01 -3.46213847e-01 -3.44569236e-01 -3.42742145e-01 -3.40322256e-01 -3.38593304e-01 -3.36331695e-01 -3.34196359e-01 -3.32085013e-01 -3.30033600e-01 -3.27311963e-01 -3.25044245e-01 -3.22325826e-01 -3.20295334e-01 -3.18579555e-01 -3.16388130e-01 -3.14773947e-01 -3.13392341e-01 -3.10803413e-01 -3.07909191e-01 -3.05928975e-01 -3.03768247e-01 -3.01915884e-01 -3.00129265e-01 -2.97409028e-01 -2.95857757e-01 -2.94511139e-01 -2.92447448e-01 -2.90398896e-01 -2.88355052e-01 -2.86369652e-01 -2.84101754e-01 -2.81731486e-01 -2.79486597e-01 -2.76990920e-01 -2.74909645e-01 -2.73412526e-01 -2.71317512e-01 -2.69934475e-01 -2.68263668e-01 -2.67081529e-01 -2.65097827e-01 -2.62731135e-01 -2.61456668e-01 -2.59851992e-01 -2.58236289e-01 -2.56218016e-01 -2.54394680e-01 -2.52242178e-01 -2.51451850e-01 -2.48814836e-01 -2.47744203e-01 -2.45824859e-01 -2.44455755e-01 -2.43003190e-01 -2.41728693e-01 -2.40612924e-01 -2.38106191e-01 -2.36645252e-01 -2.35425025e-01 -2.34092295e-01 -2.32393980e-01 -2.31416151e-01 -2.30711460e-01 -2.28582710e-01 -2.27713242e-01 -2.27625355e-01 -2.27003008e-01 -2.25619271e-01 -2.24448100e-01 -2.23309979e-01 -2.22226247e-01 -2.20639631e-01 -2.19185814e-01 -2.17711404e-01 -2.16351375e-01 -2.14455947e-01 -2.12298632e-01 -2.11053640e-01 -2.09992662e-01 -2.08420962e-01 -2.07759157e-01 -2.06156075e-01 -2.04572186e-01 -2.03417510e-01 -2.02422261e-01 -2.00814083e-01 -1.99488759e-01 -1.98037624e-01 -1.96030632e-01 -1.94480762e-01 -1.93242401e-01 -1.91279054e-01 -1.89540714e-01 -1.87618732e-01 -1.86271027e-01 -1.85209677e-01 -1.83495611e-01 -1.82395741e-01 -1.80889115e-01 -1.79785714e-01 -1.78014010e-01 -1.76138058e-01 -1.75318927e-01 -1.74006909e-01 -1.72458783e-01 -1.70800880e-01 -1.68882981e-01 -1.67488664e-01 -1.66115776e-01 -1.64428309e-01 -1.62386626e-01 -1.60504192e-01 -1.59042701e-01 -1.58190146e-01 -1.56444699e-01 -1.55071154e-01 -1.54049173e-01 -1.52622432e-01 -1.50672853e-01 -1.48644224e-01 -1.47109911e-01 -1.45038202e-01 -1.43864155e-01 -1.42496705e-01 -1.40818551e-01 -1.39947638e-01 -1.38862252e-01 -1.37272850e-01 -1.36250809e-01 -1.34871036e-01 -1.33543491e-01 -1.32530481e-01 -1.31236255e-01 -1.29851833e-01 -1.28306091e-01 -1.27569795e-01 -1.26588598e-01 -1.25225648e-01 -1.24082908e-01 -1.22584850e-01 -1.21562384e-01 -1.20529070e-01 -1.19040668e-01 -1.17768429e-01 -1.16806053e-01 -1.15769036e-01 -1.13991596e-01 -1.12196915e-01 -1.11219704e-01 -1.10044904e-01 -1.08598992e-01 -1.07317910e-01 -1.06307045e-01 -1.04892477e-01 -1.04177207e-01 -1.03184983e-01 -1.01854466e-01 -1.01027280e-01 -9.99896005e-02 -9.86707658e-02 -9.74141583e-02 -9.59364846e-02 -9.39241201e-02 -9.23765674e-02 -9.10349339e-02 -8.95091668e-02 -8.85704532e-02 -8.67616385e-02 -8.53696316e-02 -8.39699805e-02 -8.29133466e-02 -8.15268084e-02 -8.05872679e-02 -7.99996480e-02 -7.90951848e-02 -7.79768005e-02 -7.75411651e-02 -7.65872672e-02 -7.53435344e-02 -7.46748075e-02 -7.38063902e-02 -7.28846416e-02 -7.20677450e-02 -7.09860101e-02 -7.01157078e-02 -6.91961125e-02 -6.82709292e-02 -6.67805523e-02 -6.59284443e-02 -6.49829581e-02 -6.42401800e-02 -6.30944222e-02 -6.23166338e-02 -6.13890588e-02 -6.02559000e-02 -5.97457178e-02 -5.87534495e-02 -5.78294732e-02 -5.69511391e-02 -5.58005720e-02 -5.50220534e-02 -5.40958010e-02 -5.29506467e-02 -5.12065366e-02 -5.04406095e-02 -4.91195098e-02 -4.81212288e-02 -4.73163910e-02 -4.60280031e-02 -4.46540937e-02 -4.40295525e-02 -4.28294204e-02 -4.12963144e-02 -4.01588865e-02 -3.87640037e-02 -3.79037894e-02 -3.63620967e-02 -3.55256386e-02 -3.43593508e-02 -3.35340202e-02 -3.25860679e-02 -3.16205025e-02 -3.06119509e-02 -2.97673754e-02 -2.87483297e-02 -2.75662523e-02 -2.61698551e-02 -2.52012536e-02 -2.39369608e-02 -2.31522005e-02 -2.21866649e-02 -2.12967061e-02 -2.05971505e-02 -1.98361445e-02 -1.84093378e-02 -1.75466444e-02 -1.61617007e-02 -1.53823756e-02 -1.45390425e-02 -1.35291498e-02 -1.25307245e-02 -1.15959570e-02 -1.08730337e-02 -9.88077186e-03 -8.67029838e-03 -8.01551621e-03 -6.95272256e-03 -6.02073735e-03 -5.13512129e-03 -3.95828439e-03 -2.61618639e-03 -1.51854882e-03 -6.35171134e-04 3.83358245e-04 9.95850540e-04 2.14217813e-03 3.12192156e-03 3.71951028e-03 4.28117532e-03 5.17420517e-03 6.26916904e-03 7.39559811e-03 8.17557424e-03 8.75829067e-03 9.63980332e-03 1.06493374e-02 1.17581906e-02 1.22143421e-02 1.30496016e-02 1.34469038e-02 1.47649664e-02 1.55794071e-02 1.61976591e-02 1.71174984e-02 1.81189254e-02 1.91477370e-02 1.97049361e-02 2.06065401e-02 2.11934410e-02 2.21316926e-02 2.30852515e-02 2.38266997e-02 2.45984923e-02 2.55895332e-02 2.63705309e-02 2.73165740e-02 2.79087238e-02 2.87184268e-02 2.95426734e-02 3.04330550e-02 3.14998068e-02 3.22766788e-02 3.28921229e-02 3.42403501e-02 3.50732021e-02 3.60392630e-02 3.69847864e-02 3.77792865e-02 3.84704843e-02 3.96241136e-02 4.03005406e-02 4.09105904e-02 4.18607891e-02 4.24667075e-02 4.30595614e-02 4.35927920e-02 4.43434343e-02 4.54597473e-02 4.60317135e-02 4.63220663e-02 4.70483638e-02 4.79563326e-02 4.87873256e-02 5.01795821e-02 5.06014712e-02 5.16051203e-02 5.27151488e-02 5.32540604e-02 5.43762408e-02 5.53789176e-02 5.58456630e-02 5.67451641e-02 5.74308410e-02 5.81273623e-02 5.90231642e-02 6.02060966e-02 6.14113472e-02 6.23588376e-02 6.31638244e-02 6.38604164e-02 6.47687688e-02 6.59207329e-02 6.67058453e-02 6.76689520e-02 6.85593709e-02 6.94226623e-02 7.00006187e-02 7.09001571e-02 7.15340078e-02 7.22433254e-02 7.36918375e-02 7.40822330e-02 7.50239193e-02 7.60784000e-02 7.70679340e-02 7.74918348e-02 7.84065574e-02 7.89748877e-02 7.97695592e-02 8.08891281e-02 8.15056860e-02 8.21939707e-02 8.28235894e-02 8.37360695e-02 8.44053552e-02 8.54863152e-02 8.63664597e-02 8.74366611e-02 8.82132575e-02 8.90888795e-02 8.97954181e-02 9.07965228e-02 9.14467797e-02 9.24268216e-02 9.31241140e-02 9.39516500e-02 9.47986841e-02 9.49801877e-02 9.54505801e-02 9.64931622e-02 9.68620479e-02 9.72959697e-02 9.81010124e-02 9.87180322e-02 9.87287015e-02 9.99033004e-02 1.00754716e-01 1.01017103e-01 1.01727948e-01 1.02262862e-01 1.03179194e-01 1.03875414e-01 1.04536362e-01 1.04985841e-01 1.05362415e-01 1.06273659e-01 1.07073486e-01 1.07691199e-01 1.08407319e-01 1.09280869e-01 1.09857611e-01 1.10450171e-01 1.10993035e-01 1.11832820e-01 1.12465516e-01 1.13508336e-01 1.14092685e-01 1.15007319e-01 1.15472049e-01 1.16498664e-01 1.17125191e-01 1.18300423e-01 1.18379392e-01 1.19283065e-01 1.19938537e-01 1.21313728e-01 1.21805348e-01 1.22844443e-01 1.23299778e-01 1.24454550e-01 1.25249103e-01 1.26183197e-01 1.26718774e-01 1.27613053e-01 1.28357142e-01 1.29210845e-01 1.30283952e-01 1.30724683e-01 1.30950779e-01 1.31763890e-01 1.32464737e-01 1.33186072e-01 1.33914649e-01 1.34486780e-01 1.35472864e-01 1.36323065e-01 1.37359619e-01 1.38167918e-01 1.38604149e-01 1.39361024e-01 1.40183270e-01 1.40692636e-01 1.41509145e-01 1.42098397e-01 1.42546147e-01 1.43350497e-01 1.43933907e-01 1.44807637e-01 1.45385072e-01 1.46116555e-01 1.47154093e-01 1.48221195e-01 1.49017572e-01 1.49696514e-01 1.50406748e-01 1.51146933e-01 1.51685074e-01 1.52286306e-01 1.52983174e-01 1.53446451e-01 1.53822720e-01 1.54559061e-01 1.55317113e-01 1.56272754e-01 1.57177001e-01 1.57882333e-01 1.58421099e-01 1.59104273e-01 1.59616753e-01 1.60328001e-01 1.60872221e-01 1.60996512e-01 1.61752015e-01 1.62235513e-01 1.63079321e-01 1.63565755e-01 1.64164022e-01 1.64818943e-01 1.65592343e-01 1.66224226e-01 1.66686341e-01 1.67193860e-01 1.67857498e-01 1.68637335e-01 1.68949485e-01 1.69785678e-01 1.70751199e-01 1.71479762e-01 1.72122404e-01 1.72825366e-01 1.73358873e-01 1.74056113e-01 1.74534217e-01 1.75123364e-01 1.75662130e-01 1.76290646e-01 1.76940620e-01 1.77841738e-01 1.78487122e-01 1.79301441e-01 1.79791406e-01 1.80294350e-01 1.80844963e-01 1.81586683e-01 1.82070538e-01 1.82932526e-01 1.83514476e-01 1.84249803e-01 1.84599370e-01 1.85175613e-01 1.85290053e-01 1.86445296e-01 1.87323660e-01 1.87510848e-01 1.88336149e-01 1.88952222e-01 1.89716473e-01 1.90427572e-01 1.91096753e-01 1.91886604e-01 1.92652062e-01 1.93240017e-01 1.94223762e-01 1.94942057e-01 1.95523456e-01 1.96362957e-01 1.96763352e-01 1.97761685e-01 1.98378861e-01 1.99494541e-01 2.00071976e-01 2.00515315e-01 2.01172292e-01 2.01958835e-01 2.02709645e-01 2.03374863e-01 2.03782588e-01 2.04480022e-01 2.05287874e-01 2.06244364e-01 2.07030281e-01 2.08146736e-01 2.08518207e-01 2.08953246e-01 2.09562778e-01 2.10371867e-01 2.11201772e-01 2.11617619e-01 2.12509811e-01 2.13278517e-01 2.13876069e-01 2.14511409e-01 2.15143040e-01 2.15757117e-01 2.16162309e-01 2.16779009e-01 2.17424527e-01 2.18137845e-01 2.18608871e-01 2.19473124e-01 2.19977215e-01 2.20495328e-01 2.20977098e-01 2.21571207e-01 2.22180143e-01 2.22978875e-01 2.23555520e-01 2.24986985e-01 2.25850269e-01 2.26356372e-01 2.26630777e-01 2.27010950e-01 2.27369517e-01 2.27932319e-01 2.28533104e-01 2.28903085e-01 2.29452237e-01 2.29865268e-01 2.30216533e-01 2.30771244e-01 2.31246695e-01 2.31788799e-01 2.32442915e-01 2.33046949e-01 2.33507544e-01 2.34046966e-01 2.35006019e-01 2.35304072e-01 2.36192510e-01 2.36785293e-01 2.37384871e-01 2.37905666e-01 2.38502204e-01 2.39059180e-01 2.39622682e-01 2.40105540e-01 2.40807816e-01 2.41487563e-01 2.42288649e-01 2.42988393e-01 2.43450671e-01 2.44265065e-01 2.45027408e-01 2.45545641e-01 2.46156991e-01 2.46640310e-01 2.47016042e-01 2.47433528e-01 2.48173267e-01 2.48668864e-01 2.49297455e-01 2.49864325e-01 2.50423551e-01 2.51032323e-01 2.51747429e-01 2.52352238e-01 2.52925932e-01 2.53449172e-01 2.53856808e-01 2.54535258e-01 2.55141854e-01 2.55706817e-01 2.56374419e-01 2.57091999e-01 2.57556230e-01 2.57870644e-01 2.58446336e-01 2.58829415e-01 2.59214133e-01 2.59994805e-01 2.60871321e-01 2.61424184e-01 2.61987388e-01 2.62286156e-01 2.63001829e-01 2.63716519e-01 2.64373213e-01 2.65010536e-01 2.65513361e-01 2.65982777e-01 2.66529709e-01 2.66981542e-01 2.67564654e-01 2.68437415e-01 2.68949360e-01 2.69377440e-01 2.70003051e-01 2.70621896e-01 2.71144211e-01 2.71589458e-01 2.72450835e-01 2.73010433e-01 2.73540080e-01 2.74078280e-01 2.74547666e-01 2.74991840e-01 2.75564402e-01 2.76254267e-01 2.77040422e-01 2.77547508e-01 2.77891666e-01 2.78445005e-01 2.79074043e-01 2.79673457e-01 2.80221164e-01 2.81129152e-01 2.81850785e-01 2.82449812e-01 2.83143789e-01 2.83671439e-01 2.83961505e-01 2.84491688e-01 2.85468996e-01 2.86076099e-01 2.86643624e-01 2.87162393e-01 2.87728220e-01 2.88109094e-01 2.88817912e-01 2.89451510e-01 2.90032059e-01 2.90608525e-01 2.91057169e-01 2.91510552e-01 2.92084932e-01 2.92669207e-01 2.93529004e-01 2.94545293e-01 2.95075804e-01 2.95681536e-01 2.96353966e-01 2.96798289e-01 2.97283411e-01 2.98326015e-01 2.98685998e-01 2.99276114e-01 2.99807370e-01 3.00290465e-01 3.00794840e-01 3.01344693e-01 3.01993400e-01 3.03074628e-01 3.03595185e-01 3.03967595e-01 3.04554760e-01 3.05218667e-01 3.05649877e-01 3.06098342e-01 3.06891233e-01 3.07715625e-01 3.08194488e-01 3.08755189e-01 3.09566200e-01 3.10002148e-01 3.10649544e-01 3.11287135e-01 3.11826080e-01 3.12467456e-01 3.12978566e-01 3.13249648e-01 3.13761294e-01 3.14295471e-01 3.14945370e-01 3.15536022e-01 3.16026241e-01 3.16525698e-01 3.17204118e-01 3.17853659e-01 3.18429023e-01 3.19274724e-01 3.20145696e-01 3.20841908e-01 3.21580917e-01 3.22036505e-01 3.22467089e-01 3.23198527e-01 3.23868543e-01 3.24536532e-01 3.25122833e-01 3.25808913e-01 3.26180398e-01 3.26825887e-01 3.27593416e-01 3.28164637e-01 3.28902245e-01 3.29444230e-01 3.30077410e-01 3.30827117e-01 3.31261098e-01 3.31711590e-01 3.32749218e-01 3.33631814e-01 3.34249735e-01 3.34707171e-01 3.35122168e-01 3.35771054e-01 3.36343259e-01 3.37032080e-01 3.37653697e-01 3.38238984e-01 3.38711500e-01 3.39404643e-01 3.39760631e-01 3.40376437e-01 3.40905041e-01 3.41358423e-01 3.41864169e-01 3.42298925e-01 3.42770547e-01 3.43528569e-01 3.44090015e-01 3.44505727e-01 3.44996572e-01 3.45459491e-01 3.45882237e-01 3.45915109e-01 3.46430272e-01 3.47257793e-01 3.47826928e-01 3.48581135e-01 3.49226862e-01 3.49671364e-01 3.50497752e-01 3.51094574e-01 3.51654232e-01 3.52105349e-01 3.52789283e-01 3.53436679e-01 3.53874892e-01 3.54446650e-01 3.54979098e-01 3.55421156e-01 3.56069118e-01 3.56652677e-01 3.57393771e-01 3.58100504e-01 3.59090596e-01 3.59496206e-01 3.60513359e-01 3.60960573e-01 3.61803085e-01 3.62158924e-01 3.62960637e-01 3.63806933e-01 3.64339709e-01 3.65033895e-01 3.65935087e-01 3.66725862e-01 3.67186517e-01 3.67783427e-01 3.68594497e-01 3.69318396e-01 3.69861156e-01 3.70376229e-01 3.70757550e-01 3.71386349e-01 3.72014135e-01 3.72458279e-01 3.73187929e-01 3.73826653e-01 3.74364793e-01 3.74920368e-01 3.75419587e-01 3.75988096e-01 3.76580507e-01 3.77271771e-01 3.77710730e-01 3.78315866e-01 3.78912777e-01 3.79282147e-01 3.79852116e-01 3.80293489e-01 3.80804449e-01 3.81391764e-01 3.81918699e-01 3.82408619e-01 3.82941663e-01 3.83668393e-01 3.84316474e-01 3.84840757e-01 3.85317743e-01 3.85907978e-01 3.86709809e-01 3.87292594e-01 3.88103575e-01 3.88642132e-01 3.89113337e-01 3.89793694e-01 3.90503913e-01 3.90585065e-01 3.91044140e-01 3.91642421e-01 3.92422229e-01 3.93047512e-01 3.93945038e-01 3.94580990e-01 3.95177603e-01 3.96023601e-01 3.96582156e-01 3.97038788e-01 3.97673637e-01 3.98217171e-01 3.98888886e-01 3.99391651e-01 3.99986833e-01 4.00824398e-01 4.01480049e-01 4.02526826e-01 4.02946115e-01 4.03555870e-01 4.04336512e-01 4.05011564e-01 4.05610442e-01 4.06357884e-01 4.07207727e-01 4.07662541e-01 4.08054829e-01 4.08653766e-01 4.09165204e-01 4.09750521e-01 4.10421640e-01 4.11049604e-01 4.11514670e-01 4.12005335e-01 4.12550449e-01 4.13140982e-01 4.13708359e-01 4.14238304e-01 4.14801300e-01 4.15282398e-01 4.16168422e-01 4.17095661e-01 4.17609543e-01 4.18175697e-01 4.18948144e-01 4.19520319e-01 4.20148909e-01 4.20967430e-01 4.21400785e-01 4.22023982e-01 4.22561288e-01 4.23249185e-01 4.23857868e-01 4.24695611e-01 4.25056309e-01 4.25784618e-01 4.26327437e-01 4.26980108e-01 4.27390337e-01 4.28111881e-01 4.28616583e-01 4.29083645e-01 4.29935724e-01 4.30461764e-01 4.31113899e-01 4.31805819e-01 4.32314605e-01 4.32642817e-01 4.33117479e-01 4.33444232e-01 4.33920890e-01 4.34539139e-01 4.35326695e-01 4.35787201e-01 4.36601460e-01 4.37132925e-01 4.37682986e-01 4.38402563e-01 4.39250380e-01 4.39588666e-01 4.40021127e-01 4.40935105e-01 4.41487432e-01 4.42175537e-01 4.42738414e-01 4.43385780e-01 4.43994939e-01 4.44332749e-01 4.44871306e-01 4.45411801e-01 4.45901424e-01 4.46598202e-01 4.47141379e-01 4.47710574e-01 4.48411167e-01 4.48959470e-01 4.49895352e-01 4.50527847e-01 4.51402694e-01 4.52284247e-01 4.52941775e-01 4.53660697e-01 4.54074889e-01 4.54538852e-01 4.55226630e-01 4.55897689e-01 4.56508666e-01 4.56893325e-01 4.57375497e-01 4.57972556e-01 4.58694369e-01 4.59114552e-01 4.59998280e-01 4.60659742e-01 4.61354345e-01 4.61754769e-01 4.62659299e-01 4.63233173e-01 4.63658661e-01 4.64160860e-01 4.64771926e-01 4.65367228e-01 4.65925306e-01 4.66940463e-01 4.67403829e-01 4.68108773e-01 4.68707412e-01 4.69286770e-01 4.69919980e-01 4.70358402e-01 4.70868230e-01 4.71238166e-01 4.72113550e-01 4.72889811e-01 4.73575890e-01 4.73951042e-01 4.74875033e-01 4.75783795e-01 4.76332873e-01 4.77259159e-01 4.77627605e-01 4.78457034e-01 4.79455680e-01 4.79903489e-01 4.80530143e-01 4.81084496e-01 4.81724113e-01 4.82228339e-01 4.82711136e-01 4.83272403e-01 4.83800471e-01 4.84522700e-01 4.85172361e-01 4.85793263e-01 4.86363381e-01 4.87061381e-01 4.88014400e-01 4.88855690e-01 4.89471883e-01 4.90276009e-01 4.91106898e-01 4.91660982e-01 4.92281199e-01 4.92969036e-01 4.93803978e-01 4.94609207e-01 4.95219171e-01 4.95627701e-01 4.96515393e-01 4.96907443e-01 4.97279018e-01 4.97921944e-01 4.98680830e-01 4.99389231e-01 5.00020504e-01 5.01036763e-01 5.02043724e-01 5.02848864e-01 5.03449142e-01 5.04068017e-01 5.04528344e-01 5.05458713e-01 5.06123126e-01 5.06563544e-01 5.07194102e-01 5.07930458e-01 5.08576274e-01 5.09090722e-01 5.09901106e-01 5.10555625e-01 5.11733353e-01 5.12583494e-01 5.13101757e-01 5.13699770e-01 5.14175713e-01 5.15082717e-01 5.15560746e-01 5.16137958e-01 5.16911209e-01 5.17866552e-01 5.18504024e-01 5.19365847e-01 5.20289361e-01 5.21075070e-01 5.21750033e-01 5.22113681e-01 5.23106933e-01 5.23925424e-01 5.24454653e-01 5.25083125e-01 5.25921643e-01 5.26623845e-01 5.27445197e-01 5.28457701e-01 5.29369891e-01 5.30246913e-01 5.30963957e-01 5.31283796e-01 5.31808615e-01 5.32467663e-01 5.33319235e-01 5.33990681e-01 5.35045266e-01 5.35842061e-01 5.36402941e-01 5.37305057e-01 5.38058758e-01 5.38770616e-01 5.39390981e-01 5.40056109e-01 5.40647328e-01 5.41046202e-01 5.41762292e-01 5.42556465e-01 5.43564379e-01 5.44200778e-01 5.45040905e-01 5.45872927e-01 5.46683133e-01 5.47445476e-01 5.48370481e-01 5.49106896e-01 5.49838245e-01 5.50574780e-01 5.51395059e-01 5.52333951e-01 5.52986801e-01 5.53759873e-01 5.54833174e-01 5.55953443e-01 5.56747198e-01 5.57773948e-01 5.58463573e-01 5.58959305e-01 5.59476495e-01 5.60542345e-01 5.61187029e-01 5.62068760e-01 5.62831223e-01 5.63655496e-01 5.64546347e-01 5.65416217e-01 5.66124558e-01 5.66805780e-01 5.67705154e-01 5.68398952e-01 5.68897724e-01 5.69631755e-01 5.70342839e-01 5.71124434e-01 5.71708381e-01 5.72597563e-01 5.73460400e-01 5.74177980e-01 5.75241148e-01 5.76062262e-01 5.76784551e-01 5.78091145e-01 5.78820229e-01 5.79726934e-01 5.80386162e-01 5.81439316e-01 5.82638383e-01 5.83357334e-01 5.84195375e-01 5.85022509e-01 5.85526526e-01 5.86581290e-01 5.87598801e-01 5.88439047e-01 5.89202166e-01 5.90053797e-01 5.90874612e-01 5.91990113e-01 5.92627645e-01 5.93819797e-01 5.94382465e-01 5.94969928e-01 5.95887184e-01 5.96885800e-01 5.97753406e-01 5.98639846e-01 5.99432230e-01 5.99978089e-01 6.00563824e-01 6.01687372e-01 6.03137255e-01 6.03981614e-01 6.04992151e-01 6.05938911e-01 6.07179463e-01 6.08230472e-01 6.09352171e-01 6.10123873e-01 6.10856950e-01 6.11689627e-01 6.12420321e-01 6.13214850e-01 6.14010632e-01 6.14672005e-01 6.16109312e-01 6.17169023e-01 6.17995322e-01 6.19257867e-01 6.19973063e-01 6.20616078e-01 6.21133983e-01 6.21998191e-01 6.23253763e-01 6.24152482e-01 6.25080884e-01 6.26287997e-01 6.27167702e-01 6.27664804e-01 6.28855586e-01 6.29527867e-01 6.30594850e-01 6.31678164e-01 6.32286251e-01 6.33330882e-01 6.34315372e-01 6.35343313e-01 6.36027634e-01 6.36687756e-01 6.37519598e-01 6.38479412e-01 6.39642715e-01 6.40722871e-01 6.41954541e-01 6.42930150e-01 6.44019544e-01 6.45159423e-01 6.46218598e-01 6.46882534e-01 6.47661746e-01 6.48509681e-01 6.49233639e-01 6.50148928e-01 6.50570750e-01 6.51544333e-01 6.52358830e-01 6.53083086e-01 6.53726161e-01 6.55017078e-01 6.56118035e-01 6.56835616e-01 6.57727540e-01 6.59160197e-01 6.60168350e-01 6.60712898e-01 6.62082016e-01 6.63618565e-01 6.64505303e-01 6.65398180e-01 6.66573882e-01 6.67205989e-01 6.68583572e-01 6.69459701e-01 6.70897603e-01 6.72021329e-01 6.73248708e-01 6.73917711e-01 6.75323546e-01 6.76592052e-01 6.77787960e-01 6.79266214e-01 6.80532932e-01 6.81898296e-01 6.83099449e-01 6.84219182e-01 6.85223639e-01 6.85937941e-01 6.86868429e-01 6.88525617e-01 6.89878106e-01 6.91332638e-01 6.93289220e-01 6.94355369e-01 6.95167422e-01 6.96654320e-01 6.97757661e-01 6.98977947e-01 7.00172544e-01 7.01823533e-01 7.02740431e-01 7.03447402e-01 7.04675019e-01 7.05868006e-01 7.06646919e-01 7.07626402e-01 7.08774924e-01 7.09648430e-01 7.10612833e-01 7.11884975e-01 7.12879062e-01 7.14363217e-01 7.15606272e-01 7.16847301e-01 7.18000650e-01 7.19166338e-01 7.20366597e-01 7.21449316e-01 7.22453356e-01 7.23470449e-01 7.25024045e-01 7.25907326e-01 7.27841437e-01 7.29107201e-01 7.30367005e-01 7.31441140e-01 7.33041167e-01 7.34192014e-01 7.35855699e-01 7.36915767e-01 7.38160789e-01 7.39540040e-01 7.40963459e-01 7.41595626e-01 7.42682874e-01 7.43495703e-01 7.45037138e-01 7.46984065e-01 7.48404860e-01 7.50346184e-01 7.51698792e-01 7.53465950e-01 7.55096614e-01 7.56385982e-01 7.57757127e-01 7.59422719e-01 7.61192441e-01 7.62263298e-01 7.63741016e-01 7.64941156e-01 7.66553581e-01 7.68209338e-01 7.69884765e-01 7.71492243e-01 7.73352861e-01 7.74667144e-01 7.76205838e-01 7.77990520e-01 7.79381275e-01 7.80302763e-01 7.81555295e-01 7.82687545e-01 7.83728778e-01 7.84423351e-01 7.85686314e-01 7.86656797e-01 7.87944615e-01 7.89141893e-01 7.90964425e-01 7.92517185e-01 7.93280125e-01 7.95051575e-01 7.96075284e-01 7.98058391e-01 7.99469650e-01 8.00888538e-01 8.02219987e-01 8.03546190e-01 8.04735661e-01 8.05396140e-01 8.06356132e-01 8.08204889e-01 8.09476256e-01 8.10894072e-01 8.12875271e-01 8.14467371e-01 8.15983593e-01 8.17496300e-01 8.18874836e-01 8.20711315e-01 8.23217750e-01 8.26463342e-01 8.28408301e-01 8.31371844e-01 8.34514081e-01 8.36575866e-01 8.38754356e-01 8.40847790e-01 8.43120635e-01 8.45189452e-01 8.46634269e-01 8.48683655e-01 8.50539565e-01 8.51778865e-01 8.54033351e-01 8.55448961e-01 8.58072639e-01 8.60039949e-01 8.61477137e-01 8.63597572e-01 8.65036488e-01 8.66607606e-01 8.68183970e-01 8.70383739e-01 8.72149229e-01 8.75493526e-01 8.77479434e-01 8.80417347e-01 8.81950498e-01 8.83869648e-01 8.85270000e-01 8.86680365e-01 8.88167500e-01 8.90878558e-01 8.93432796e-01 8.95447791e-01 8.98998380e-01 9.01375592e-01 9.03275490e-01 9.05608177e-01 9.07577038e-01 9.09766972e-01 9.11165893e-01 9.13155735e-01 9.15548146e-01 9.17556643e-01 9.19206321e-01 9.21258271e-01 9.22851384e-01 9.23879147e-01 9.26836789e-01 9.29551542e-01 9.31753814e-01 9.36805069e-01 9.39346611e-01 9.40599322e-01 9.43850935e-01 9.46136117e-01 9.49139178e-01 9.51282263e-01 9.52867568e-01 9.55333710e-01 9.58278537e-01 9.60853219e-01 9.63475406e-01 9.66032326e-01 9.68529284e-01 9.71140206e-01 9.75465775e-01 9.78596568e-01 9.81495917e-01 9.84746397e-01 9.87797916e-01 9.90766644e-01 9.92420435e-01 9.96129870e-01 9.99042511e-01 1.00073063e+00 1.00296521e+00 1.00593126e+00 1.00849569e+00 1.01056457e+00 1.01298499e+00 1.01628375e+00 1.01961923e+00 1.02255046e+00 1.02533329e+00 1.02760947e+00 1.03176379e+00 1.03500509e+00 1.03834236e+00 1.04244792e+00 1.04767084e+00 1.05128586e+00 1.05388153e+00 1.05625069e+00 1.06007171e+00 1.06404138e+00 1.06765187e+00 1.07097495e+00 1.07344937e+00 1.07846344e+00 1.08095014e+00 1.08516264e+00 1.08823454e+00 1.09237874e+00 1.09574580e+00 1.10006177e+00 1.10429609e+00 1.10671222e+00 1.11022794e+00 1.11484957e+00 1.11744189e+00 1.11954808e+00 1.12348068e+00 1.12837815e+00 1.13457274e+00 1.13996911e+00 1.14481997e+00 1.14888239e+00 1.15378165e+00 1.15876877e+00 1.16329324e+00 1.16916919e+00 1.17326629e+00 1.17705822e+00 1.18214703e+00 1.18646336e+00 1.19010162e+00 1.19759655e+00 1.20357549e+00 1.20705926e+00 1.21152771e+00 1.21634209e+00 1.22345054e+00 1.23075974e+00 1.23731673e+00 1.25032771e+00 1.25600302e+00 1.26637006e+00 1.27317142e+00 1.27841151e+00 1.28763247e+00 1.29410636e+00 1.29913330e+00 1.30636013e+00 1.31095672e+00 1.31841004e+00 1.32292974e+00 1.33158696e+00 1.33826411e+00 1.34596372e+00 1.35029042e+00 1.35631287e+00 1.36503768e+00 1.37465131e+00 1.38783526e+00 1.40166390e+00 1.41882169e+00 1.42775345e+00 1.43375015e+00 1.44137597e+00 1.44981384e+00 1.46538961e+00 1.47554815e+00 1.49049723e+00 1.50566733e+00 1.51621425e+00 1.53789127e+00 1.55236328e+00 1.57009065e+00 1.60766673e+00 1.64176953e+00 1.66952169e+00 1.69665861e+00 1.74538291e+00 1.78785825e+00 1.83154929e+00 1.86400425e+00 1.91543281e+00 2.00283265e+00 2.07265902e+00 2.14312005e+00 2.22985625e+00 2.60073161e+00 3.80310583e+00 4.00083447e+00 
            </HistogramBinning>
          </PDF>
        </CumulativePDF_cls0>
        <CumulativePDF_cls1>
          <PDF Name="GaussTransform var0 cls1" MinNSmooth="0" MaxNSmooth="0" InterpolMethod="1" KDE_type="0" KDE_iter="1" KDE_border="1" KDE_finefactor="0.0000000000000000e+00">
            <Histogram Name="Cumulative_Var0_cls1_original" NBins="51" XMin="-4.3614883422851562e+00" XMax="2.0324549674987793e+00" HasEquidistantBins="0">
              1.43209873e-02 3.20987664e-02 5.17283939e-02 7.16049373e-02 9.13580284e-02 1.11111112e-01 1.30864203e-01 1.50617287e-01 1.70370370e-01 1.90123454e-01 2.09876537e-01 2.29629636e-01 2.49382719e-01 2.69135803e-01 2.88888901e-01 3.08641970e-01 3.28395069e-01 3.48148137e-01 3.67901236e-01 3.87654334e-01 4.07407403e-01 4.27160501e-01 4.46913570e-01 4.66666669e-01 4.86419767e-01 5.06172836e-01 5.25925934e-01 5.45679033e-01 5.65432072e-01 5.85185170e-01 6.04938269e-01 6.24691367e-01 6.44444466e-01 6.64197505e-01 6.83950603e-01 7.03703701e-01 7.23456800e-01 7.43209898e-01 7.62962937e-01 7.82716036e-01 8.02469134e-01 8.22222233e-01 8.41975331e-01 8.61728370e-01 8.81481469e-01 9.01234567e-01 9.20987666e-01 9.40740764e-01 9.60493803e-01 9.80246902e-01 1.00000000e+00 
            </Histogram>
            <HistogramBinning NBins="51">
              -4.36148834e+00 -4.36138821e+00 -2.46137738e+00 -2.22571254e+00 -2.05213380e+00 -1.89939189e+00 -1.81936729e+00 -1.72920954e+00 -1.68827021e+00 -1.60240245e+00 -1.56158650e+00 -1.51239300e+00 -1.42207587e+00 -1.31786275e+00 -1.23098123e+00 -1.16704464e+00 -1.13444853e+00 -1.03989661e+00 -9.60233092e-01 -9.30115223e-01 -8.80448461e-01 -8.42793405e-01 -8.09461713e-01 -7.76163042e-01 -7.52822757e-01 -7.07006693e-01 -6.73371255e-01 -6.47638857e-01 -6.31601512e-01 -5.76156259e-01 -5.49796402e-01 -5.25916457e-01 -4.98946786e-01 -4.71275151e-01 -4.44200397e-01 -4.27719146e-01 -3.99545759e-01 -3.69079381e-01 -3.26085240e-01 -3.07562441e-01 -2.79893756e-01 -2.65359133e-01 -2.34736010e-01 -2.00175479e-01 -1.39522314e-01 -8.05066600e-02 -4.67523113e-02 1.93083044e-02 9.68170986e-02 2.73137838e-01 3.98918420e-01 2.03245497e+00 
            </HistogramBinning>
          </PDF>
        </CumulativePDF_cls1>
        <CumulativePDF_cls2>
          <PDF Name="GaussTransform var0 cls2" MinNSmooth="0" MaxNSmooth="0" InterpolMethod="1" KDE_type="0" KDE_iter="1" KDE_border="1" KDE_finefactor="0.0000000000000000e+00">
            <Histogram Name="Cumulative_Var0_cls2_original" NBins="1910" XMin="-1.8584262847900391e+01" XMax="4.0008344650268555e+00" HasEquidistantBins="0">
              4.46438440e-04 9.44168132e-04 1.46948174e-03 1.99856539e-03 2.52571097e-03 3.05274990e-03 3.57978884e-03 4.10682755e-03 4.63386672e-03 5.16090542e-03 5.68794459e-03 6.21498376e-03 6.74202247e-03 7.26906164e-03 7.79583026e-03 8.32204148e-03 8.84794723e-03 9.37472936e-03 9.90325026e-03 1.04315719e-02 1.09559176e-02 1.14744492e-02 1.19900620e-02 1.25094410e-02 1.30355135e-02 1.35640316e-02 1.40916584e-02 1.46188391e-02 1.51460199e-02 1.56732015e-02 1.62003823e-02 1.67275630e-02 1.72550958e-02 1.77835431e-02 1.83127634e-02 1.88421924e-02 1.93716232e-02 1.99010521e-02 2.04304811e-02 2.09599119e-02 2.14893408e-02 2.20185965e-02 2.25475058e-02 2.30762046e-02 2.36045159e-02 2.41321586e-02 2.46593952e-02 2.51865778e-02 2.57139187e-02 2.62413826e-02 2.67692693e-02 2.72979978e-02 2.78271493e-02 2.83562988e-02 2.88849212e-02 2.94124894e-02 2.99395286e-02 3.04666013e-02 3.09918169e-02 3.15126441e-02 3.20312232e-02 3.25530358e-02 3.30800116e-02 3.36088911e-02 3.41371037e-02 3.46647985e-02 3.51932086e-02 3.57234962e-02 3.62549014e-02 3.67856026e-02 3.73145901e-02 3.78411151e-02 3.83641161e-02 3.88843231e-02 3.94047648e-02 3.99287865e-02 4.04574312e-02 4.09879759e-02 4.15177420e-02 4.20468934e-02 4.25760448e-02 4.31051962e-02 4.36343439e-02 4.41634953e-02 4.46928516e-02 4.52236272e-02 4.57568541e-02 4.62910645e-02 4.68232371e-02 4.73523699e-02 4.78805564e-02 4.84093875e-02 4.89397682e-02 4.94729392e-02 5.00074215e-02 5.05396053e-02 5.10682650e-02 5.15954457e-02 5.21215163e-02 5.26456311e-02 5.31658158e-02 5.36794215e-02 5.41883260e-02 5.46948239e-02 5.51999062e-02 5.57057820e-02 5.62138222e-02 5.67224100e-02 5.72345741e-02 5.77579923e-02 5.82899377e-02 5.88192455e-02 5.93401529e-02 5.98555915e-02 6.03704676e-02 6.08894154e-02 6.14142716e-02 6.19415939e-02 6.24689162e-02 6.29962385e-02 6.35235980e-02 6.40510246e-02 6.45784959e-02 6.51059598e-02 6.56334236e-02 6.61612079e-02 6.66896179e-02 6.72183484e-02 6.77470863e-02 6.82707354e-02 6.87819123e-02 6.92836940e-02 6.97867796e-02 7.02961609e-02 7.08085746e-02 7.13210329e-02 7.18376860e-02 7.23626688e-02 7.28918165e-02 7.34209716e-02 7.39501193e-02 7.44792745e-02 7.50089511e-02 7.55396858e-02 7.60709494e-02 7.66026378e-02 7.71352574e-02 7.76681900e-02 7.82000348e-02 7.87303671e-02 7.92600438e-02 7.97896534e-02 8.03192258e-02 8.08487311e-02 8.13775510e-02 8.19051638e-02 8.24322030e-02 8.29581544e-02 8.34815726e-02 8.40034783e-02 8.45267177e-02 8.50523636e-02 8.55790526e-02 8.61057341e-02 8.66325423e-02 8.71595964e-02 8.76867771e-02 8.82139578e-02 8.87400657e-02 8.92640203e-02 8.97868946e-02 9.03097764e-02 9.08292755e-02 9.13415998e-02 9.18501392e-02 9.23598185e-02 9.28697363e-02 9.33772400e-02 9.38849449e-02 9.43992659e-02 9.49234366e-02 9.54542533e-02 9.59853232e-02 9.65133831e-02 9.70405787e-02 9.75689813e-02 9.80977863e-02 9.86221880e-02 9.91380885e-02 9.96494815e-02 1.00160331e-01 1.00670986e-01 1.01182014e-01 1.01697125e-01 1.02219775e-01 1.02746949e-01 1.03275694e-01 1.03805341e-01 1.04335018e-01 1.04864545e-01 1.05393976e-01 1.05923414e-01 1.06451087e-01 1.06975295e-01 1.07500941e-01 1.08033091e-01 1.08566761e-01 1.09093554e-01 1.09609805e-01 1.10117733e-01 1.10624984e-01 1.11141451e-01 1.11669764e-01 1.12202860e-01 1.12735949e-01 1.13268659e-01 1.13800585e-01 1.14330456e-01 1.14856981e-01 1.15381829e-01 1.15906678e-01 1.16432607e-01 1.16962224e-01 1.17496021e-01 1.18029907e-01 1.18558213e-01 1.19079761e-01 1.19595289e-01 1.20104022e-01 1.20612800e-01 1.21128432e-01 1.21650673e-01 1.22180365e-01 1.22714326e-01 1.23243757e-01 1.23763844e-01 1.24277428e-01 1.24790594e-01 1.25309035e-01 1.25835046e-01 1.26364082e-01 1.26888156e-01 1.27403274e-01 1.27913699e-01 1.28428653e-01 1.28952026e-01 1.29479766e-01 1.30008921e-01 1.30538777e-01 1.31068632e-01 1.31598487e-01 1.32128343e-01 1.32655963e-01 1.33179098e-01 1.33697942e-01 1.34212628e-01 1.34725258e-01 1.35239601e-01 1.35757357e-01 1.36274531e-01 1.36787057e-01 1.37299553e-01 1.37820095e-01 1.38349175e-01 1.38880238e-01 1.39410630e-01 1.39941484e-01 1.40472248e-01 1.41001403e-01 1.41528636e-01 1.42055258e-01 1.42582983e-01 1.43112466e-01 1.43642589e-01 1.44172430e-01 1.44702107e-01 1.45231709e-01 1.45760655e-01 1.46288320e-01 1.46815360e-01 1.47342175e-01 1.47868603e-01 1.48394942e-01 1.48922265e-01 1.49452239e-01 1.49985224e-01 1.50519922e-01 1.51055038e-01 1.51590154e-01 1.52123317e-01 1.52652591e-01 1.53179914e-01 1.53707236e-01 1.54234558e-01 1.54763326e-01 1.55294970e-01 1.55828059e-01 1.56361148e-01 1.56895190e-01 1.57430410e-01 1.57962784e-01 1.58485651e-01 1.58998087e-01 1.59506485e-01 1.60014883e-01 1.60524473e-01 1.61038548e-01 1.61559314e-01 1.62085161e-01 1.62612900e-01 1.63140714e-01 1.63667887e-01 1.64194167e-01 1.64720178e-01 1.65247247e-01 1.65775791e-01 1.66304946e-01 1.66834086e-01 1.67363316e-01 1.67892799e-01 1.68422610e-01 1.68952554e-01 1.69482425e-01 1.70011565e-01 1.70539275e-01 1.71066165e-01 1.71593949e-01 1.72123522e-01 1.72654301e-01 1.73184916e-01 1.73714608e-01 1.74243897e-01 1.74773768e-01 1.75304621e-01 1.75835699e-01 1.76365435e-01 1.76893353e-01 1.77420527e-01 1.77947715e-01 1.78474888e-01 1.78997263e-01 1.79510027e-01 1.80018917e-01 1.80529490e-01 1.81040555e-01 1.81556508e-01 1.82084337e-01 1.82618693e-01 1.83147252e-01 1.83664456e-01 1.84174955e-01 1.84690237e-01 1.85215592e-01 1.85744867e-01 1.86273426e-01 1.86802238e-01 1.87332079e-01 1.87862933e-01 1.88390002e-01 1.88906968e-01 1.89415634e-01 1.89922243e-01 1.90432787e-01 1.90949425e-01 1.91468552e-01 1.91987664e-01 1.92507192e-01 1.93025857e-01 1.93540633e-01 1.94051132e-01 1.94559544e-01 1.95067972e-01 1.95584312e-01 1.96114898e-01 1.96652338e-01 1.97189778e-01 1.97726801e-01 1.98260918e-01 1.98790461e-01 1.99317515e-01 1.99843034e-01 2.00364947e-01 2.00884402e-01 2.01403856e-01 2.01922566e-01 2.02441558e-01 2.02961594e-01 2.03481615e-01 2.04001635e-01 2.04522446e-01 2.05044821e-01 2.05567986e-01 2.06091136e-01 2.06616059e-01 2.07145229e-01 2.07677171e-01 2.08207592e-01 2.08734706e-01 2.09256545e-01 2.09770083e-01 2.10278302e-01 2.10785538e-01 2.11293519e-01 2.11803243e-01 2.12314397e-01 2.12826565e-01 2.13339180e-01 2.13851810e-01 2.14364424e-01 2.14879557e-01 2.15399683e-01 2.15922311e-01 2.16444924e-01 2.16967553e-01 2.17491314e-01 2.18017355e-01 2.18544543e-01 2.19071716e-01 2.19598904e-01 2.20121056e-01 2.20633134e-01 2.21140176e-01 2.21647233e-01 2.22159311e-01 2.22681463e-01 2.23208636e-01 2.23735824e-01 2.24262998e-01 2.24787220e-01 2.25305483e-01 2.25818977e-01 2.26328328e-01 2.26835728e-01 2.27346480e-01 2.27862403e-01 2.28380501e-01 2.28898600e-01 2.29416549e-01 2.29937747e-01 2.30466783e-01 2.30999306e-01 2.31524512e-01 2.32037395e-01 2.32544601e-01 2.33058348e-01 2.33583078e-01 2.34112516e-01 2.34642640e-01 2.35174239e-01 2.35706702e-01 2.36239076e-01 2.36771166e-01 2.37303123e-01 2.37834528e-01 2.38364801e-01 2.38894522e-01 2.39424229e-01 2.39954069e-01 2.40488172e-01 2.41030797e-01 2.41576210e-01 2.42112502e-01 2.42632821e-01 2.43142948e-01 2.43656114e-01 2.44178385e-01 2.44704425e-01 2.45225608e-01 2.45739371e-01 2.46250018e-01 2.46760368e-01 2.47270137e-01 2.47779593e-01 2.48289049e-01 2.48798504e-01 2.49307960e-01 2.49817386e-01 2.50326812e-01 2.50836253e-01 2.51345664e-01 2.51856029e-01 2.52368271e-01 2.52881467e-01 2.53394634e-01 2.53907830e-01 2.54419774e-01 2.54928410e-01 2.55434036e-01 2.55939424e-01 2.56451726e-01 2.56975859e-01 2.57505536e-01 2.58035243e-01 2.58565038e-01 2.59094208e-01 2.59622157e-01 2.60151178e-01 2.60683596e-01 2.61212170e-01 2.61729598e-01 2.62246042e-01 2.62771726e-01 2.63302594e-01 2.63834655e-01 2.64367759e-01 2.64901698e-01 2.65431762e-01 2.65951574e-01 2.66464412e-01 2.66980380e-01 2.67505884e-01 2.68038958e-01 2.68572479e-01 2.69098699e-01 2.69615501e-01 2.70127296e-01 2.70636648e-01 2.71144837e-01 2.71653175e-01 2.72161573e-01 2.72669971e-01 2.73178369e-01 2.73690343e-01 2.74209768e-01 2.74732977e-01 2.75254935e-01 2.75774688e-01 2.76295662e-01 2.76823640e-01 2.77357787e-01 2.77891606e-01 2.78421789e-01 2.78950483e-01 2.79479653e-01 2.80009747e-01 2.80541271e-01 2.81073362e-01 2.81604439e-01 2.82131523e-01 2.82653511e-01 2.83172071e-01 2.83686131e-01 2.84198076e-01 2.84715354e-01 2.85239786e-01 2.85766929e-01 2.86294281e-01 2.86821634e-01 2.87348896e-01 2.87875056e-01 2.88399220e-01 2.88922369e-01 2.89443195e-01 2.89958239e-01 2.90469229e-01 2.90981501e-01 2.91497380e-01 2.92014897e-01 2.92533666e-01 2.93054909e-01 2.93577373e-01 2.94099808e-01 2.94620395e-01 2.95137197e-01 2.95652092e-01 2.96166986e-01 2.96684742e-01 2.97208756e-01 2.97737569e-01 2.98268408e-01 2.98799962e-01 2.99331486e-01 2.99862534e-01 3.00394118e-01 3.00923139e-01 3.01440895e-01 3.01948458e-01 3.02453548e-01 3.02960515e-01 3.03472340e-01 3.03989172e-01 3.04503918e-01 3.05008829e-01 3.05509359e-01 3.06019425e-01 3.06543231e-01 3.07072669e-01 3.07602108e-01 3.08131278e-01 3.08659881e-01 3.09186548e-01 3.09709817e-01 3.10228765e-01 3.10742438e-01 3.11252922e-01 3.11762214e-01 3.12270939e-01 3.12779665e-01 3.13290298e-01 3.13804686e-01 3.14320952e-01 3.14837217e-01 3.15353483e-01 3.15869749e-01 3.16383481e-01 3.16892177e-01 3.17398310e-01 3.17904472e-01 3.18415433e-01 3.18938613e-01 3.19472253e-01 3.20007503e-01 3.20539027e-01 3.21067423e-01 3.21591586e-01 3.22109133e-01 3.22623432e-01 3.23137730e-01 3.23652297e-01 3.24167490e-01 3.24683100e-01 3.25198919e-01 3.25715274e-01 3.26232165e-01 3.26748639e-01 3.27267259e-01 3.27792436e-01 3.28322589e-01 3.28853846e-01 3.29385132e-01 3.29916388e-01 3.30447167e-01 3.30976933e-01 3.31505239e-01 3.32031518e-01 3.32549512e-01 3.33052993e-01 3.33556145e-01 3.34073216e-01 3.34597975e-01 3.35124284e-01 3.35652292e-01 3.36182296e-01 3.36713284e-01 3.37244272e-01 3.37775826e-01 3.38305861e-01 3.38829368e-01 3.39347064e-01 3.39865208e-01 3.40387136e-01 3.40909749e-01 3.41430008e-01 3.41948330e-01 3.42468143e-01 3.42994928e-01 3.43528152e-01 3.44062060e-01 3.44593346e-01 3.45117807e-01 3.45631123e-01 3.46137792e-01 3.46643895e-01 3.47151309e-01 3.47660899e-01 3.48172694e-01 3.48685622e-01 3.49198014e-01 3.49711478e-01 3.50230217e-01 3.50758463e-01 3.51295948e-01 3.51832658e-01 3.52361381e-01 3.52886230e-01 3.53412330e-01 3.53940934e-01 3.54470789e-01 3.54995698e-01 3.55510741e-01 3.56020838e-01 3.56530935e-01 3.57041031e-01 3.57551306e-01 3.58062059e-01 3.58572990e-01 3.59083921e-01 3.59595418e-01 3.60108048e-01 3.60621214e-01 3.61134410e-01 3.61651033e-01 3.62176359e-01 3.62709254e-01 3.63243520e-01 3.63775760e-01 3.64303082e-01 3.64821255e-01 3.65333378e-01 3.65848213e-01 3.66368324e-01 3.66888493e-01 3.67405146e-01 3.67919624e-01 3.68438005e-01 3.68966222e-01 3.69500011e-01 3.70028883e-01 3.70547503e-01 3.71058822e-01 3.71567696e-01 3.72075796e-01 3.72583300e-01 3.73095244e-01 3.73618335e-01 3.74147743e-01 3.74670833e-01 3.75182807e-01 3.75690758e-01 3.76200229e-01 3.76710474e-01 3.77219439e-01 3.77725899e-01 3.78231108e-01 3.78736317e-01 3.79247069e-01 3.79768848e-01 3.80296171e-01 3.80823493e-01 3.81350517e-01 3.81877989e-01 3.82407695e-01 3.82939219e-01 3.83470505e-01 3.84000242e-01 3.84528458e-01 3.85056108e-01 3.85581553e-01 3.86102647e-01 3.86620015e-01 3.87133658e-01 3.87644440e-01 3.88155580e-01 3.88668388e-01 3.89181852e-01 3.89695168e-01 3.90209913e-01 3.90730202e-01 3.91257346e-01 3.91787201e-01 3.92317057e-01 3.92846912e-01 3.93376648e-01 3.93906176e-01 3.94435614e-01 3.94965053e-01 3.95494461e-01 3.96021605e-01 3.96544129e-01 3.97064328e-01 3.97582442e-01 3.98095310e-01 3.98604602e-01 3.99115384e-01 3.99633914e-01 4.00162846e-01 4.00695652e-01 4.01227236e-01 4.01753783e-01 4.02270466e-01 4.02780861e-01 4.03290153e-01 4.03798908e-01 4.04308766e-01 4.04821426e-01 4.05339301e-01 4.05864894e-01 4.06394303e-01 4.06923741e-01 4.07453179e-01 4.07979190e-01 4.08498317e-01 4.09019917e-01 4.09553319e-01 4.10092920e-01 4.10633445e-01 4.11174029e-01 4.11710620e-01 4.12241459e-01 4.12764758e-01 4.13277835e-01 4.13790703e-01 4.14313465e-01 4.14840996e-01 4.15368199e-01 4.15895224e-01 4.16419774e-01 4.16938633e-01 4.17454511e-01 4.17974412e-01 4.18500870e-01 4.19030309e-01 4.19560403e-01 4.20091152e-01 4.20620531e-01 4.21148568e-01 4.21678722e-01 4.22209352e-01 4.22733366e-01 4.23248708e-01 4.23759788e-01 4.24269378e-01 4.24778700e-01 4.25290108e-01 4.25804108e-01 4.26319152e-01 4.26834196e-01 4.27349240e-01 4.27865148e-01 4.28383023e-01 4.28901732e-01 4.29418355e-01 4.29931372e-01 4.30442929e-01 4.30956990e-01 4.31474835e-01 4.31996256e-01 4.32521611e-01 4.33048874e-01 4.33576107e-01 4.34103280e-01 4.34628397e-01 4.35147583e-01 4.35660988e-01 4.36173081e-01 4.36683357e-01 4.37187999e-01 4.37692493e-01 4.38208967e-01 4.38742280e-01 4.39285666e-01 4.39827442e-01 4.40359622e-01 4.40882981e-01 4.41403329e-01 4.41919267e-01 4.42424387e-01 4.42922950e-01 4.43429023e-01 4.43948239e-01 4.44472134e-01 4.44994122e-01 4.45514619e-01 4.46033984e-01 4.46552783e-01 4.47071582e-01 4.47588801e-01 4.48104650e-01 4.48622584e-01 4.49145496e-01 4.49674904e-01 4.50206250e-01 4.50731218e-01 4.51246023e-01 4.51753706e-01 4.52264190e-01 4.52781767e-01 4.53301698e-01 4.53824192e-01 4.54351753e-01 4.54881459e-01 4.55411166e-01 4.55936611e-01 4.56453532e-01 4.56966192e-01 4.57478851e-01 4.57991481e-01 4.58508164e-01 4.59032923e-01 4.59556639e-01 4.60070223e-01 4.60578769e-01 4.61087316e-01 4.61595863e-01 4.62105393e-01 4.62617338e-01 4.63131517e-01 4.63643491e-01 4.64148819e-01 4.64653343e-01 4.65169370e-01 4.65702176e-01 4.66243356e-01 4.66777712e-01 4.67297494e-01 4.67807978e-01 4.68318224e-01 4.68834639e-01 4.69359785e-01 4.69889790e-01 4.70416963e-01 4.70935345e-01 4.71445978e-01 4.71954226e-01 4.72462654e-01 4.72964555e-01 4.73450691e-01 4.73928243e-01 4.74418104e-01 4.74928439e-01 4.75445837e-01 4.75959837e-01 4.76472199e-01 4.76984531e-01 4.77500588e-01 4.78024483e-01 4.78553563e-01 4.79084522e-01 4.79616642e-01 4.80148792e-01 4.80680525e-01 4.81211662e-01 4.81741905e-01 4.82271612e-01 4.82801139e-01 4.83330667e-01 4.83860314e-01 4.84390020e-01 4.84919757e-01 4.85450178e-01 4.85979706e-01 4.86505091e-01 4.87024367e-01 4.87535954e-01 4.88042802e-01 4.88552630e-01 4.89068508e-01 4.89587009e-01 4.90105540e-01 4.90627080e-01 4.91154730e-01 4.91685539e-01 4.92216557e-01 4.92747694e-01 4.93278801e-01 4.93809938e-01 4.94341046e-01 4.94866639e-01 4.95381147e-01 4.95890111e-01 4.96399075e-01 4.96908605e-01 4.97419268e-01 4.97930497e-01 4.98441696e-01 4.98952925e-01 4.99464124e-01 4.99975353e-01 5.00486493e-01 5.00997484e-01 5.01508415e-01 5.02019346e-01 5.02530336e-01 5.03042936e-01 5.03559709e-01 5.04079521e-01 5.04597962e-01 5.05111814e-01 5.05623817e-01 5.06141186e-01 5.06667614e-01 5.07199109e-01 5.07727981e-01 5.08251190e-01 5.08772075e-01 5.09292424e-01 5.09810627e-01 5.10326624e-01 5.10841310e-01 5.11354625e-01 5.11867523e-01 5.12382805e-01 5.12901425e-01 5.13423920e-01 5.13951600e-01 5.14481664e-01 5.15011311e-01 5.15540779e-01 5.16070187e-01 5.16599596e-01 5.17124951e-01 5.17642081e-01 5.18159211e-01 5.18684566e-01 5.19213974e-01 5.19743443e-01 5.20272851e-01 5.20801783e-01 5.21329463e-01 5.21856189e-01 5.22382617e-01 5.22908092e-01 5.23431361e-01 5.23953676e-01 5.24478555e-01 5.25007427e-01 5.25537908e-01 5.26067853e-01 5.26598454e-01 5.27131259e-01 5.27665198e-01 5.28198242e-01 5.28729677e-01 5.29260516e-01 5.29792070e-01 5.30324757e-01 5.30853271e-01 5.31370819e-01 5.31881750e-01 5.32397747e-01 5.32923102e-01 5.33452570e-01 5.33982038e-01 5.34511507e-01 5.35036325e-01 5.35550535e-01 5.36058903e-01 5.36573172e-01 5.37099063e-01 5.37632465e-01 5.38163722e-01 5.38688242e-01 5.39209783e-01 5.39731979e-01 5.40253699e-01 5.40770829e-01 5.41281760e-01 5.41790187e-01 5.42298555e-01 5.42808831e-01 5.43322921e-01 5.43838918e-01 5.44354916e-01 5.44870913e-01 5.45384288e-01 5.45892000e-01 5.46397626e-01 5.46908677e-01 5.47429323e-01 5.47956824e-01 5.48486233e-01 5.49016237e-01 5.49547493e-01 5.50079286e-01 5.50610006e-01 5.51133513e-01 5.51645219e-01 5.52151322e-01 5.52657485e-01 5.53163707e-01 5.53669930e-01 5.54178715e-01 5.54695308e-01 5.55219769e-01 5.55746794e-01 5.56273818e-01 5.56800842e-01 5.57322681e-01 5.57834089e-01 5.58340192e-01 5.58846354e-01 5.59352517e-01 5.59859097e-01 5.60370326e-01 5.60890794e-01 5.61417401e-01 5.61941504e-01 5.62458754e-01 5.62972188e-01 5.63485205e-01 5.63996792e-01 5.64505577e-01 5.65015197e-01 5.65532386e-01 5.66061258e-01 5.66597819e-01 5.67131579e-01 5.67657471e-01 5.68180203e-01 5.68705618e-01 5.69235623e-01 5.69766462e-01 5.70291698e-01 5.70810199e-01 5.71326196e-01 5.71842194e-01 5.72358787e-01 5.72876513e-01 5.73394895e-01 5.73913276e-01 5.74433863e-01 5.74958861e-01 5.75486004e-01 5.76013207e-01 5.76540411e-01 5.77067554e-01 5.77594757e-01 5.78118622e-01 5.78635097e-01 5.79148412e-01 5.79668283e-01 5.80199540e-01 5.80738187e-01 5.81275761e-01 5.81807077e-01 5.82334101e-01 5.82855701e-01 5.83367646e-01 5.83874285e-01 5.84382117e-01 5.84892154e-01 5.85403085e-01 5.85915029e-01 5.86428940e-01 5.86943865e-01 5.87458730e-01 5.87973654e-01 5.88486910e-01 5.88996947e-01 5.89505315e-01 5.90013742e-01 5.90522647e-01 5.91032684e-01 5.91543198e-01 5.92053711e-01 5.92564225e-01 5.93074679e-01 5.93589962e-01 5.94114780e-01 5.94644368e-01 5.95173955e-01 5.95703483e-01 5.96233070e-01 5.96758127e-01 5.97274065e-01 5.97785473e-01 5.98296881e-01 5.98809361e-01 5.99324048e-01 5.99839866e-01 6.00359082e-01 6.00885093e-01 6.01414502e-01 6.01943970e-01 6.02471232e-01 6.02994144e-01 6.03514910e-01 6.04035676e-01 6.04556441e-01 6.05079055e-01 6.05605900e-01 6.06135786e-01 6.06666744e-01 6.07198298e-01 6.07730150e-01 6.08261883e-01 6.08793616e-01 6.09325528e-01 6.09857500e-01 6.10389054e-01 6.10920131e-01 6.11451149e-01 6.11982465e-01 6.12513900e-01 6.13043904e-01 6.13571167e-01 6.14097178e-01 6.14623189e-01 6.15149558e-01 6.15676582e-01 6.16203904e-01 6.16731226e-01 6.17258549e-01 6.17781162e-01 6.18294239e-01 6.18802071e-01 6.19309664e-01 6.19817197e-01 6.20330036e-01 6.20853364e-01 6.21382177e-01 6.21911526e-01 6.22440934e-01 6.22969925e-01 6.23493493e-01 6.24004245e-01 6.24505997e-01 6.25010729e-01 6.25526607e-01 6.26051247e-01 6.26578271e-01 6.27105296e-01 6.27628326e-01 6.28143132e-01 6.28653944e-01 6.29164755e-01 6.29679620e-01 6.30202711e-01 6.30729914e-01 6.31257057e-01 6.31784260e-01 6.32311404e-01 6.32838607e-01 6.33366346e-01 6.33895218e-01 6.34424627e-01 6.34954512e-01 6.35485590e-01 6.36017323e-01 6.36548400e-01 6.37078285e-01 6.37607634e-01 6.38137043e-01 6.38665557e-01 6.39193177e-01 6.39721572e-01 6.40250504e-01 6.40779257e-01 6.41307950e-01 6.41836703e-01 6.42365456e-01 6.42894983e-01 6.43426120e-01 6.43953741e-01 6.44471169e-01 6.44981682e-01 6.45493150e-01 6.46011710e-01 6.46540165e-01 6.47075474e-01 6.47610068e-01 6.48139715e-01 6.48667455e-01 6.49196446e-01 6.49726033e-01 6.50255561e-01 6.50785029e-01 6.51314437e-01 6.51843846e-01 6.52373195e-01 6.52902484e-01 6.53431773e-01 6.53961182e-01 6.54490769e-01 6.55020475e-01 6.55550182e-01 6.56079888e-01 6.56609058e-01 6.57137156e-01 6.57664776e-01 6.58192158e-01 6.58719361e-01 6.59246385e-01 6.59773409e-01 6.60300434e-01 6.60827518e-01 6.61354542e-01 6.61881685e-01 6.62409008e-01 6.62936509e-01 6.63463950e-01 6.63991690e-01 6.64520025e-01 6.65048599e-01 6.65577173e-01 6.66106462e-01 6.66637003e-01 6.67167664e-01 6.67694211e-01 6.68213665e-01 6.68729663e-01 6.69245601e-01 6.69764400e-01 6.70288622e-01 6.70815706e-01 6.71342850e-01 6.71870351e-01 6.72397971e-01 6.72925413e-01 6.73452497e-01 6.73979402e-01 6.74506426e-01 6.75033510e-01 6.75560832e-01 6.76088154e-01 6.76615477e-01 6.77142799e-01 6.77670121e-01 6.78197443e-01 6.78724766e-01 6.79252088e-01 6.79777801e-01 6.80296719e-01 6.80806398e-01 6.81311727e-01 6.81816697e-01 6.82321727e-01 6.82831585e-01 6.83353186e-01 6.83884561e-01 6.84415102e-01 6.84938550e-01 6.85459375e-01 6.85982168e-01 6.86506808e-01 6.87033117e-01 6.87560320e-01 6.88087463e-01 6.88614666e-01 6.89141810e-01 6.89669013e-01 6.90196216e-01 6.90723360e-01 6.91250563e-01 6.91778123e-01 6.92301810e-01 6.92814887e-01 6.93321526e-01 6.93833768e-01 6.94356322e-01 6.94883406e-01 6.95410430e-01 6.95937455e-01 6.96464539e-01 6.96991682e-01 6.97518885e-01 6.98046029e-01 6.98573232e-01 6.99100375e-01 6.99627578e-01 7.00155914e-01 7.00686812e-01 7.01219201e-01 7.01750040e-01 7.02278197e-01 7.02805221e-01 7.03332305e-01 7.03859329e-01 7.04386353e-01 7.04913378e-01 7.05440462e-01 7.05967486e-01 7.06494510e-01 7.07021534e-01 7.07548678e-01 7.08076239e-01 7.08604813e-01 7.09134102e-01 7.09663570e-01 7.10192978e-01 7.10722446e-01 7.11251915e-01 7.11781442e-01 7.12311029e-01 7.12836564e-01 7.13353932e-01 7.13867247e-01 7.14380622e-01 7.14893937e-01 7.15410650e-01 7.15934336e-01 7.16461480e-01 7.16988623e-01 7.17515826e-01 7.18043029e-01 7.18570173e-01 7.19097733e-01 7.19625950e-01 7.20154583e-01 7.20683157e-01 7.21208334e-01 7.21726656e-01 7.22241521e-01 7.22756445e-01 7.23274410e-01 7.23798633e-01 7.24325955e-01 7.24853277e-01 7.25380599e-01 7.25907803e-01 7.26435006e-01 7.26962149e-01 7.27489352e-01 7.28016555e-01 7.28544295e-01 7.29073226e-01 7.29602754e-01 7.30131567e-01 7.30659127e-01 7.31186152e-01 7.31713295e-01 7.32240498e-01 7.32767701e-01 7.33294845e-01 7.33822823e-01 7.34353006e-01 7.34884799e-01 7.35416174e-01 7.35946119e-01 7.36475468e-01 7.37004280e-01 7.37531841e-01 7.38058865e-01 7.38585949e-01 7.39113092e-01 7.39640296e-01 7.40167499e-01 7.40694642e-01 7.41222441e-01 7.41751432e-01 7.42280960e-01 7.42810607e-01 7.43340373e-01 7.43869722e-01 7.44397759e-01 7.44924784e-01 7.45452225e-01 7.45980859e-01 7.46510267e-01 7.47039855e-01 7.47569323e-01 7.48098791e-01 7.48628199e-01 7.49157608e-01 7.49687076e-01 7.50216484e-01 7.50745893e-01 7.51275361e-01 7.51804769e-01 7.52333641e-01 7.52861381e-01 7.53388584e-01 7.53915727e-01 7.54442930e-01 7.54970133e-01 7.55497277e-01 7.56024480e-01 7.56551623e-01 7.57078648e-01 7.57605612e-01 7.58132637e-01 7.58659840e-01 7.59187043e-01 7.59714246e-01 7.60241330e-01 7.60768354e-01 7.61295438e-01 7.61822641e-01 7.62349844e-01 7.62877107e-01 7.63404250e-01 7.63926148e-01 7.64437437e-01 7.64943480e-01 7.65449464e-01 7.65960753e-01 7.66482532e-01 7.67009556e-01 7.67536640e-01 7.68063664e-01 7.68591166e-01 7.69119442e-01 7.69648015e-01 7.70176589e-01 7.70704865e-01 7.71232367e-01 7.71759570e-01 7.72286713e-01 7.72813916e-01 7.73341179e-01 7.73868918e-01 7.74397671e-01 7.74927080e-01 7.75456369e-01 7.75985062e-01 7.76513517e-01 7.77042389e-01 7.77571797e-01 7.78101563e-01 7.78631032e-01 7.79159665e-01 7.79687285e-01 7.80214429e-01 7.80741632e-01 7.81268775e-01 7.81795859e-01 7.82322884e-01 7.82849908e-01 7.83377469e-01 7.83906162e-01 7.84435630e-01 7.84964263e-01 7.85491705e-01 7.86018789e-01 7.86545992e-01 7.87073195e-01 7.87600338e-01 7.88127482e-01 7.88654566e-01 7.89181590e-01 7.89708614e-01 7.90235698e-01 7.90762901e-01 7.91290104e-01 7.91817307e-01 7.92344511e-01 7.92871594e-01 7.93398619e-01 7.93925643e-01 7.94452727e-01 7.94979751e-01 7.95502424e-01 7.96014845e-01 7.96521425e-01 7.97033846e-01 7.97556520e-01 7.98083544e-01 7.98610628e-01 7.99137652e-01 7.99664676e-01 8.00191700e-01 8.00718784e-01 8.01245809e-01 8.01772833e-01 8.02299857e-01 8.02827358e-01 8.03355932e-01 8.03885043e-01 8.04413617e-01 8.04941118e-01 8.05468142e-01 8.05995166e-01 8.06522191e-01 8.07049274e-01 8.07576358e-01 8.08103621e-01 8.08631420e-01 8.09160233e-01 8.09689581e-01 8.10218275e-01 8.10745895e-01 8.11273098e-01 8.11800241e-01 8.12327445e-01 8.12854588e-01 8.13381791e-01 8.13908994e-01 8.14436138e-01 8.14963341e-01 8.15490544e-01 8.16017687e-01 8.16544890e-01 8.17072093e-01 8.17599237e-01 8.18126261e-01 8.18653345e-01 8.19180369e-01 8.19707394e-01 8.20234418e-01 8.20761502e-01 8.21288526e-01 8.21815670e-01 8.22342873e-01 8.22870076e-01 8.23397219e-01 8.23924303e-01 8.24451327e-01 8.24978352e-01 8.25505435e-01 8.26032579e-01 8.26559782e-01 8.27086926e-01 8.27614069e-01 8.28141153e-01 8.28668177e-01 8.29195261e-01 8.29722285e-01 8.30249310e-01 8.30776393e-01 8.31303537e-01 8.31830740e-01 8.32357883e-01 8.32885087e-01 8.33412290e-01 8.33939552e-01 8.34466755e-01 8.34993899e-01 8.35520923e-01 8.36047947e-01 8.36574972e-01 8.37102056e-01 8.37629080e-01 8.38156104e-01 8.38683128e-01 8.39210629e-01 8.39739203e-01 8.40268373e-01 8.40796947e-01 8.41324568e-01 8.41851771e-01 8.42378914e-01 8.42905998e-01 8.43433022e-01 8.43960047e-01 8.44487131e-01 8.45014155e-01 8.45541179e-01 8.46068203e-01 8.46595287e-01 8.47122312e-01 8.47649455e-01 8.48176658e-01 8.48703861e-01 8.49231005e-01 8.49758148e-01 8.50285232e-01 8.50812256e-01 8.51339340e-01 8.51866364e-01 8.52393389e-01 8.52920413e-01 8.53447497e-01 8.53974521e-01 8.54501545e-01 8.55028689e-01 8.55556011e-01 8.56083393e-01 8.56610715e-01 8.57137859e-01 8.57664883e-01 8.58191907e-01 8.58718991e-01 8.59246016e-01 8.59773040e-01 8.60300064e-01 8.60827744e-01 8.61356735e-01 8.61886561e-01 8.62415612e-01 8.62943232e-01 8.63470316e-01 8.63997340e-01 8.64524364e-01 8.65051389e-01 8.65578473e-01 8.66105497e-01 8.66632521e-01 8.67159545e-01 8.67686629e-01 8.68214250e-01 8.68743062e-01 8.69272530e-01 8.69801939e-01 8.70330751e-01 8.70858371e-01 8.71385455e-01 8.71912479e-01 8.72439504e-01 8.72966528e-01 8.73493612e-01 8.74020636e-01 8.74547660e-01 8.75074685e-01 8.75601768e-01 8.76128793e-01 8.76655817e-01 8.77182841e-01 8.77709925e-01 8.78236949e-01 8.78763974e-01 8.79290998e-01 8.79818082e-01 8.80345106e-01 8.80872130e-01 8.81399155e-01 8.81926239e-01 8.82453263e-01 8.82980287e-01 8.83507311e-01 8.84034395e-01 8.84561419e-01 8.85088444e-01 8.85615468e-01 8.86142552e-01 8.86669636e-01 8.87196898e-01 8.87724221e-01 8.88251424e-01 8.88778567e-01 8.89305592e-01 8.89832616e-01 8.90359640e-01 8.90886724e-01 8.91413748e-01 8.91940773e-01 8.92467797e-01 8.92994881e-01 8.93521905e-01 8.94048929e-01 8.94575953e-01 8.95103037e-01 8.95630062e-01 8.96157086e-01 8.96684110e-01 8.97211194e-01 8.97738218e-01 8.98265243e-01 8.98792267e-01 8.99319351e-01 8.99846375e-01 9.00373399e-01 9.00900424e-01 9.01427507e-01 9.01954532e-01 9.02481556e-01 9.03008580e-01 9.03535664e-01 9.04062688e-01 9.04589713e-01 9.05116737e-01 9.05643761e-01 9.06170785e-01 9.06697810e-01 9.07225370e-01 9.07754004e-01 9.08283472e-01 9.08812881e-01 9.09341335e-01 9.09868777e-01 9.10395920e-01 9.10923004e-01 9.11450028e-01 9.11977053e-01 9.12504137e-01 9.13031161e-01 9.13558185e-01 9.14085209e-01 9.14612293e-01 9.15139318e-01 9.15666342e-01 9.16193366e-01 9.16720450e-01 9.17247474e-01 9.17774498e-01 9.18301523e-01 9.18828547e-01 9.19355631e-01 9.19882655e-01 9.20409679e-01 9.20936704e-01 9.21463788e-01 9.21990812e-01 9.22517836e-01 9.23044860e-01 9.23571944e-01 9.24098969e-01 9.24625993e-01 9.25153017e-01 9.25680101e-01 9.26207125e-01 9.26734149e-01 9.27261174e-01 9.27788258e-01 9.28315282e-01 9.28842306e-01 9.29369330e-01 9.29896414e-01 9.30423439e-01 9.30950463e-01 9.31477487e-01 9.32004571e-01 9.32531595e-01 9.33058619e-01 9.33585644e-01 9.34112728e-01 9.34639752e-01 9.35166776e-01 9.35693800e-01 9.36220884e-01 9.36747909e-01 9.37274933e-01 9.37801957e-01 9.38329041e-01 